digraph Tree {
node [shape=box] ;
0 [label="X[6] <= 0.098\ngini = 0.5\nsamples = 84796\nvalue = [42502, 42294]"] ;
1 [label="X[4] <= -0.197\ngini = 0.457\nsamples = 60992\nvalue = [39414, 21578]"] ;
0 -> 1 [labeldistance=2.5, labelangle=45, headlabel="True"] ;
2 [label="X[492] <= -0.0\ngini = 0.017\nsamples = 4999\nvalue = [43, 4956]"] ;
1 -> 2 ;
3 [label="X[199] <= -0.005\ngini = 0.457\nsamples = 34\nvalue = [22, 12]"] ;
2 -> 3 ;
4 [label="gini = 0.337\nsamples = 28\nvalue = [22, 6]"] ;
3 -> 4 ;
5 [label="gini = 0.0\nsamples = 6\nvalue = [0, 6]"] ;
3 -> 5 ;
6 [label="X[217] <= 0.033\ngini = 0.008\nsamples = 4965\nvalue = [21, 4944]"] ;
2 -> 6 ;
7 [label="gini = 0.007\nsamples = 4960\nvalue = [17, 4943]"] ;
6 -> 7 ;
8 [label="gini = 0.32\nsamples = 5\nvalue = [4, 1]"] ;
6 -> 8 ;
9 [label="X[1] <= 0.503\ngini = 0.417\nsamples = 55993\nvalue = [39371, 16622]"] ;
1 -> 9 ;
10 [label="X[243] <= -0.007\ngini = 0.363\nsamples = 51419\nvalue = [39191, 12228]"] ;
9 -> 10 ;
11 [label="gini = 0.329\nsamples = 3295\nvalue = [683, 2612]"] ;
10 -> 11 ;
12 [label="gini = 0.32\nsamples = 48124\nvalue = [38508, 9616]"] ;
10 -> 12 ;
13 [label="X[15] <= 0.172\ngini = 0.076\nsamples = 4574\nvalue = [180, 4394]"] ;
9 -> 13 ;
14 [label="gini = 0.045\nsamples = 4491\nvalue = [104, 4387]"] ;
13 -> 14 ;
15 [label="gini = 0.154\nsamples = 83\nvalue = [76, 7]"] ;
13 -> 15 ;
16 [label="X[4] <= 0.304\ngini = 0.226\nsamples = 23804\nvalue = [3088, 20716]"] ;
0 -> 16 [labeldistance=2.5, labelangle=-45, headlabel="False"] ;
17 [label="X[64] <= -0.375\ngini = 0.045\nsamples = 20900\nvalue = [479, 20421]"] ;
16 -> 17 ;
18 [label="X[1113] <= 0.0\ngini = 0.419\nsamples = 124\nvalue = [87, 37]"] ;
17 -> 18 ;
19 [label="gini = 0.142\nsamples = 39\nvalue = [36, 3]"] ;
18 -> 19 ;
20 [label="gini = 0.48\nsamples = 85\nvalue = [51, 34]"] ;
18 -> 20 ;
21 [label="X[172] <= -0.049\ngini = 0.037\nsamples = 20776\nvalue = [392, 20384]"] ;
17 -> 21 ;
22 [label="gini = 0.17\nsamples = 32\nvalue = [29, 3]"] ;
21 -> 22 ;
23 [label="gini = 0.034\nsamples = 20744\nvalue = [363, 20381]"] ;
21 -> 23 ;
24 [label="X[375] <= -0.001\ngini = 0.183\nsamples = 2904\nvalue = [2609, 295]"] ;
16 -> 24 ;
25 [label="X[175] <= 0.024\ngini = 0.444\nsamples = 42\nvalue = [14, 28]"] ;
24 -> 25 ;
26 [label="gini = 0.291\nsamples = 34\nvalue = [6, 28]"] ;
25 -> 26 ;
27 [label="gini = 0.0\nsamples = 8\nvalue = [8, 0]"] ;
25 -> 27 ;
28 [label="X[283] <= 0.001\ngini = 0.169\nsamples = 2862\nvalue = [2595, 267]"] ;
24 -> 28 ;
29 [label="gini = 0.164\nsamples = 2840\nvalue = [2584, 256]"] ;
28 -> 29 ;
30 [label="gini = 0.5\nsamples = 22\nvalue = [11, 11]"] ;
28 -> 30 ;
}