digraph Tree {
node [shape=box] ;
0 [label="X[6] <= 0.098\ngini = 0.5\nsamples = 67836\nvalue = [33954, 33882]"] ;
1 [label="X[4] <= -0.197\ngini = 0.458\nsamples = 48766\nvalue = [31467, 17299]"] ;
0 -> 1 [labeldistance=2.5, labelangle=45, headlabel="True"] ;
2 [label="X[403] <= 0.001\ngini = 0.017\nsamples = 4013\nvalue = [34, 3979]"] ;
1 -> 2 ;
3 [label="X[348] <= -0.001\ngini = 0.008\nsamples = 3981\nvalue = [16, 3965]"] ;
2 -> 3 ;
4 [label="X[549] <= 0.0\ngini = 0.353\nsamples = 35\nvalue = [8, 27]"] ;
3 -> 4 ;
5 [label="gini = 0.298\nsamples = 33\nvalue = [6, 27]"] ;
4 -> 5 ;
6 [label="gini = 0.0\nsamples = 2\nvalue = [2, 0]"] ;
4 -> 6 ;
7 [label="X[525] <= 0.0\ngini = 0.004\nsamples = 3946\nvalue = [8, 3938]"] ;
3 -> 7 ;
8 [label="gini = 0.004\nsamples = 3945\nvalue = [7, 3938]"] ;
7 -> 8 ;
9 [label="gini = 0.0\nsamples = 1\nvalue = [1, 0]"] ;
7 -> 9 ;
10 [label="X[199] <= -0.005\ngini = 0.492\nsamples = 32\nvalue = [18, 14]"] ;
2 -> 10 ;
11 [label="X[273] <= -0.005\ngini = 0.34\nsamples = 23\nvalue = [18, 5]"] ;
10 -> 11 ;
12 [label="gini = 0.5\nsamples = 10\nvalue = [5, 5]"] ;
11 -> 12 ;
13 [label="gini = 0.0\nsamples = 13\nvalue = [13, 0]"] ;
11 -> 13 ;
14 [label="gini = 0.0\nsamples = 9\nvalue = [0, 9]"] ;
10 -> 14 ;
15 [label="X[1] <= 0.503\ngini = 0.418\nsamples = 44753\nvalue = [31433, 13320]"] ;
1 -> 15 ;
16 [label="X[243] <= -0.007\ngini = 0.364\nsamples = 41124\nvalue = [31287, 9837]"] ;
15 -> 16 ;
17 [label="X[11] <= -0.027\ngini = 0.323\nsamples = 2643\nvalue = [535, 2108]"] ;
16 -> 17 ;
18 [label="gini = 0.049\nsamples = 238\nvalue = [232, 6]"] ;
17 -> 18 ;
19 [label="gini = 0.22\nsamples = 2405\nvalue = [303, 2102]"] ;
17 -> 19 ;
20 [label="X[12] <= 0.313\ngini = 0.321\nsamples = 38481\nvalue = [30752, 7729]"] ;
16 -> 20 ;
21 [label="gini = 0.287\nsamples = 36771\nvalue = [30384, 6387]"] ;
20 -> 21 ;
22 [label="gini = 0.338\nsamples = 1710\nvalue = [368, 1342]"] ;
20 -> 22 ;
23 [label="X[15] <= 0.172\ngini = 0.077\nsamples = 3629\nvalue = [146, 3483]"] ;
15 -> 23 ;
24 [label="X[476] <= 0.018\ngini = 0.046\nsamples = 3562\nvalue = [84, 3478]"] ;
23 -> 24 ;
25 [label="gini = 0.044\nsamples = 3557\nvalue = [80, 3477]"] ;
24 -> 25 ;
26 [label="gini = 0.32\nsamples = 5\nvalue = [4, 1]"] ;
24 -> 26 ;
27 [label="X[217] <= 0.002\ngini = 0.138\nsamples = 67\nvalue = [62, 5]"] ;
23 -> 27 ;
28 [label="gini = 0.0\nsamples = 5\nvalue = [0, 5]"] ;
27 -> 28 ;
29 [label="gini = 0.0\nsamples = 62\nvalue = [62, 0]"] ;
27 -> 29 ;
30 [label="X[4] <= 0.304\ngini = 0.227\nsamples = 19070\nvalue = [2487, 16583]"] ;
0 -> 30 [labeldistance=2.5, labelangle=-45, headlabel="False"] ;
31 [label="X[64] <= -0.375\ngini = 0.046\nsamples = 16744\nvalue = [391, 16353]"] ;
30 -> 31 ;
32 [label="X[416] <= -0.0\ngini = 0.438\nsamples = 99\nvalue = [67, 32]"] ;
31 -> 32 ;
33 [label="X[33] <= 0.035\ngini = 0.34\nsamples = 69\nvalue = [54, 15]"] ;
32 -> 33 ;
34 [label="gini = 0.281\nsamples = 65\nvalue = [54, 11]"] ;
33 -> 34 ;
35 [label="gini = 0.0\nsamples = 4\nvalue = [0, 4]"] ;
33 -> 35 ;
36 [label="X[1096] <= -0.0\ngini = 0.491\nsamples = 30\nvalue = [13, 17]"] ;
32 -> 36 ;
37 [label="gini = 0.0\nsamples = 5\nvalue = [5, 0]"] ;
36 -> 37 ;
38 [label="gini = 0.435\nsamples = 25\nvalue = [8, 17]"] ;
36 -> 38 ;
39 [label="X[172] <= -0.049\ngini = 0.038\nsamples = 16645\nvalue = [324, 16321]"] ;
31 -> 39 ;
40 [label="X[630] <= 0.0\ngini = 0.211\nsamples = 25\nvalue = [22, 3]"] ;
39 -> 40 ;
41 [label="gini = 0.083\nsamples = 23\nvalue = [22, 1]"] ;
40 -> 41 ;
42 [label="gini = 0.0\nsamples = 2\nvalue = [0, 2]"] ;
40 -> 42 ;
43 [label="X[58] <= 0.13\ngini = 0.036\nsamples = 16620\nvalue = [302, 16318]"] ;
39 -> 43 ;
44 [label="gini = 0.022\nsamples = 15572\nvalue = [173, 15399]"] ;
43 -> 44 ;
45 [label="gini = 0.216\nsamples = 1048\nvalue = [129, 919]"] ;
43 -> 45 ;
46 [label="X[270] <= -0.005\ngini = 0.178\nsamples = 2326\nvalue = [2096, 230]"] ;
30 -> 46 ;
47 [label="X[460] <= -0.001\ngini = 0.198\nsamples = 18\nvalue = [2, 16]"] ;
46 -> 47 ;
48 [label="gini = 0.0\nsamples = 2\nvalue = [2, 0]"] ;
47 -> 48 ;
49 [label="gini = 0.0\nsamples = 16\nvalue = [0, 16]"] ;
47 -> 49 ;
50 [label="X[1091] <= 0.0\ngini = 0.168\nsamples = 2308\nvalue = [2094, 214]"] ;
46 -> 50 ;
51 [label="X[202] <= -0.0\ngini = 0.154\nsamples = 2194\nvalue = [2009, 185]"] ;
50 -> 51 ;
52 [label="gini = 0.068\nsamples = 513\nvalue = [495, 18]"] ;
51 -> 52 ;
53 [label="gini = 0.179\nsamples = 1681\nvalue = [1514, 167]"] ;
51 -> 53 ;
54 [label="X[461] <= 0.0\ngini = 0.379\nsamples = 114\nvalue = [85, 29]"] ;
50 -> 54 ;
55 [label="gini = 0.18\nsamples = 50\nvalue = [45, 5]"] ;
54 -> 55 ;
56 [label="gini = 0.469\nsamples = 64\nvalue = [40, 24]"] ;
54 -> 56 ;
}