digraph Tree {
node [shape=box] ;
0 [label="X[1173] <= 0.5\ngini = 0.5\nsamples = 84796\nvalue = [42502, 42294]"] ;
1 [label="X[36] <= 0.5\ngini = 0.485\nsamples = 72295\nvalue = [42364, 29931]"] ;
0 -> 1 [labeldistance=2.5, labelangle=45, headlabel="True"] ;
2 [label="X[1136] <= 0.5\ngini = 0.462\nsamples = 66376\nvalue = [42354, 24022]"] ;
1 -> 2 ;
3 [label="X[20] <= 0.5\ngini = 0.428\nsamples = 61217\nvalue = [42262, 18955]"] ;
2 -> 3 ;
4 [label="X[1130] <= 0.5\ngini = 0.392\nsamples = 57592\nvalue = [42180, 15412]"] ;
3 -> 4 ;
5 [label="X[45] <= 0.5\ngini = 0.355\nsamples = 54162\nvalue = [41682, 12480]"] ;
4 -> 5 ;
6 [label="X[30] <= 0.5\ngini = 0.332\nsamples = 52748\nvalue = [41670, 11078]"] ;
5 -> 6 ;
7 [label="X[221] <= 0.5\ngini = 0.315\nsamples = 51693\nvalue = [41573, 10120]"] ;
6 -> 7 ;
8 [label="X[11] <= 0.5\ngini = 0.305\nsamples = 51121\nvalue = [41505, 9616]"] ;
7 -> 8 ;
9 [label="X[1185] <= 0.5\ngini = 0.296\nsamples = 50499\nvalue = [41397, 9102]"] ;
8 -> 9 ;
10 [label="X[1126] <= 0.5\ngini = 0.287\nsamples = 50003\nvalue = [41321, 8682]"] ;
9 -> 10 ;
11 [label="X[10] <= 0.5\ngini = 0.279\nsamples = 49584\nvalue = [41260, 8324]"] ;
10 -> 11 ;
12 [label="X[1161] <= 0.5\ngini = 0.255\nsamples = 44068\nvalue = [37473, 6595]"] ;
11 -> 12 ;
13 [label="X[9] <= 0.5\ngini = 0.249\nsamples = 43858\nvalue = [37463, 6395]"] ;
12 -> 13 ;
14 [label="X[1167] <= 0.5\ngini = 0.234\nsamples = 42292\nvalue = [36562, 5730]"] ;
13 -> 14 ;
15 [label="X[21] <= 0.5\ngini = 0.229\nsamples = 42114\nvalue = [36556, 5558]"] ;
14 -> 15 ;
16 [label="X[1200] <= 0.5\ngini = 0.219\nsamples = 41349\nvalue = [36179, 5170]"] ;
15 -> 16 ;
17 [label="X[1210] <= 0.5\ngini = 0.214\nsamples = 41204\nvalue = [36178, 5026]"] ;
16 -> 17 ;
18 [label="X[1205] <= 0.5\ngini = 0.209\nsamples = 41042\nvalue = [36168, 4874]"] ;
17 -> 18 ;
19 [label="X[12] <= 0.5\ngini = 0.205\nsamples = 40887\nvalue = [36156, 4731]"] ;
18 -> 19 ;
20 [label="X[1211] <= 0.5\ngini = 0.192\nsamples = 39607\nvalue = [35347, 4260]"] ;
19 -> 20 ;
21 [label="X[1137] <= 0.5\ngini = 0.189\nsamples = 39519\nvalue = [35347, 4172]"] ;
20 -> 21 ;
22 [label="X[1195] <= 0.5\ngini = 0.187\nsamples = 39461\nvalue = [35347, 4114]"] ;
21 -> 22 ;
23 [label="X[1029] <= 0.5\ngini = 0.185\nsamples = 39395\nvalue = [35343, 4052]"] ;
22 -> 23 ;
24 [label="X[1238] <= 0.5\ngini = 0.18\nsamples = 39150\nvalue = [35228, 3922]"] ;
23 -> 24 ;
25 [label="X[1265] <= 0.5\ngini = 0.178\nsamples = 39095\nvalue = [35228, 3867]"] ;
24 -> 25 ;
26 [label="X[33] <= 0.5\ngini = 0.176\nsamples = 39030\nvalue = [35220, 3810]"] ;
25 -> 26 ;
27 [label="X[1259] <= 0.5\ngini = 0.172\nsamples = 38822\nvalue = [35121, 3701]"] ;
26 -> 27 ;
28 [label="X[1134] <= 0.5\ngini = 0.171\nsamples = 38784\nvalue = [35121, 3663]"] ;
27 -> 28 ;
29 [label="X[91] <= 0.5\ngini = 0.168\nsamples = 38635\nvalue = [35052, 3583]"] ;
28 -> 29 ;
30 [label="X[1212] <= 0.5\ngini = 0.167\nsamples = 38601\nvalue = [35052, 3549]"] ;
29 -> 30 ;
31 [label="X[19] <= 0.5\ngini = 0.166\nsamples = 38571\nvalue = [35052, 3519]"] ;
30 -> 31 ;
32 [label="X[37] <= 0.5\ngini = 0.151\nsamples = 34254\nvalue = [31436, 2818]"] ;
31 -> 32 ;
33 [label="X[54] <= 0.5\ngini = 0.149\nsamples = 34196\nvalue = [31419, 2777]"] ;
32 -> 33 ;
34 [label="X[67] <= 0.5\ngini = 0.148\nsamples = 34136\nvalue = [31399, 2737]"] ;
33 -> 34 ;
35 [label="X[155] <= 0.5\ngini = 0.147\nsamples = 34115\nvalue = [31399, 2716]"] ;
34 -> 35 ;
36 [label="X[52] <= 0.5\ngini = 0.146\nsamples = 34094\nvalue = [31399, 2695]"] ;
35 -> 36 ;
37 [label="X[996] <= 0.5\ngini = 0.145\nsamples = 34073\nvalue = [31397, 2676]"] ;
36 -> 37 ;
38 [label="X[1201] <= 0.5\ngini = 0.139\nsamples = 33069\nvalue = [30589, 2480]"] ;
37 -> 38 ;
39 [label="X[1243] <= 0.5\ngini = 0.138\nsamples = 33053\nvalue = [30589, 2464]"] ;
38 -> 39 ;
40 [label="X[28] <= 0.5\ngini = 0.137\nsamples = 33036\nvalue = [30588, 2448]"] ;
39 -> 40 ;
41 [label="X[151] <= 0.5\ngini = 0.134\nsamples = 32642\nvalue = [30290, 2352]"] ;
40 -> 41 ;
42 [label="X[1194] <= 0.5\ngini = 0.133\nsamples = 32629\nvalue = [30290, 2339]"] ;
41 -> 42 ;
43 [label="X[129] <= 0.5\ngini = 0.13\nsamples = 32338\nvalue = [30071, 2267]"] ;
42 -> 43 ;
44 [label="X[110] <= 0.5\ngini = 0.13\nsamples = 32329\nvalue = [30071, 2258]"] ;
43 -> 44 ;
45 [label="X[13] <= 0.5\ngini = 0.13\nsamples = 32321\nvalue = [30071, 2250]"] ;
44 -> 45 ;
46 [label="gini = 0.141\nsamples = 26600\nvalue = [24577, 2023]"] ;
45 -> 46 ;
47 [label="gini = 0.076\nsamples = 5721\nvalue = [5494, 227]"] ;
45 -> 47 ;
48 [label="gini = 0.0\nsamples = 8\nvalue = [0, 8]"] ;
44 -> 48 ;
49 [label="gini = 0.0\nsamples = 9\nvalue = [0, 9]"] ;
43 -> 49 ;
50 [label="X[0] <= 0.525\ngini = 0.372\nsamples = 291\nvalue = [219, 72]"] ;
42 -> 50 ;
51 [label="X[0] <= 0.345\ngini = 0.492\nsamples = 39\nvalue = [22, 17]"] ;
50 -> 51 ;
52 [label="X[1018] <= 0.5\ngini = 0.375\nsamples = 20\nvalue = [15, 5]"] ;
51 -> 52 ;
53 [label="gini = 0.332\nsamples = 19\nvalue = [15, 4]"] ;
52 -> 53 ;
54 [label="gini = 0.0\nsamples = 1\nvalue = [0, 1]"] ;
52 -> 54 ;
55 [label="X[1041] <= 0.5\ngini = 0.465\nsamples = 19\nvalue = [7, 12]"] ;
51 -> 55 ;
56 [label="gini = 0.444\nsamples = 18\nvalue = [6, 12]"] ;
55 -> 56 ;
57 [label="gini = 0.0\nsamples = 1\nvalue = [1, 0]"] ;
55 -> 57 ;
58 [label="X[1030] <= 0.5\ngini = 0.341\nsamples = 252\nvalue = [197, 55]"] ;
50 -> 58 ;
59 [label="X[0] <= 2.855\ngini = 0.334\nsamples = 250\nvalue = [197, 53]"] ;
58 -> 59 ;
60 [label="gini = 0.349\nsamples = 235\nvalue = [182, 53]"] ;
59 -> 60 ;
61 [label="gini = 0.0\nsamples = 15\nvalue = [15, 0]"] ;
59 -> 61 ;
62 [label="gini = 0.0\nsamples = 2\nvalue = [0, 2]"] ;
58 -> 62 ;
63 [label="gini = 0.0\nsamples = 13\nvalue = [0, 13]"] ;
41 -> 63 ;
64 [label="X[1199] <= 0.5\ngini = 0.369\nsamples = 394\nvalue = [298, 96]"] ;
40 -> 64 ;
65 [label="X[1009] <= 0.5\ngini = 0.239\nsamples = 346\nvalue = [298, 48]"] ;
64 -> 65 ;
66 [label="X[0] <= 2.63\ngini = 0.17\nsamples = 245\nvalue = [222, 23]"] ;
65 -> 66 ;
67 [label="X[1004] <= 0.5\ngini = 0.13\nsamples = 200\nvalue = [186, 14]"] ;
66 -> 67 ;
68 [label="X[0] <= 0.385\ngini = 0.116\nsamples = 194\nvalue = [182, 12]"] ;
67 -> 68 ;
69 [label="gini = 0.337\nsamples = 14\nvalue = [11, 3]"] ;
68 -> 69 ;
70 [label="gini = 0.095\nsamples = 180\nvalue = [171, 9]"] ;
68 -> 70 ;
71 [label="X[1158] <= 0.5\ngini = 0.444\nsamples = 6\nvalue = [4, 2]"] ;
67 -> 71 ;
72 [label="gini = 0.444\nsamples = 3\nvalue = [1, 2]"] ;
71 -> 72 ;
73 [label="gini = 0.0\nsamples = 3\nvalue = [3, 0]"] ;
71 -> 73 ;
74 [label="X[0] <= 2.765\ngini = 0.32\nsamples = 45\nvalue = [36, 9]"] ;
66 -> 74 ;
75 [label="X[0] <= 2.715\ngini = 0.498\nsamples = 15\nvalue = [8, 7]"] ;
74 -> 75 ;
76 [label="gini = 0.375\nsamples = 8\nvalue = [6, 2]"] ;
75 -> 76 ;
77 [label="gini = 0.408\nsamples = 7\nvalue = [2, 5]"] ;
75 -> 77 ;
78 [label="X[1008] <= 0.5\ngini = 0.124\nsamples = 30\nvalue = [28, 2]"] ;
74 -> 78 ;
79 [label="gini = 0.074\nsamples = 26\nvalue = [25, 1]"] ;
78 -> 79 ;
80 [label="gini = 0.375\nsamples = 4\nvalue = [3, 1]"] ;
78 -> 80 ;
81 [label="X[0] <= 2.5\ngini = 0.373\nsamples = 101\nvalue = [76, 25]"] ;
65 -> 81 ;
82 [label="X[0] <= 0.645\ngini = 0.286\nsamples = 81\nvalue = [67, 14]"] ;
81 -> 82 ;
83 [label="X[0] <= 0.625\ngini = 0.464\nsamples = 30\nvalue = [19, 11]"] ;
82 -> 83 ;
84 [label="gini = 0.452\nsamples = 29\nvalue = [19, 10]"] ;
83 -> 84 ;
85 [label="gini = 0.0\nsamples = 1\nvalue = [0, 1]"] ;
83 -> 85 ;
86 [label="X[0] <= 1.425\ngini = 0.111\nsamples = 51\nvalue = [48, 3]"] ;
82 -> 86 ;
87 [label="gini = 0.0\nsamples = 20\nvalue = [20, 0]"] ;
86 -> 87 ;
88 [label="gini = 0.175\nsamples = 31\nvalue = [28, 3]"] ;
86 -> 88 ;
89 [label="X[0] <= 2.555\ngini = 0.495\nsamples = 20\nvalue = [9, 11]"] ;
81 -> 89 ;
90 [label="gini = 0.0\nsamples = 3\nvalue = [0, 3]"] ;
89 -> 90 ;
91 [label="X[0] <= 2.8\ngini = 0.498\nsamples = 17\nvalue = [9, 8]"] ;
89 -> 91 ;
92 [label="gini = 0.408\nsamples = 7\nvalue = [5, 2]"] ;
91 -> 92 ;
93 [label="gini = 0.48\nsamples = 10\nvalue = [4, 6]"] ;
91 -> 93 ;
94 [label="gini = 0.0\nsamples = 48\nvalue = [0, 48]"] ;
64 -> 94 ;
95 [label="X[976] <= 0.5\ngini = 0.111\nsamples = 17\nvalue = [1, 16]"] ;
39 -> 95 ;
96 [label="gini = 0.0\nsamples = 15\nvalue = [0, 15]"] ;
95 -> 96 ;
97 [label="X[0] <= 2.51\ngini = 0.5\nsamples = 2\nvalue = [1, 1]"] ;
95 -> 97 ;
98 [label="gini = 0.0\nsamples = 1\nvalue = [1, 0]"] ;
97 -> 98 ;
99 [label="gini = 0.0\nsamples = 1\nvalue = [0, 1]"] ;
97 -> 99 ;
100 [label="gini = 0.0\nsamples = 16\nvalue = [0, 16]"] ;
38 -> 100 ;
101 [label="X[0] <= 0.335\ngini = 0.314\nsamples = 1004\nvalue = [808, 196]"] ;
37 -> 101 ;
102 [label="X[27] <= 0.5\ngini = 0.451\nsamples = 64\nvalue = [22, 42]"] ;
101 -> 102 ;
103 [label="X[0] <= 0.11\ngini = 0.429\nsamples = 61\nvalue = [19, 42]"] ;
102 -> 103 ;
104 [label="X[1199] <= 0.5\ngini = 0.499\nsamples = 23\nvalue = [11, 12]"] ;
103 -> 104 ;
105 [label="X[4] <= 0.5\ngini = 0.49\nsamples = 21\nvalue = [9, 12]"] ;
104 -> 105 ;
106 [label="X[15] <= 0.5\ngini = 0.498\nsamples = 15\nvalue = [8, 7]"] ;
105 -> 106 ;
107 [label="X[1218] <= 0.5\ngini = 0.473\nsamples = 13\nvalue = [8, 5]"] ;
106 -> 107 ;
108 [label="X[0] <= 0.07\ngini = 0.444\nsamples = 12\nvalue = [8, 4]"] ;
107 -> 108 ;
109 [label="gini = 0.245\nsamples = 7\nvalue = [6, 1]"] ;
108 -> 109 ;
110 [label="gini = 0.48\nsamples = 5\nvalue = [2, 3]"] ;
108 -> 110 ;
111 [label="gini = 0.0\nsamples = 1\nvalue = [0, 1]"] ;
107 -> 111 ;
112 [label="gini = 0.0\nsamples = 2\nvalue = [0, 2]"] ;
106 -> 112 ;
113 [label="X[0] <= 0.085\ngini = 0.278\nsamples = 6\nvalue = [1, 5]"] ;
105 -> 113 ;
114 [label="gini = 0.0\nsamples = 5\nvalue = [0, 5]"] ;
113 -> 114 ;
115 [label="gini = 0.0\nsamples = 1\nvalue = [1, 0]"] ;
113 -> 115 ;
116 [label="gini = 0.0\nsamples = 2\nvalue = [2, 0]"] ;
104 -> 116 ;
117 [label="X[1251] <= 0.5\ngini = 0.332\nsamples = 38\nvalue = [8, 30]"] ;
103 -> 117 ;
118 [label="X[1234] <= 0.5\ngini = 0.278\nsamples = 36\nvalue = [6, 30]"] ;
117 -> 118 ;
119 [label="X[1271] <= 0.5\ngini = 0.245\nsamples = 35\nvalue = [5, 30]"] ;
118 -> 119 ;
120 [label="X[1158] <= 0.5\ngini = 0.208\nsamples = 34\nvalue = [4, 30]"] ;
119 -> 120 ;
121 [label="X[1118] <= 0.5\ngini = 0.165\nsamples = 33\nvalue = [3, 30]"] ;
120 -> 121 ;
122 [label="gini = 0.117\nsamples = 32\nvalue = [2, 30]"] ;
121 -> 122 ;
123 [label="gini = 0.0\nsamples = 1\nvalue = [1, 0]"] ;
121 -> 123 ;
124 [label="gini = 0.0\nsamples = 1\nvalue = [1, 0]"] ;
120 -> 124 ;
125 [label="gini = 0.0\nsamples = 1\nvalue = [1, 0]"] ;
119 -> 125 ;
126 [label="gini = 0.0\nsamples = 1\nvalue = [1, 0]"] ;
118 -> 126 ;
127 [label="gini = 0.0\nsamples = 2\nvalue = [2, 0]"] ;
117 -> 127 ;
128 [label="gini = 0.0\nsamples = 3\nvalue = [3, 0]"] ;
102 -> 128 ;
129 [label="X[0] <= 1.015\ngini = 0.274\nsamples = 940\nvalue = [786, 154]"] ;
101 -> 129 ;
130 [label="X[1144] <= 0.5\ngini = 0.067\nsamples = 229\nvalue = [221, 8]"] ;
129 -> 130 ;
131 [label="X[1166] <= 0.5\ngini = 0.043\nsamples = 226\nvalue = [221, 5]"] ;
130 -> 131 ;
132 [label="X[1194] <= 0.5\ngini = 0.035\nsamples = 225\nvalue = [221, 4]"] ;
131 -> 132 ;
133 [label="X[1281] <= 0.5\ngini = 0.027\nsamples = 223\nvalue = [220, 3]"] ;
132 -> 133 ;
134 [label="X[1199] <= 0.5\ngini = 0.018\nsamples = 219\nvalue = [217, 2]"] ;
133 -> 134 ;
135 [label="gini = 0.0\nsamples = 196\nvalue = [196, 0]"] ;
134 -> 135 ;
136 [label="X[0] <= 0.385\ngini = 0.159\nsamples = 23\nvalue = [21, 2]"] ;
134 -> 136 ;
137 [label="gini = 0.5\nsamples = 2\nvalue = [1, 1]"] ;
136 -> 137 ;
138 [label="gini = 0.091\nsamples = 21\nvalue = [20, 1]"] ;
136 -> 138 ;
139 [label="X[0] <= 0.425\ngini = 0.375\nsamples = 4\nvalue = [3, 1]"] ;
133 -> 139 ;
140 [label="gini = 0.0\nsamples = 1\nvalue = [0, 1]"] ;
139 -> 140 ;
141 [label="gini = 0.0\nsamples = 3\nvalue = [3, 0]"] ;
139 -> 141 ;
142 [label="X[0] <= 0.705\ngini = 0.5\nsamples = 2\nvalue = [1, 1]"] ;
132 -> 142 ;
143 [label="gini = 0.0\nsamples = 1\nvalue = [1, 0]"] ;
142 -> 143 ;
144 [label="gini = 0.0\nsamples = 1\nvalue = [0, 1]"] ;
142 -> 144 ;
145 [label="gini = 0.0\nsamples = 1\nvalue = [0, 1]"] ;
131 -> 145 ;
146 [label="gini = 0.0\nsamples = 3\nvalue = [0, 3]"] ;
130 -> 146 ;
147 [label="X[0] <= 1.345\ngini = 0.326\nsamples = 711\nvalue = [565, 146]"] ;
129 -> 147 ;
148 [label="X[1187] <= 0.5\ngini = 0.497\nsamples = 98\nvalue = [45, 53]"] ;
147 -> 148 ;
149 [label="X[1271] <= 0.5\ngini = 0.479\nsamples = 88\nvalue = [35, 53]"] ;
148 -> 149 ;
150 [label="X[222] <= 0.5\ngini = 0.462\nsamples = 83\nvalue = [30, 53]"] ;
149 -> 150 ;
151 [label="gini = 0.0\nsamples = 3\nvalue = [3, 0]"] ;
150 -> 151 ;
152 [label="X[0] <= 1.295\ngini = 0.447\nsamples = 80\nvalue = [27, 53]"] ;
150 -> 152 ;
153 [label="X[1193] <= 0.5\ngini = 0.404\nsamples = 64\nvalue = [18, 46]"] ;
152 -> 153 ;
154 [label="gini = 0.366\nsamples = 58\nvalue = [14, 44]"] ;
153 -> 154 ;
155 [label="gini = 0.444\nsamples = 6\nvalue = [4, 2]"] ;
153 -> 155 ;
156 [label="X[0] <= 1.335\ngini = 0.492\nsamples = 16\nvalue = [9, 7]"] ;
152 -> 156 ;
157 [label="gini = 0.397\nsamples = 11\nvalue = [8, 3]"] ;
156 -> 157 ;
158 [label="gini = 0.32\nsamples = 5\nvalue = [1, 4]"] ;
156 -> 158 ;
159 [label="gini = 0.0\nsamples = 5\nvalue = [5, 0]"] ;
149 -> 159 ;
160 [label="gini = 0.0\nsamples = 10\nvalue = [10, 0]"] ;
148 -> 160 ;
161 [label="X[0] <= 2.025\ngini = 0.257\nsamples = 613\nvalue = [520, 93]"] ;
147 -> 161 ;
162 [label="X[1144] <= 0.5\ngini = 0.085\nsamples = 269\nvalue = [257, 12]"] ;
161 -> 162 ;
163 [label="X[1121] <= 0.5\ngini = 0.079\nsamples = 268\nvalue = [257, 11]"] ;
162 -> 163 ;
164 [label="X[1169] <= 0.5\ngini = 0.072\nsamples = 267\nvalue = [257, 10]"] ;
163 -> 164 ;
165 [label="X[1214] <= 0.5\ngini = 0.065\nsamples = 266\nvalue = [257, 9]"] ;
164 -> 165 ;
166 [label="gini = 0.059\nsamples = 264\nvalue = [256, 8]"] ;
165 -> 166 ;
167 [label="gini = 0.5\nsamples = 2\nvalue = [1, 1]"] ;
165 -> 167 ;
168 [label="gini = 0.0\nsamples = 1\nvalue = [0, 1]"] ;
164 -> 168 ;
169 [label="gini = 0.0\nsamples = 1\nvalue = [0, 1]"] ;
163 -> 169 ;
170 [label="gini = 0.0\nsamples = 1\nvalue = [0, 1]"] ;
162 -> 170 ;
171 [label="X[0] <= 2.345\ngini = 0.36\nsamples = 344\nvalue = [263, 81]"] ;
161 -> 171 ;
172 [label="X[0] <= 2.095\ngini = 0.474\nsamples = 70\nvalue = [27, 43]"] ;
171 -> 172 ;
173 [label="X[1199] <= 0.5\ngini = 0.434\nsamples = 22\nvalue = [15, 7]"] ;
172 -> 173 ;
174 [label="X[1230] <= 0.5\ngini = 0.475\nsamples = 18\nvalue = [11, 7]"] ;
173 -> 174 ;
175 [label="gini = 0.457\nsamples = 17\nvalue = [11, 6]"] ;
174 -> 175 ;
176 [label="gini = 0.0\nsamples = 1\nvalue = [0, 1]"] ;
174 -> 176 ;
177 [label="gini = 0.0\nsamples = 4\nvalue = [4, 0]"] ;
173 -> 177 ;
178 [label="X[1187] <= 0.5\ngini = 0.375\nsamples = 48\nvalue = [12, 36]"] ;
172 -> 178 ;
179 [label="X[1172] <= 0.5\ngini = 0.32\nsamples = 45\nvalue = [9, 36]"] ;
178 -> 179 ;
180 [label="gini = 0.298\nsamples = 44\nvalue = [8, 36]"] ;
179 -> 180 ;
181 [label="gini = 0.0\nsamples = 1\nvalue = [1, 0]"] ;
179 -> 181 ;
182 [label="gini = 0.0\nsamples = 3\nvalue = [3, 0]"] ;
178 -> 182 ;
183 [label="X[0] <= 2.555\ngini = 0.239\nsamples = 274\nvalue = [236, 38]"] ;
171 -> 183 ;
184 [label="X[1199] <= 0.5\ngini = 0.366\nsamples = 116\nvalue = [88, 28]"] ;
183 -> 184 ;
185 [label="X[13] <= 0.5\ngini = 0.411\nsamples = 97\nvalue = [69, 28]"] ;
184 -> 185 ;
186 [label="gini = 0.45\nsamples = 82\nvalue = [54, 28]"] ;
185 -> 186 ;
187 [label="gini = 0.0\nsamples = 15\nvalue = [15, 0]"] ;
185 -> 187 ;
188 [label="gini = 0.0\nsamples = 19\nvalue = [19, 0]"] ;
184 -> 188 ;
189 [label="X[1199] <= 0.5\ngini = 0.119\nsamples = 158\nvalue = [148, 10]"] ;
183 -> 189 ;
190 [label="X[1171] <= 0.5\ngini = 0.067\nsamples = 144\nvalue = [139, 5]"] ;
189 -> 190 ;
191 [label="gini = 0.054\nsamples = 143\nvalue = [139, 4]"] ;
190 -> 191 ;
192 [label="gini = 0.0\nsamples = 1\nvalue = [0, 1]"] ;
190 -> 192 ;
193 [label="X[0] <= 2.645\ngini = 0.459\nsamples = 14\nvalue = [9, 5]"] ;
189 -> 193 ;
194 [label="gini = 0.346\nsamples = 9\nvalue = [7, 2]"] ;
193 -> 194 ;
195 [label="gini = 0.48\nsamples = 5\nvalue = [2, 3]"] ;
193 -> 195 ;
196 [label="X[998] <= 0.5\ngini = 0.172\nsamples = 21\nvalue = [2, 19]"] ;
36 -> 196 ;
197 [label="X[0] <= 1.595\ngini = 0.095\nsamples = 20\nvalue = [1, 19]"] ;
196 -> 197 ;
198 [label="X[0] <= 1.35\ngini = 0.198\nsamples = 9\nvalue = [1, 8]"] ;
197 -> 198 ;
199 [label="gini = 0.0\nsamples = 8\nvalue = [0, 8]"] ;
198 -> 199 ;
200 [label="gini = 0.0\nsamples = 1\nvalue = [1, 0]"] ;
198 -> 200 ;
201 [label="gini = 0.0\nsamples = 11\nvalue = [0, 11]"] ;
197 -> 201 ;
202 [label="gini = 0.0\nsamples = 1\nvalue = [1, 0]"] ;
196 -> 202 ;
203 [label="gini = 0.0\nsamples = 21\nvalue = [0, 21]"] ;
35 -> 203 ;
204 [label="gini = 0.0\nsamples = 21\nvalue = [0, 21]"] ;
34 -> 204 ;
205 [label="X[0] <= 0.775\ngini = 0.444\nsamples = 60\nvalue = [20, 40]"] ;
33 -> 205 ;
206 [label="gini = 0.0\nsamples = 10\nvalue = [0, 10]"] ;
205 -> 206 ;
207 [label="X[0] <= 1.505\ngini = 0.48\nsamples = 50\nvalue = [20, 30]"] ;
205 -> 207 ;
208 [label="X[1003] <= 0.5\ngini = 0.484\nsamples = 17\nvalue = [10, 7]"] ;
207 -> 208 ;
209 [label="X[0] <= 1.475\ngini = 0.426\nsamples = 13\nvalue = [9, 4]"] ;
208 -> 209 ;
210 [label="gini = 0.0\nsamples = 5\nvalue = [5, 0]"] ;
209 -> 210 ;
211 [label="X[1008] <= 0.5\ngini = 0.5\nsamples = 8\nvalue = [4, 4]"] ;
209 -> 211 ;
212 [label="X[1009] <= 0.5\ngini = 0.49\nsamples = 7\nvalue = [4, 3]"] ;
211 -> 212 ;
213 [label="gini = 0.0\nsamples = 2\nvalue = [2, 0]"] ;
212 -> 213 ;
214 [label="gini = 0.48\nsamples = 5\nvalue = [2, 3]"] ;
212 -> 214 ;
215 [label="gini = 0.0\nsamples = 1\nvalue = [0, 1]"] ;
211 -> 215 ;
216 [label="X[0] <= 1.47\ngini = 0.375\nsamples = 4\nvalue = [1, 3]"] ;
208 -> 216 ;
217 [label="gini = 0.0\nsamples = 3\nvalue = [0, 3]"] ;
216 -> 217 ;
218 [label="gini = 0.0\nsamples = 1\nvalue = [1, 0]"] ;
216 -> 218 ;
219 [label="X[0] <= 2.75\ngini = 0.422\nsamples = 33\nvalue = [10, 23]"] ;
207 -> 219 ;
220 [label="X[1013] <= 0.5\ngini = 0.337\nsamples = 28\nvalue = [6, 22]"] ;
219 -> 220 ;
221 [label="X[1009] <= 0.5\ngini = 0.302\nsamples = 27\nvalue = [5, 22]"] ;
220 -> 221 ;
222 [label="X[1003] <= 0.5\ngini = 0.219\nsamples = 16\nvalue = [2, 14]"] ;
221 -> 222 ;
223 [label="gini = 0.0\nsamples = 5\nvalue = [0, 5]"] ;
222 -> 223 ;
224 [label="X[1261] <= 0.5\ngini = 0.298\nsamples = 11\nvalue = [2, 9]"] ;
222 -> 224 ;
225 [label="X[0] <= 2.685\ngini = 0.444\nsamples = 3\nvalue = [1, 2]"] ;
224 -> 225 ;
226 [label="gini = 0.0\nsamples = 1\nvalue = [1, 0]"] ;
225 -> 226 ;
227 [label="gini = 0.0\nsamples = 2\nvalue = [0, 2]"] ;
225 -> 227 ;
228 [label="X[0] <= 1.515\ngini = 0.219\nsamples = 8\nvalue = [1, 7]"] ;
224 -> 228 ;
229 [label="gini = 0.444\nsamples = 3\nvalue = [1, 2]"] ;
228 -> 229 ;
230 [label="gini = 0.0\nsamples = 5\nvalue = [0, 5]"] ;
228 -> 230 ;
231 [label="X[0] <= 1.525\ngini = 0.397\nsamples = 11\nvalue = [3, 8]"] ;
221 -> 231 ;
232 [label="gini = 0.0\nsamples = 2\nvalue = [0, 2]"] ;
231 -> 232 ;
233 [label="X[0] <= 1.545\ngini = 0.444\nsamples = 9\nvalue = [3, 6]"] ;
231 -> 233 ;
234 [label="X[0] <= 1.535\ngini = 0.444\nsamples = 3\nvalue = [2, 1]"] ;
233 -> 234 ;
235 [label="gini = 0.5\nsamples = 2\nvalue = [1, 1]"] ;
234 -> 235 ;
236 [label="gini = 0.0\nsamples = 1\nvalue = [1, 0]"] ;
234 -> 236 ;
237 [label="X[0] <= 2.69\ngini = 0.278\nsamples = 6\nvalue = [1, 5]"] ;
233 -> 237 ;
238 [label="gini = 0.0\nsamples = 4\nvalue = [0, 4]"] ;
237 -> 238 ;
239 [label="X[0] <= 2.72\ngini = 0.5\nsamples = 2\nvalue = [1, 1]"] ;
237 -> 239 ;
240 [label="gini = 0.0\nsamples = 1\nvalue = [1, 0]"] ;
239 -> 240 ;
241 [label="gini = 0.0\nsamples = 1\nvalue = [0, 1]"] ;
239 -> 241 ;
242 [label="gini = 0.0\nsamples = 1\nvalue = [1, 0]"] ;
220 -> 242 ;
243 [label="X[1005] <= 0.5\ngini = 0.32\nsamples = 5\nvalue = [4, 1]"] ;
219 -> 243 ;
244 [label="gini = 0.0\nsamples = 4\nvalue = [4, 0]"] ;
243 -> 244 ;
245 [label="gini = 0.0\nsamples = 1\nvalue = [0, 1]"] ;
243 -> 245 ;
246 [label="X[1226] <= 0.5\ngini = 0.414\nsamples = 58\nvalue = [17, 41]"] ;
32 -> 246 ;
247 [label="X[1044] <= 0.5\ngini = 0.069\nsamples = 28\nvalue = [1, 27]"] ;
246 -> 247 ;
248 [label="gini = 0.0\nsamples = 27\nvalue = [0, 27]"] ;
247 -> 248 ;
249 [label="gini = 0.0\nsamples = 1\nvalue = [1, 0]"] ;
247 -> 249 ;
250 [label="X[0] <= 1.42\ngini = 0.498\nsamples = 30\nvalue = [16, 14]"] ;
246 -> 250 ;
251 [label="X[0] <= 1.085\ngini = 0.397\nsamples = 11\nvalue = [3, 8]"] ;
250 -> 251 ;
252 [label="X[0] <= 0.745\ngini = 0.5\nsamples = 6\nvalue = [3, 3]"] ;
251 -> 252 ;
253 [label="gini = 0.0\nsamples = 2\nvalue = [0, 2]"] ;
252 -> 253 ;
254 [label="X[0] <= 0.86\ngini = 0.375\nsamples = 4\nvalue = [3, 1]"] ;
252 -> 254 ;
255 [label="X[1003] <= 0.5\ngini = 0.5\nsamples = 2\nvalue = [1, 1]"] ;
254 -> 255 ;
256 [label="gini = 0.0\nsamples = 1\nvalue = [0, 1]"] ;
255 -> 256 ;
257 [label="gini = 0.0\nsamples = 1\nvalue = [1, 0]"] ;
255 -> 257 ;
258 [label="gini = 0.0\nsamples = 2\nvalue = [2, 0]"] ;
254 -> 258 ;
259 [label="gini = 0.0\nsamples = 5\nvalue = [0, 5]"] ;
251 -> 259 ;
260 [label="X[1000] <= 0.5\ngini = 0.432\nsamples = 19\nvalue = [13, 6]"] ;
250 -> 260 ;
261 [label="X[1007] <= 0.5\ngini = 0.401\nsamples = 18\nvalue = [13, 5]"] ;
260 -> 261 ;
262 [label="X[0] <= 2.38\ngini = 0.36\nsamples = 17\nvalue = [13, 4]"] ;
261 -> 262 ;
263 [label="gini = 0.0\nsamples = 4\nvalue = [4, 0]"] ;
262 -> 263 ;
264 [label="X[0] <= 2.395\ngini = 0.426\nsamples = 13\nvalue = [9, 4]"] ;
262 -> 264 ;
265 [label="gini = 0.0\nsamples = 1\nvalue = [0, 1]"] ;
264 -> 265 ;
266 [label="X[1009] <= 0.5\ngini = 0.375\nsamples = 12\nvalue = [9, 3]"] ;
264 -> 266 ;
267 [label="X[0] <= 2.705\ngini = 0.219\nsamples = 8\nvalue = [7, 1]"] ;
266 -> 267 ;
268 [label="gini = 0.0\nsamples = 5\nvalue = [5, 0]"] ;
267 -> 268 ;
269 [label="X[0] <= 2.765\ngini = 0.444\nsamples = 3\nvalue = [2, 1]"] ;
267 -> 269 ;
270 [label="gini = 0.0\nsamples = 1\nvalue = [0, 1]"] ;
269 -> 270 ;
271 [label="gini = 0.0\nsamples = 2\nvalue = [2, 0]"] ;
269 -> 271 ;
272 [label="X[0] <= 2.515\ngini = 0.5\nsamples = 4\nvalue = [2, 2]"] ;
266 -> 272 ;
273 [label="gini = 0.0\nsamples = 1\nvalue = [0, 1]"] ;
272 -> 273 ;
274 [label="X[0] <= 2.615\ngini = 0.444\nsamples = 3\nvalue = [2, 1]"] ;
272 -> 274 ;
275 [label="gini = 0.0\nsamples = 1\nvalue = [1, 0]"] ;
274 -> 275 ;
276 [label="X[0] <= 2.78\ngini = 0.5\nsamples = 2\nvalue = [1, 1]"] ;
274 -> 276 ;
277 [label="gini = 0.0\nsamples = 1\nvalue = [0, 1]"] ;
276 -> 277 ;
278 [label="gini = 0.0\nsamples = 1\nvalue = [1, 0]"] ;
276 -> 278 ;
279 [label="gini = 0.0\nsamples = 1\nvalue = [0, 1]"] ;
261 -> 279 ;
280 [label="gini = 0.0\nsamples = 1\nvalue = [0, 1]"] ;
260 -> 280 ;
281 [label="X[1009] <= 0.5\ngini = 0.272\nsamples = 4317\nvalue = [3616, 701]"] ;
31 -> 281 ;
282 [label="X[1003] <= 0.5\ngini = 0.23\nsamples = 3289\nvalue = [2854, 435]"] ;
281 -> 282 ;
283 [label="X[1012] <= 0.5\ngini = 0.2\nsamples = 2422\nvalue = [2149, 273]"] ;
282 -> 283 ;
284 [label="X[1113] <= 0.5\ngini = 0.186\nsamples = 2260\nvalue = [2025, 235]"] ;
283 -> 284 ;
285 [label="X[1015] <= 0.5\ngini = 0.195\nsamples = 2147\nvalue = [1912, 235]"] ;
284 -> 285 ;
286 [label="X[0] <= 0.445\ngini = 0.189\nsamples = 2055\nvalue = [1838, 217]"] ;
285 -> 286 ;
287 [label="X[1017] <= 0.5\ngini = 0.085\nsamples = 180\nvalue = [172, 8]"] ;
286 -> 287 ;
288 [label="X[1000] <= 0.5\ngini = 0.065\nsamples = 177\nvalue = [171, 6]"] ;
287 -> 288 ;
289 [label="X[222] <= 0.5\ngini = 0.035\nsamples = 166\nvalue = [163, 3]"] ;
288 -> 289 ;
290 [label="X[1007] <= 0.5\ngini = 0.375\nsamples = 4\nvalue = [3, 1]"] ;
289 -> 290 ;
291 [label="gini = 0.0\nsamples = 3\nvalue = [3, 0]"] ;
290 -> 291 ;
292 [label="gini = 0.0\nsamples = 1\nvalue = [0, 1]"] ;
290 -> 292 ;
293 [label="X[0] <= 0.025\ngini = 0.024\nsamples = 162\nvalue = [160, 2]"] ;
289 -> 293 ;
294 [label="X[998] <= 0.5\ngini = 0.245\nsamples = 7\nvalue = [6, 1]"] ;
293 -> 294 ;
295 [label="gini = 0.0\nsamples = 5\nvalue = [5, 0]"] ;
294 -> 295 ;
296 [label="gini = 0.5\nsamples = 2\nvalue = [1, 1]"] ;
294 -> 296 ;
297 [label="X[1007] <= 0.5\ngini = 0.013\nsamples = 155\nvalue = [154, 1]"] ;
293 -> 297 ;
298 [label="gini = 0.0\nsamples = 140\nvalue = [140, 0]"] ;
297 -> 298 ;
299 [label="X[0] <= 0.115\ngini = 0.124\nsamples = 15\nvalue = [14, 1]"] ;
297 -> 299 ;
300 [label="X[1132] <= 0.5\ngini = 0.375\nsamples = 4\nvalue = [3, 1]"] ;
299 -> 300 ;
301 [label="gini = 0.0\nsamples = 3\nvalue = [3, 0]"] ;
300 -> 301 ;
302 [label="gini = 0.0\nsamples = 1\nvalue = [0, 1]"] ;
300 -> 302 ;
303 [label="gini = 0.0\nsamples = 11\nvalue = [11, 0]"] ;
299 -> 303 ;
304 [label="X[0] <= 0.215\ngini = 0.397\nsamples = 11\nvalue = [8, 3]"] ;
288 -> 304 ;
305 [label="gini = 0.0\nsamples = 3\nvalue = [3, 0]"] ;
304 -> 305 ;
306 [label="X[0] <= 0.355\ngini = 0.469\nsamples = 8\nvalue = [5, 3]"] ;
304 -> 306 ;
307 [label="gini = 0.0\nsamples = 2\nvalue = [0, 2]"] ;
306 -> 307 ;
308 [label="X[0] <= 0.405\ngini = 0.278\nsamples = 6\nvalue = [5, 1]"] ;
306 -> 308 ;
309 [label="X[0] <= 0.395\ngini = 0.444\nsamples = 3\nvalue = [2, 1]"] ;
308 -> 309 ;
310 [label="gini = 0.0\nsamples = 2\nvalue = [2, 0]"] ;
309 -> 310 ;
311 [label="gini = 0.0\nsamples = 1\nvalue = [0, 1]"] ;
309 -> 311 ;
312 [label="gini = 0.0\nsamples = 3\nvalue = [3, 0]"] ;
308 -> 312 ;
313 [label="X[1151] <= 0.5\ngini = 0.444\nsamples = 3\nvalue = [1, 2]"] ;
287 -> 313 ;
314 [label="X[0] <= 0.13\ngini = 0.5\nsamples = 2\nvalue = [1, 1]"] ;
313 -> 314 ;
315 [label="gini = 0.0\nsamples = 1\nvalue = [1, 0]"] ;
314 -> 315 ;
316 [label="gini = 0.0\nsamples = 1\nvalue = [0, 1]"] ;
314 -> 316 ;
317 [label="gini = 0.0\nsamples = 1\nvalue = [0, 1]"] ;
313 -> 317 ;
318 [label="X[1227] <= 0.5\ngini = 0.198\nsamples = 1875\nvalue = [1666, 209]"] ;
286 -> 318 ;
319 [label="X[1257] <= 0.5\ngini = 0.191\nsamples = 1782\nvalue = [1591, 191]"] ;
318 -> 319 ;
320 [label="X[998] <= 0.5\ngini = 0.189\nsamples = 1770\nvalue = [1583, 187]"] ;
319 -> 320 ;
321 [label="X[1004] <= 0.5\ngini = 0.181\nsamples = 1649\nvalue = [1483, 166]"] ;
320 -> 321 ;
322 [label="X[0] <= 1.845\ngini = 0.175\nsamples = 1596\nvalue = [1441, 155]"] ;
321 -> 322 ;
323 [label="X[1007] <= 0.5\ngini = 0.202\nsamples = 860\nvalue = [762, 98]"] ;
322 -> 323 ;
324 [label="X[1008] <= 0.5\ngini = 0.183\nsamples = 758\nvalue = [681, 77]"] ;
323 -> 324 ;
325 [label="X[1203] <= 0.5\ngini = 0.166\nsamples = 659\nvalue = [599, 60]"] ;
324 -> 325 ;
326 [label="gini = 0.161\nsamples = 655\nvalue = [597, 58]"] ;
325 -> 326 ;
327 [label="gini = 0.5\nsamples = 4\nvalue = [2, 2]"] ;
325 -> 327 ;
328 [label="X[1252] <= 0.5\ngini = 0.284\nsamples = 99\nvalue = [82, 17]"] ;
324 -> 328 ;
329 [label="gini = 0.264\nsamples = 96\nvalue = [81, 15]"] ;
328 -> 329 ;
330 [label="gini = 0.444\nsamples = 3\nvalue = [1, 2]"] ;
328 -> 330 ;
331 [label="X[0] <= 0.615\ngini = 0.327\nsamples = 102\nvalue = [81, 21]"] ;
323 -> 331 ;
332 [label="gini = 0.0\nsamples = 12\nvalue = [12, 0]"] ;
331 -> 332 ;
333 [label="X[0] <= 0.75\ngini = 0.358\nsamples = 90\nvalue = [69, 21]"] ;
331 -> 333 ;
334 [label="gini = 0.473\nsamples = 13\nvalue = [5, 8]"] ;
333 -> 334 ;
335 [label="gini = 0.281\nsamples = 77\nvalue = [64, 13]"] ;
333 -> 335 ;
336 [label="X[1000] <= 0.5\ngini = 0.143\nsamples = 736\nvalue = [679, 57]"] ;
322 -> 336 ;
337 [label="X[996] <= 0.5\ngini = 0.125\nsamples = 687\nvalue = [641, 46]"] ;
336 -> 337 ;
338 [label="X[1030] <= 0.5\ngini = 0.109\nsamples = 642\nvalue = [605, 37]"] ;
337 -> 338 ;
339 [label="gini = 0.101\nsamples = 620\nvalue = [587, 33]"] ;
338 -> 339 ;
340 [label="gini = 0.298\nsamples = 22\nvalue = [18, 4]"] ;
338 -> 340 ;
341 [label="X[0] <= 2.835\ngini = 0.32\nsamples = 45\nvalue = [36, 9]"] ;
337 -> 341 ;
342 [label="gini = 0.375\nsamples = 36\nvalue = [27, 9]"] ;
341 -> 342 ;
343 [label="gini = 0.0\nsamples = 9\nvalue = [9, 0]"] ;
341 -> 343 ;
344 [label="X[1252] <= 0.5\ngini = 0.348\nsamples = 49\nvalue = [38, 11]"] ;
336 -> 344 ;
345 [label="X[0] <= 2.715\ngini = 0.298\nsamples = 44\nvalue = [36, 8]"] ;
344 -> 345 ;
346 [label="gini = 0.391\nsamples = 30\nvalue = [22, 8]"] ;
345 -> 346 ;
347 [label="gini = 0.0\nsamples = 14\nvalue = [14, 0]"] ;
345 -> 347 ;
348 [label="X[0] <= 2.5\ngini = 0.48\nsamples = 5\nvalue = [2, 3]"] ;
344 -> 348 ;
349 [label="gini = 0.0\nsamples = 2\nvalue = [2, 0]"] ;
348 -> 349 ;
350 [label="gini = 0.0\nsamples = 3\nvalue = [0, 3]"] ;
348 -> 350 ;
351 [label="X[0] <= 2.63\ngini = 0.329\nsamples = 53\nvalue = [42, 11]"] ;
321 -> 351 ;
352 [label="X[0] <= 2.44\ngini = 0.411\nsamples = 38\nvalue = [27, 11]"] ;
351 -> 352 ;
353 [label="X[1151] <= 0.5\ngini = 0.35\nsamples = 31\nvalue = [24, 7]"] ;
352 -> 353 ;
354 [label="X[0] <= 0.835\ngini = 0.293\nsamples = 28\nvalue = [23, 5]"] ;
353 -> 354 ;
355 [label="gini = 0.444\nsamples = 9\nvalue = [6, 3]"] ;
354 -> 355 ;
356 [label="gini = 0.188\nsamples = 19\nvalue = [17, 2]"] ;
354 -> 356 ;
357 [label="X[0] <= 0.96\ngini = 0.444\nsamples = 3\nvalue = [1, 2]"] ;
353 -> 357 ;
358 [label="gini = 0.0\nsamples = 1\nvalue = [1, 0]"] ;
357 -> 358 ;
359 [label="gini = 0.0\nsamples = 2\nvalue = [0, 2]"] ;
357 -> 359 ;
360 [label="X[1132] <= 0.5\ngini = 0.49\nsamples = 7\nvalue = [3, 4]"] ;
352 -> 360 ;
361 [label="X[0] <= 2.57\ngini = 0.444\nsamples = 3\nvalue = [2, 1]"] ;
360 -> 361 ;
362 [label="gini = 0.0\nsamples = 1\nvalue = [1, 0]"] ;
361 -> 362 ;
363 [label="gini = 0.5\nsamples = 2\nvalue = [1, 1]"] ;
361 -> 363 ;
364 [label="X[0] <= 2.51\ngini = 0.375\nsamples = 4\nvalue = [1, 3]"] ;
360 -> 364 ;
365 [label="gini = 0.5\nsamples = 2\nvalue = [1, 1]"] ;
364 -> 365 ;
366 [label="gini = 0.0\nsamples = 2\nvalue = [0, 2]"] ;
364 -> 366 ;
367 [label="gini = 0.0\nsamples = 15\nvalue = [15, 0]"] ;
351 -> 367 ;
368 [label="X[1147] <= 0.5\ngini = 0.287\nsamples = 121\nvalue = [100, 21]"] ;
320 -> 368 ;
369 [label="X[0] <= 1.615\ngini = 0.278\nsamples = 120\nvalue = [100, 20]"] ;
368 -> 369 ;
370 [label="X[1151] <= 0.5\ngini = 0.171\nsamples = 53\nvalue = [48, 5]"] ;
369 -> 370 ;
371 [label="X[0] <= 0.625\ngini = 0.12\nsamples = 47\nvalue = [44, 3]"] ;
370 -> 371 ;
372 [label="gini = 0.0\nsamples = 12\nvalue = [12, 0]"] ;
371 -> 372 ;
373 [label="X[0] <= 0.65\ngini = 0.157\nsamples = 35\nvalue = [32, 3]"] ;
371 -> 373 ;
374 [label="gini = 0.5\nsamples = 2\nvalue = [1, 1]"] ;
373 -> 374 ;
375 [label="gini = 0.114\nsamples = 33\nvalue = [31, 2]"] ;
373 -> 375 ;
376 [label="X[0] <= 0.845\ngini = 0.444\nsamples = 6\nvalue = [4, 2]"] ;
370 -> 376 ;
377 [label="gini = 0.0\nsamples = 3\nvalue = [3, 0]"] ;
376 -> 377 ;
378 [label="X[0] <= 0.915\ngini = 0.444\nsamples = 3\nvalue = [1, 2]"] ;
376 -> 378 ;
379 [label="gini = 0.0\nsamples = 2\nvalue = [0, 2]"] ;
378 -> 379 ;
380 [label="gini = 0.0\nsamples = 1\nvalue = [1, 0]"] ;
378 -> 380 ;
381 [label="X[0] <= 1.665\ngini = 0.348\nsamples = 67\nvalue = [52, 15]"] ;
369 -> 381 ;
382 [label="gini = 0.0\nsamples = 2\nvalue = [0, 2]"] ;
381 -> 382 ;
383 [label="X[1142] <= 0.5\ngini = 0.32\nsamples = 65\nvalue = [52, 13]"] ;
381 -> 383 ;
384 [label="X[0] <= 2.855\ngini = 0.282\nsamples = 53\nvalue = [44, 9]"] ;
383 -> 384 ;
385 [label="gini = 0.331\nsamples = 43\nvalue = [34, 9]"] ;
384 -> 385 ;
386 [label="gini = 0.0\nsamples = 10\nvalue = [10, 0]"] ;
384 -> 386 ;
387 [label="X[0] <= 2.985\ngini = 0.444\nsamples = 12\nvalue = [8, 4]"] ;
383 -> 387 ;
388 [label="gini = 0.397\nsamples = 11\nvalue = [8, 3]"] ;
387 -> 388 ;
389 [label="gini = 0.0\nsamples = 1\nvalue = [0, 1]"] ;
387 -> 389 ;
390 [label="gini = 0.0\nsamples = 1\nvalue = [0, 1]"] ;
368 -> 390 ;
391 [label="X[0] <= 2.665\ngini = 0.444\nsamples = 12\nvalue = [8, 4]"] ;
319 -> 391 ;
392 [label="X[1041] <= 0.5\ngini = 0.32\nsamples = 5\nvalue = [1, 4]"] ;
391 -> 392 ;
393 [label="gini = 0.0\nsamples = 4\nvalue = [0, 4]"] ;
392 -> 393 ;
394 [label="gini = 0.0\nsamples = 1\nvalue = [1, 0]"] ;
392 -> 394 ;
395 [label="gini = 0.0\nsamples = 7\nvalue = [7, 0]"] ;
391 -> 395 ;
396 [label="X[1025] <= 0.5\ngini = 0.312\nsamples = 93\nvalue = [75, 18]"] ;
318 -> 396 ;
397 [label="X[1002] <= 0.5\ngini = 0.29\nsamples = 91\nvalue = [75, 16]"] ;
396 -> 397 ;
398 [label="X[1036] <= 0.5\ngini = 0.278\nsamples = 90\nvalue = [75, 15]"] ;
397 -> 398 ;
399 [label="X[0] <= 2.91\ngini = 0.265\nsamples = 89\nvalue = [75, 14]"] ;
398 -> 399 ;
400 [label="X[0] <= 2.615\ngini = 0.254\nsamples = 87\nvalue = [74, 13]"] ;
399 -> 400 ;
401 [label="X[0] <= 2.5\ngini = 0.29\nsamples = 74\nvalue = [61, 13]"] ;
400 -> 401 ;
402 [label="X[1007] <= 0.5\ngini = 0.227\nsamples = 69\nvalue = [60, 9]"] ;
401 -> 402 ;
403 [label="gini = 0.198\nsamples = 63\nvalue = [56, 7]"] ;
402 -> 403 ;
404 [label="gini = 0.444\nsamples = 6\nvalue = [4, 2]"] ;
402 -> 404 ;
405 [label="X[998] <= 0.5\ngini = 0.32\nsamples = 5\nvalue = [1, 4]"] ;
401 -> 405 ;
406 [label="gini = 0.0\nsamples = 4\nvalue = [0, 4]"] ;
405 -> 406 ;
407 [label="gini = 0.0\nsamples = 1\nvalue = [1, 0]"] ;
405 -> 407 ;
408 [label="gini = 0.0\nsamples = 13\nvalue = [13, 0]"] ;
400 -> 408 ;
409 [label="X[0] <= 2.94\ngini = 0.5\nsamples = 2\nvalue = [1, 1]"] ;
399 -> 409 ;
410 [label="gini = 0.0\nsamples = 1\nvalue = [0, 1]"] ;
409 -> 410 ;
411 [label="gini = 0.0\nsamples = 1\nvalue = [1, 0]"] ;
409 -> 411 ;
412 [label="gini = 0.0\nsamples = 1\nvalue = [0, 1]"] ;
398 -> 412 ;
413 [label="gini = 0.0\nsamples = 1\nvalue = [0, 1]"] ;
397 -> 413 ;
414 [label="gini = 0.0\nsamples = 2\nvalue = [0, 2]"] ;
396 -> 414 ;
415 [label="X[1252] <= 0.5\ngini = 0.315\nsamples = 92\nvalue = [74, 18]"] ;
285 -> 415 ;
416 [label="X[0] <= 0.495\ngini = 0.269\nsamples = 75\nvalue = [63, 12]"] ;
415 -> 416 ;
417 [label="X[0] <= 0.155\ngini = 0.444\nsamples = 9\nvalue = [6, 3]"] ;
416 -> 417 ;
418 [label="gini = 0.0\nsamples = 3\nvalue = [3, 0]"] ;
417 -> 418 ;
419 [label="X[1142] <= 0.5\ngini = 0.5\nsamples = 6\nvalue = [3, 3]"] ;
417 -> 419 ;
420 [label="X[0] <= 0.45\ngini = 0.48\nsamples = 5\nvalue = [3, 2]"] ;
419 -> 420 ;
421 [label="X[0] <= 0.385\ngini = 0.375\nsamples = 4\nvalue = [3, 1]"] ;
420 -> 421 ;
422 [label="X[0] <= 0.365\ngini = 0.5\nsamples = 2\nvalue = [1, 1]"] ;
421 -> 422 ;
423 [label="gini = 0.0\nsamples = 1\nvalue = [1, 0]"] ;
422 -> 423 ;
424 [label="gini = 0.0\nsamples = 1\nvalue = [0, 1]"] ;
422 -> 424 ;
425 [label="gini = 0.0\nsamples = 2\nvalue = [2, 0]"] ;
421 -> 425 ;
426 [label="gini = 0.0\nsamples = 1\nvalue = [0, 1]"] ;
420 -> 426 ;
427 [label="gini = 0.0\nsamples = 1\nvalue = [0, 1]"] ;
419 -> 427 ;
428 [label="X[0] <= 2.94\ngini = 0.236\nsamples = 66\nvalue = [57, 9]"] ;
416 -> 428 ;
429 [label="X[0] <= 2.45\ngini = 0.219\nsamples = 64\nvalue = [56, 8]"] ;
428 -> 429 ;
430 [label="X[0] <= 2.415\ngini = 0.273\nsamples = 49\nvalue = [41, 8]"] ;
429 -> 430 ;
431 [label="X[0] <= 0.98\ngini = 0.249\nsamples = 48\nvalue = [41, 7]"] ;
430 -> 431 ;
432 [label="gini = 0.0\nsamples = 10\nvalue = [10, 0]"] ;
431 -> 432 ;
433 [label="X[0] <= 1.255\ngini = 0.301\nsamples = 38\nvalue = [31, 7]"] ;
431 -> 433 ;
434 [label="X[1142] <= 0.5\ngini = 0.48\nsamples = 5\nvalue = [2, 3]"] ;
433 -> 434 ;
435 [label="X[0] <= 1.015\ngini = 0.444\nsamples = 3\nvalue = [2, 1]"] ;
434 -> 435 ;
436 [label="gini = 0.5\nsamples = 2\nvalue = [1, 1]"] ;
435 -> 436 ;
437 [label="gini = 0.0\nsamples = 1\nvalue = [1, 0]"] ;
435 -> 437 ;
438 [label="gini = 0.0\nsamples = 2\nvalue = [0, 2]"] ;
434 -> 438 ;
439 [label="X[0] <= 1.56\ngini = 0.213\nsamples = 33\nvalue = [29, 4]"] ;
433 -> 439 ;
440 [label="gini = 0.0\nsamples = 11\nvalue = [11, 0]"] ;
439 -> 440 ;
441 [label="X[1142] <= 0.5\ngini = 0.298\nsamples = 22\nvalue = [18, 4]"] ;
439 -> 441 ;
442 [label="gini = 0.208\nsamples = 17\nvalue = [15, 2]"] ;
441 -> 442 ;
443 [label="gini = 0.48\nsamples = 5\nvalue = [3, 2]"] ;
441 -> 443 ;
444 [label="gini = 0.0\nsamples = 1\nvalue = [0, 1]"] ;
430 -> 444 ;
445 [label="gini = 0.0\nsamples = 15\nvalue = [15, 0]"] ;
429 -> 445 ;
446 [label="gini = 0.5\nsamples = 2\nvalue = [1, 1]"] ;
428 -> 446 ;
447 [label="X[0] <= 2.44\ngini = 0.457\nsamples = 17\nvalue = [11, 6]"] ;
415 -> 447 ;
448 [label="X[0] <= 1.385\ngini = 0.337\nsamples = 14\nvalue = [11, 3]"] ;
447 -> 448 ;
449 [label="X[0] <= 1.285\ngini = 0.49\nsamples = 7\nvalue = [4, 3]"] ;
448 -> 449 ;
450 [label="gini = 0.0\nsamples = 3\nvalue = [3, 0]"] ;
449 -> 450 ;
451 [label="X[0] <= 1.36\ngini = 0.375\nsamples = 4\nvalue = [1, 3]"] ;
449 -> 451 ;
452 [label="gini = 0.0\nsamples = 1\nvalue = [0, 1]"] ;
451 -> 452 ;
453 [label="X[0] <= 1.375\ngini = 0.444\nsamples = 3\nvalue = [1, 2]"] ;
451 -> 453 ;
454 [label="gini = 0.5\nsamples = 2\nvalue = [1, 1]"] ;
453 -> 454 ;
455 [label="gini = 0.0\nsamples = 1\nvalue = [0, 1]"] ;
453 -> 455 ;
456 [label="gini = 0.0\nsamples = 7\nvalue = [7, 0]"] ;
448 -> 456 ;
457 [label="gini = 0.0\nsamples = 3\nvalue = [0, 3]"] ;
447 -> 457 ;
458 [label="gini = 0.0\nsamples = 113\nvalue = [113, 0]"] ;
284 -> 458 ;
459 [label="X[222] <= 0.5\ngini = 0.359\nsamples = 162\nvalue = [124, 38]"] ;
283 -> 459 ;
460 [label="X[1142] <= 0.5\ngini = 0.375\nsamples = 4\nvalue = [1, 3]"] ;
459 -> 460 ;
461 [label="gini = 0.0\nsamples = 3\nvalue = [0, 3]"] ;
460 -> 461 ;
462 [label="gini = 0.0\nsamples = 1\nvalue = [1, 0]"] ;
460 -> 462 ;
463 [label="X[0] <= 1.32\ngini = 0.345\nsamples = 158\nvalue = [123, 35]"] ;
459 -> 463 ;
464 [label="X[0] <= 1.1\ngini = 0.44\nsamples = 55\nvalue = [37, 18]"] ;
463 -> 464 ;
465 [label="X[1227] <= 0.5\ngini = 0.411\nsamples = 52\nvalue = [37, 15]"] ;
464 -> 465 ;
466 [label="X[1132] <= 0.5\ngini = 0.398\nsamples = 51\nvalue = [37, 14]"] ;
465 -> 466 ;
467 [label="X[0] <= 0.42\ngini = 0.339\nsamples = 37\nvalue = [29, 8]"] ;
466 -> 467 ;
468 [label="X[0] <= 0.14\ngini = 0.463\nsamples = 11\nvalue = [7, 4]"] ;
467 -> 468 ;
469 [label="gini = 0.0\nsamples = 4\nvalue = [4, 0]"] ;
468 -> 469 ;
470 [label="X[1151] <= 0.5\ngini = 0.49\nsamples = 7\nvalue = [3, 4]"] ;
468 -> 470 ;
471 [label="X[0] <= 0.18\ngini = 0.444\nsamples = 6\nvalue = [2, 4]"] ;
470 -> 471 ;
472 [label="gini = 0.0\nsamples = 1\nvalue = [0, 1]"] ;
471 -> 472 ;
473 [label="X[0] <= 0.22\ngini = 0.48\nsamples = 5\nvalue = [2, 3]"] ;
471 -> 473 ;
474 [label="gini = 0.0\nsamples = 1\nvalue = [1, 0]"] ;
473 -> 474 ;
475 [label="X[0] <= 0.385\ngini = 0.375\nsamples = 4\nvalue = [1, 3]"] ;
473 -> 475 ;
476 [label="gini = 0.0\nsamples = 2\nvalue = [0, 2]"] ;
475 -> 476 ;
477 [label="gini = 0.5\nsamples = 2\nvalue = [1, 1]"] ;
475 -> 477 ;
478 [label="gini = 0.0\nsamples = 1\nvalue = [1, 0]"] ;
470 -> 478 ;
479 [label="X[1257] <= 0.5\ngini = 0.26\nsamples = 26\nvalue = [22, 4]"] ;
467 -> 479 ;
480 [label="X[0] <= 0.945\ngini = 0.219\nsamples = 24\nvalue = [21, 3]"] ;
479 -> 480 ;
481 [label="X[1151] <= 0.5\ngini = 0.117\nsamples = 16\nvalue = [15, 1]"] ;
480 -> 481 ;
482 [label="gini = 0.0\nsamples = 12\nvalue = [12, 0]"] ;
481 -> 482 ;
483 [label="X[0] <= 0.545\ngini = 0.375\nsamples = 4\nvalue = [3, 1]"] ;
481 -> 483 ;
484 [label="gini = 0.0\nsamples = 2\nvalue = [2, 0]"] ;
483 -> 484 ;
485 [label="X[0] <= 0.715\ngini = 0.5\nsamples = 2\nvalue = [1, 1]"] ;
483 -> 485 ;
486 [label="gini = 0.0\nsamples = 1\nvalue = [0, 1]"] ;
485 -> 486 ;
487 [label="gini = 0.0\nsamples = 1\nvalue = [1, 0]"] ;
485 -> 487 ;
488 [label="X[0] <= 0.965\ngini = 0.375\nsamples = 8\nvalue = [6, 2]"] ;
480 -> 488 ;
489 [label="gini = 0.0\nsamples = 1\nvalue = [0, 1]"] ;
488 -> 489 ;
490 [label="X[0] <= 1.015\ngini = 0.245\nsamples = 7\nvalue = [6, 1]"] ;
488 -> 490 ;
491 [label="gini = 0.0\nsamples = 4\nvalue = [4, 0]"] ;
490 -> 491 ;
492 [label="X[0] <= 1.035\ngini = 0.444\nsamples = 3\nvalue = [2, 1]"] ;
490 -> 492 ;
493 [label="gini = 0.0\nsamples = 1\nvalue = [0, 1]"] ;
492 -> 493 ;
494 [label="gini = 0.0\nsamples = 2\nvalue = [2, 0]"] ;
492 -> 494 ;
495 [label="X[0] <= 0.62\ngini = 0.5\nsamples = 2\nvalue = [1, 1]"] ;
479 -> 495 ;
496 [label="gini = 0.0\nsamples = 1\nvalue = [1, 0]"] ;
495 -> 496 ;
497 [label="gini = 0.0\nsamples = 1\nvalue = [0, 1]"] ;
495 -> 497 ;
498 [label="X[0] <= 0.595\ngini = 0.49\nsamples = 14\nvalue = [8, 6]"] ;
466 -> 498 ;
499 [label="gini = 0.0\nsamples = 2\nvalue = [2, 0]"] ;
498 -> 499 ;
500 [label="X[0] <= 0.64\ngini = 0.5\nsamples = 12\nvalue = [6, 6]"] ;
498 -> 500 ;
501 [label="gini = 0.0\nsamples = 1\nvalue = [0, 1]"] ;
500 -> 501 ;
502 [label="X[0] <= 1.05\ngini = 0.496\nsamples = 11\nvalue = [6, 5]"] ;
500 -> 502 ;
503 [label="X[0] <= 0.91\ngini = 0.48\nsamples = 10\nvalue = [6, 4]"] ;
502 -> 503 ;
504 [label="X[0] <= 0.865\ngini = 0.5\nsamples = 8\nvalue = [4, 4]"] ;
503 -> 504 ;
505 [label="X[0] <= 0.77\ngini = 0.444\nsamples = 6\nvalue = [4, 2]"] ;
504 -> 505 ;
506 [label="gini = 0.5\nsamples = 4\nvalue = [2, 2]"] ;
505 -> 506 ;
507 [label="gini = 0.0\nsamples = 2\nvalue = [2, 0]"] ;
505 -> 507 ;
508 [label="gini = 0.0\nsamples = 2\nvalue = [0, 2]"] ;
504 -> 508 ;
509 [label="gini = 0.0\nsamples = 2\nvalue = [2, 0]"] ;
503 -> 509 ;
510 [label="gini = 0.0\nsamples = 1\nvalue = [0, 1]"] ;
502 -> 510 ;
511 [label="gini = 0.0\nsamples = 1\nvalue = [0, 1]"] ;
465 -> 511 ;
512 [label="gini = 0.0\nsamples = 3\nvalue = [0, 3]"] ;
464 -> 512 ;
513 [label="X[1203] <= 0.5\ngini = 0.276\nsamples = 103\nvalue = [86, 17]"] ;
463 -> 513 ;
514 [label="X[0] <= 1.845\ngini = 0.265\nsamples = 102\nvalue = [86, 16]"] ;
513 -> 514 ;
515 [label="X[1252] <= 0.5\ngini = 0.108\nsamples = 35\nvalue = [33, 2]"] ;
514 -> 515 ;
516 [label="X[0] <= 1.765\ngini = 0.069\nsamples = 28\nvalue = [27, 1]"] ;
515 -> 516 ;
517 [label="gini = 0.0\nsamples = 21\nvalue = [21, 0]"] ;
516 -> 517 ;
518 [label="X[1151] <= 0.5\ngini = 0.245\nsamples = 7\nvalue = [6, 1]"] ;
516 -> 518 ;
519 [label="gini = 0.0\nsamples = 6\nvalue = [6, 0]"] ;
518 -> 519 ;
520 [label="gini = 0.0\nsamples = 1\nvalue = [0, 1]"] ;
518 -> 520 ;
521 [label="X[0] <= 1.545\ngini = 0.245\nsamples = 7\nvalue = [6, 1]"] ;
515 -> 521 ;
522 [label="X[0] <= 1.49\ngini = 0.444\nsamples = 3\nvalue = [2, 1]"] ;
521 -> 522 ;
523 [label="gini = 0.0\nsamples = 2\nvalue = [2, 0]"] ;
522 -> 523 ;
524 [label="gini = 0.0\nsamples = 1\nvalue = [0, 1]"] ;
522 -> 524 ;
525 [label="gini = 0.0\nsamples = 4\nvalue = [4, 0]"] ;
521 -> 525 ;
526 [label="X[0] <= 2.61\ngini = 0.331\nsamples = 67\nvalue = [53, 14]"] ;
514 -> 526 ;
527 [label="X[0] <= 2.56\ngini = 0.42\nsamples = 40\nvalue = [28, 12]"] ;
526 -> 527 ;
528 [label="X[0] <= 1.865\ngini = 0.353\nsamples = 35\nvalue = [27, 8]"] ;
527 -> 528 ;
529 [label="X[1132] <= 0.5\ngini = 0.444\nsamples = 3\nvalue = [1, 2]"] ;
528 -> 529 ;
530 [label="gini = 0.0\nsamples = 1\nvalue = [0, 1]"] ;
529 -> 530 ;
531 [label="gini = 0.5\nsamples = 2\nvalue = [1, 1]"] ;
529 -> 531 ;
532 [label="X[1132] <= 0.5\ngini = 0.305\nsamples = 32\nvalue = [26, 6]"] ;
528 -> 532 ;
533 [label="X[0] <= 2.495\ngini = 0.111\nsamples = 17\nvalue = [16, 1]"] ;
532 -> 533 ;
534 [label="gini = 0.0\nsamples = 16\nvalue = [16, 0]"] ;
533 -> 534 ;
535 [label="gini = 0.0\nsamples = 1\nvalue = [0, 1]"] ;
533 -> 535 ;
536 [label="X[0] <= 2.48\ngini = 0.444\nsamples = 15\nvalue = [10, 5]"] ;
532 -> 536 ;
537 [label="X[0] <= 1.915\ngini = 0.5\nsamples = 10\nvalue = [5, 5]"] ;
536 -> 537 ;
538 [label="gini = 0.0\nsamples = 2\nvalue = [2, 0]"] ;
537 -> 538 ;
539 [label="X[0] <= 2.235\ngini = 0.469\nsamples = 8\nvalue = [3, 5]"] ;
537 -> 539 ;
540 [label="gini = 0.0\nsamples = 2\nvalue = [0, 2]"] ;
539 -> 540 ;
541 [label="gini = 0.5\nsamples = 6\nvalue = [3, 3]"] ;
539 -> 541 ;
542 [label="gini = 0.0\nsamples = 5\nvalue = [5, 0]"] ;
536 -> 542 ;
543 [label="X[1142] <= 0.5\ngini = 0.32\nsamples = 5\nvalue = [1, 4]"] ;
527 -> 543 ;
544 [label="gini = 0.0\nsamples = 3\nvalue = [0, 3]"] ;
543 -> 544 ;
545 [label="X[0] <= 2.585\ngini = 0.5\nsamples = 2\nvalue = [1, 1]"] ;
543 -> 545 ;
546 [label="gini = 0.0\nsamples = 1\nvalue = [1, 0]"] ;
545 -> 546 ;
547 [label="gini = 0.0\nsamples = 1\nvalue = [0, 1]"] ;
545 -> 547 ;
548 [label="X[0] <= 2.865\ngini = 0.137\nsamples = 27\nvalue = [25, 2]"] ;
526 -> 548 ;
549 [label="gini = 0.0\nsamples = 16\nvalue = [16, 0]"] ;
548 -> 549 ;
550 [label="X[0] <= 2.925\ngini = 0.298\nsamples = 11\nvalue = [9, 2]"] ;
548 -> 550 ;
551 [label="X[1142] <= 0.5\ngini = 0.5\nsamples = 4\nvalue = [2, 2]"] ;
550 -> 551 ;
552 [label="X[0] <= 2.905\ngini = 0.444\nsamples = 3\nvalue = [2, 1]"] ;
551 -> 552 ;
553 [label="X[1132] <= 0.5\ngini = 0.5\nsamples = 2\nvalue = [1, 1]"] ;
552 -> 553 ;
554 [label="gini = 0.0\nsamples = 1\nvalue = [1, 0]"] ;
553 -> 554 ;
555 [label="gini = 0.0\nsamples = 1\nvalue = [0, 1]"] ;
553 -> 555 ;
556 [label="gini = 0.0\nsamples = 1\nvalue = [1, 0]"] ;
552 -> 556 ;
557 [label="gini = 0.0\nsamples = 1\nvalue = [0, 1]"] ;
551 -> 557 ;
558 [label="gini = 0.0\nsamples = 7\nvalue = [7, 0]"] ;
550 -> 558 ;
559 [label="gini = 0.0\nsamples = 1\nvalue = [0, 1]"] ;
513 -> 559 ;
560 [label="X[1129] <= 0.5\ngini = 0.304\nsamples = 867\nvalue = [705, 162]"] ;
282 -> 560 ;
561 [label="X[0] <= 2.975\ngini = 0.302\nsamples = 865\nvalue = [705, 160]"] ;
560 -> 561 ;
562 [label="X[0] <= 0.485\ngini = 0.307\nsamples = 845\nvalue = [685, 160]"] ;
561 -> 562 ;
563 [label="X[0] <= 0.12\ngini = 0.184\nsamples = 88\nvalue = [79, 9]"] ;
562 -> 563 ;
564 [label="gini = 0.0\nsamples = 17\nvalue = [17, 0]"] ;
563 -> 564 ;
565 [label="X[0] <= 0.135\ngini = 0.221\nsamples = 71\nvalue = [62, 9]"] ;
563 -> 565 ;
566 [label="gini = 0.0\nsamples = 1\nvalue = [0, 1]"] ;
565 -> 566 ;
567 [label="X[0] <= 0.295\ngini = 0.202\nsamples = 70\nvalue = [62, 8]"] ;
565 -> 567 ;
568 [label="X[0] <= 0.215\ngini = 0.375\nsamples = 16\nvalue = [12, 4]"] ;
567 -> 568 ;
569 [label="gini = 0.0\nsamples = 7\nvalue = [7, 0]"] ;
568 -> 569 ;
570 [label="X[0] <= 0.245\ngini = 0.494\nsamples = 9\nvalue = [5, 4]"] ;
568 -> 570 ;
571 [label="X[1142] <= 0.5\ngini = 0.375\nsamples = 4\nvalue = [1, 3]"] ;
570 -> 571 ;
572 [label="gini = 0.5\nsamples = 2\nvalue = [1, 1]"] ;
571 -> 572 ;
573 [label="gini = 0.0\nsamples = 2\nvalue = [0, 2]"] ;
571 -> 573 ;
574 [label="X[0] <= 0.285\ngini = 0.32\nsamples = 5\nvalue = [4, 1]"] ;
570 -> 574 ;
575 [label="gini = 0.0\nsamples = 4\nvalue = [4, 0]"] ;
574 -> 575 ;
576 [label="gini = 0.0\nsamples = 1\nvalue = [0, 1]"] ;
574 -> 576 ;
577 [label="X[0] <= 0.425\ngini = 0.137\nsamples = 54\nvalue = [50, 4]"] ;
567 -> 577 ;
578 [label="X[1132] <= 0.5\ngini = 0.193\nsamples = 37\nvalue = [33, 4]"] ;
577 -> 578 ;
579 [label="X[1252] <= 0.5\ngini = 0.095\nsamples = 20\nvalue = [19, 1]"] ;
578 -> 579 ;
580 [label="gini = 0.0\nsamples = 16\nvalue = [16, 0]"] ;
579 -> 580 ;
581 [label="X[0] <= 0.35\ngini = 0.375\nsamples = 4\nvalue = [3, 1]"] ;
579 -> 581 ;
582 [label="X[0] <= 0.325\ngini = 0.5\nsamples = 2\nvalue = [1, 1]"] ;
581 -> 582 ;
583 [label="gini = 0.0\nsamples = 1\nvalue = [1, 0]"] ;
582 -> 583 ;
584 [label="gini = 0.0\nsamples = 1\nvalue = [0, 1]"] ;
582 -> 584 ;
585 [label="gini = 0.0\nsamples = 2\nvalue = [2, 0]"] ;
581 -> 585 ;
586 [label="X[0] <= 0.38\ngini = 0.291\nsamples = 17\nvalue = [14, 3]"] ;
578 -> 586 ;
587 [label="X[0] <= 0.355\ngini = 0.165\nsamples = 11\nvalue = [10, 1]"] ;
586 -> 587 ;
588 [label="gini = 0.0\nsamples = 5\nvalue = [5, 0]"] ;
587 -> 588 ;
589 [label="X[0] <= 0.365\ngini = 0.278\nsamples = 6\nvalue = [5, 1]"] ;
587 -> 589 ;
590 [label="gini = 0.375\nsamples = 4\nvalue = [3, 1]"] ;
589 -> 590 ;
591 [label="gini = 0.0\nsamples = 2\nvalue = [2, 0]"] ;
589 -> 591 ;
592 [label="X[0] <= 0.395\ngini = 0.444\nsamples = 6\nvalue = [4, 2]"] ;
586 -> 592 ;
593 [label="gini = 0.0\nsamples = 1\nvalue = [0, 1]"] ;
592 -> 593 ;
594 [label="X[0] <= 0.41\ngini = 0.32\nsamples = 5\nvalue = [4, 1]"] ;
592 -> 594 ;
595 [label="gini = 0.0\nsamples = 1\nvalue = [1, 0]"] ;
594 -> 595 ;
596 [label="gini = 0.375\nsamples = 4\nvalue = [3, 1]"] ;
594 -> 596 ;
597 [label="gini = 0.0\nsamples = 17\nvalue = [17, 0]"] ;
577 -> 597 ;
598 [label="X[0] <= 0.935\ngini = 0.319\nsamples = 757\nvalue = [606, 151]"] ;
562 -> 598 ;
599 [label="X[1257] <= 0.5\ngini = 0.413\nsamples = 158\nvalue = [112, 46]"] ;
598 -> 599 ;
600 [label="X[1132] <= 0.5\ngini = 0.405\nsamples = 156\nvalue = [112, 44]"] ;
599 -> 600 ;
601 [label="X[0] <= 0.755\ngini = 0.372\nsamples = 93\nvalue = [70, 23]"] ;
600 -> 601 ;
602 [label="X[0] <= 0.615\ngini = 0.286\nsamples = 52\nvalue = [43, 9]"] ;
601 -> 602 ;
603 [label="X[0] <= 0.545\ngini = 0.353\nsamples = 35\nvalue = [27, 8]"] ;
602 -> 603 ;
604 [label="X[0] <= 0.495\ngini = 0.231\nsamples = 15\nvalue = [13, 2]"] ;
603 -> 604 ;
605 [label="gini = 0.5\nsamples = 2\nvalue = [1, 1]"] ;
604 -> 605 ;
606 [label="X[1252] <= 0.5\ngini = 0.142\nsamples = 13\nvalue = [12, 1]"] ;
604 -> 606 ;
607 [label="gini = 0.0\nsamples = 10\nvalue = [10, 0]"] ;
606 -> 607 ;
608 [label="X[0] <= 0.51\ngini = 0.444\nsamples = 3\nvalue = [2, 1]"] ;
606 -> 608 ;
609 [label="gini = 0.0\nsamples = 1\nvalue = [1, 0]"] ;
608 -> 609 ;
610 [label="gini = 0.5\nsamples = 2\nvalue = [1, 1]"] ;
608 -> 610 ;
611 [label="X[1151] <= 0.5\ngini = 0.42\nsamples = 20\nvalue = [14, 6]"] ;
603 -> 611 ;
612 [label="X[1142] <= 0.5\ngini = 0.444\nsamples = 18\nvalue = [12, 6]"] ;
611 -> 612 ;
613 [label="X[0] <= 0.555\ngini = 0.408\nsamples = 14\nvalue = [10, 4]"] ;
612 -> 613 ;
614 [label="gini = 0.5\nsamples = 2\nvalue = [1, 1]"] ;
613 -> 614 ;
615 [label="gini = 0.375\nsamples = 12\nvalue = [9, 3]"] ;
613 -> 615 ;
616 [label="X[0] <= 0.585\ngini = 0.5\nsamples = 4\nvalue = [2, 2]"] ;
612 -> 616 ;
617 [label="gini = 0.0\nsamples = 1\nvalue = [1, 0]"] ;
616 -> 617 ;
618 [label="gini = 0.444\nsamples = 3\nvalue = [1, 2]"] ;
616 -> 618 ;
619 [label="gini = 0.0\nsamples = 2\nvalue = [2, 0]"] ;
611 -> 619 ;
620 [label="X[0] <= 0.695\ngini = 0.111\nsamples = 17\nvalue = [16, 1]"] ;
602 -> 620 ;
621 [label="gini = 0.0\nsamples = 13\nvalue = [13, 0]"] ;
620 -> 621 ;
622 [label="X[1151] <= 0.5\ngini = 0.375\nsamples = 4\nvalue = [3, 1]"] ;
620 -> 622 ;
623 [label="gini = 0.0\nsamples = 3\nvalue = [3, 0]"] ;
622 -> 623 ;
624 [label="gini = 0.0\nsamples = 1\nvalue = [0, 1]"] ;
622 -> 624 ;
625 [label="X[1203] <= 0.5\ngini = 0.45\nsamples = 41\nvalue = [27, 14]"] ;
601 -> 625 ;
626 [label="X[0] <= 0.765\ngini = 0.439\nsamples = 40\nvalue = [27, 13]"] ;
625 -> 626 ;
627 [label="X[1151] <= 0.5\ngini = 0.444\nsamples = 3\nvalue = [1, 2]"] ;
626 -> 627 ;
628 [label="gini = 0.0\nsamples = 1\nvalue = [0, 1]"] ;
627 -> 628 ;
629 [label="gini = 0.5\nsamples = 2\nvalue = [1, 1]"] ;
627 -> 629 ;
630 [label="X[0] <= 0.925\ngini = 0.418\nsamples = 37\nvalue = [26, 11]"] ;
626 -> 630 ;
631 [label="X[0] <= 0.915\ngini = 0.438\nsamples = 34\nvalue = [23, 11]"] ;
630 -> 631 ;
632 [label="X[0] <= 0.895\ngini = 0.422\nsamples = 33\nvalue = [23, 10]"] ;
631 -> 632 ;
633 [label="gini = 0.4\nsamples = 29\nvalue = [21, 8]"] ;
632 -> 633 ;
634 [label="gini = 0.5\nsamples = 4\nvalue = [2, 2]"] ;
632 -> 634 ;
635 [label="gini = 0.0\nsamples = 1\nvalue = [0, 1]"] ;
631 -> 635 ;
636 [label="gini = 0.0\nsamples = 3\nvalue = [3, 0]"] ;
630 -> 636 ;
637 [label="gini = 0.0\nsamples = 1\nvalue = [0, 1]"] ;
625 -> 637 ;
638 [label="X[0] <= 0.61\ngini = 0.444\nsamples = 63\nvalue = [42, 21]"] ;
600 -> 638 ;
639 [label="X[0] <= 0.565\ngini = 0.486\nsamples = 12\nvalue = [5, 7]"] ;
638 -> 639 ;
640 [label="X[0] <= 0.555\ngini = 0.5\nsamples = 4\nvalue = [2, 2]"] ;
639 -> 640 ;
641 [label="X[0] <= 0.53\ngini = 0.444\nsamples = 3\nvalue = [1, 2]"] ;
640 -> 641 ;
642 [label="gini = 0.5\nsamples = 2\nvalue = [1, 1]"] ;
641 -> 642 ;
643 [label="gini = 0.0\nsamples = 1\nvalue = [0, 1]"] ;
641 -> 643 ;
644 [label="gini = 0.0\nsamples = 1\nvalue = [1, 0]"] ;
640 -> 644 ;
645 [label="X[0] <= 0.575\ngini = 0.469\nsamples = 8\nvalue = [3, 5]"] ;
639 -> 645 ;
646 [label="gini = 0.375\nsamples = 4\nvalue = [1, 3]"] ;
645 -> 646 ;
647 [label="X[0] <= 0.59\ngini = 0.5\nsamples = 4\nvalue = [2, 2]"] ;
645 -> 647 ;
648 [label="gini = 0.0\nsamples = 1\nvalue = [1, 0]"] ;
647 -> 648 ;
649 [label="gini = 0.444\nsamples = 3\nvalue = [1, 2]"] ;
647 -> 649 ;
650 [label="X[0] <= 0.925\ngini = 0.398\nsamples = 51\nvalue = [37, 14]"] ;
638 -> 650 ;
651 [label="X[0] <= 0.655\ngini = 0.385\nsamples = 50\nvalue = [37, 13]"] ;
650 -> 651 ;
652 [label="gini = 0.0\nsamples = 6\nvalue = [6, 0]"] ;
651 -> 652 ;
653 [label="X[0] <= 0.685\ngini = 0.416\nsamples = 44\nvalue = [31, 13]"] ;
651 -> 653 ;
654 [label="X[0] <= 0.67\ngini = 0.375\nsamples = 4\nvalue = [1, 3]"] ;
653 -> 654 ;
655 [label="gini = 0.5\nsamples = 2\nvalue = [1, 1]"] ;
654 -> 655 ;
656 [label="gini = 0.0\nsamples = 2\nvalue = [0, 2]"] ;
654 -> 656 ;
657 [label="X[0] <= 0.74\ngini = 0.375\nsamples = 40\nvalue = [30, 10]"] ;
653 -> 657 ;
658 [label="X[0] <= 0.695\ngini = 0.278\nsamples = 12\nvalue = [10, 2]"] ;
657 -> 658 ;
659 [label="gini = 0.444\nsamples = 3\nvalue = [2, 1]"] ;
658 -> 659 ;
660 [label="gini = 0.198\nsamples = 9\nvalue = [8, 1]"] ;
658 -> 660 ;
661 [label="X[0] <= 0.83\ngini = 0.408\nsamples = 28\nvalue = [20, 8]"] ;
657 -> 661 ;
662 [label="gini = 0.469\nsamples = 16\nvalue = [10, 6]"] ;
661 -> 662 ;
663 [label="gini = 0.278\nsamples = 12\nvalue = [10, 2]"] ;
661 -> 663 ;
664 [label="gini = 0.0\nsamples = 1\nvalue = [0, 1]"] ;
650 -> 664 ;
665 [label="gini = 0.0\nsamples = 2\nvalue = [0, 2]"] ;
599 -> 665 ;
666 [label="X[0] <= 2.965\ngini = 0.289\nsamples = 599\nvalue = [494, 105]"] ;
598 -> 666 ;
667 [label="X[1151] <= 0.5\ngini = 0.286\nsamples = 595\nvalue = [492, 103]"] ;
666 -> 667 ;
668 [label="X[0] <= 2.855\ngini = 0.276\nsamples = 533\nvalue = [445, 88]"] ;
667 -> 668 ;
669 [label="X[1227] <= 0.5\ngini = 0.265\nsamples = 489\nvalue = [412, 77]"] ;
668 -> 669 ;
670 [label="X[0] <= 2.765\ngini = 0.258\nsamples = 473\nvalue = [401, 72]"] ;
669 -> 670 ;
671 [label="X[0] <= 2.425\ngini = 0.266\nsamples = 444\nvalue = [374, 70]"] ;
670 -> 671 ;
672 [label="X[0] <= 2.055\ngini = 0.242\nsamples = 327\nvalue = [281, 46]"] ;
671 -> 672 ;
673 [label="X[0] <= 2.04\ngini = 0.27\nsamples = 286\nvalue = [240, 46]"] ;
672 -> 673 ;
674 [label="gini = 0.262\nsamples = 284\nvalue = [240, 44]"] ;
673 -> 674 ;
675 [label="gini = 0.0\nsamples = 2\nvalue = [0, 2]"] ;
673 -> 675 ;
676 [label="gini = 0.0\nsamples = 41\nvalue = [41, 0]"] ;
672 -> 676 ;
677 [label="X[0] <= 2.525\ngini = 0.326\nsamples = 117\nvalue = [93, 24]"] ;
671 -> 677 ;
678 [label="X[0] <= 2.505\ngini = 0.397\nsamples = 33\nvalue = [24, 9]"] ;
677 -> 678 ;
679 [label="gini = 0.365\nsamples = 25\nvalue = [19, 6]"] ;
678 -> 679 ;
680 [label="gini = 0.469\nsamples = 8\nvalue = [5, 3]"] ;
678 -> 680 ;
681 [label="X[1252] <= 0.5\ngini = 0.293\nsamples = 84\nvalue = [69, 15]"] ;
677 -> 681 ;
682 [label="gini = 0.269\nsamples = 75\nvalue = [63, 12]"] ;
681 -> 682 ;
683 [label="gini = 0.444\nsamples = 9\nvalue = [6, 3]"] ;
681 -> 683 ;
684 [label="X[0] <= 2.825\ngini = 0.128\nsamples = 29\nvalue = [27, 2]"] ;
670 -> 684 ;
685 [label="X[0] <= 2.815\ngini = 0.172\nsamples = 21\nvalue = [19, 2]"] ;
684 -> 685 ;
686 [label="X[0] <= 2.785\ngini = 0.1\nsamples = 19\nvalue = [18, 1]"] ;
685 -> 686 ;
687 [label="gini = 0.18\nsamples = 10\nvalue = [9, 1]"] ;
686 -> 687 ;
688 [label="gini = 0.0\nsamples = 9\nvalue = [9, 0]"] ;
686 -> 688 ;
689 [label="gini = 0.5\nsamples = 2\nvalue = [1, 1]"] ;
685 -> 689 ;
690 [label="gini = 0.0\nsamples = 8\nvalue = [8, 0]"] ;
684 -> 690 ;
691 [label="X[0] <= 2.28\ngini = 0.43\nsamples = 16\nvalue = [11, 5]"] ;
669 -> 691 ;
692 [label="X[0] <= 1.625\ngini = 0.298\nsamples = 11\nvalue = [9, 2]"] ;
691 -> 692 ;
693 [label="X[0] <= 1.51\ngini = 0.444\nsamples = 6\nvalue = [4, 2]"] ;
692 -> 693 ;
694 [label="gini = 0.0\nsamples = 4\nvalue = [4, 0]"] ;
693 -> 694 ;
695 [label="gini = 0.0\nsamples = 2\nvalue = [0, 2]"] ;
693 -> 695 ;
696 [label="gini = 0.0\nsamples = 5\nvalue = [5, 0]"] ;
692 -> 696 ;
697 [label="X[0] <= 2.56\ngini = 0.48\nsamples = 5\nvalue = [2, 3]"] ;
691 -> 697 ;
698 [label="gini = 0.0\nsamples = 3\nvalue = [0, 3]"] ;
697 -> 698 ;
699 [label="gini = 0.0\nsamples = 2\nvalue = [2, 0]"] ;
697 -> 699 ;
700 [label="X[1132] <= 0.5\ngini = 0.375\nsamples = 44\nvalue = [33, 11]"] ;
668 -> 700 ;
701 [label="X[0] <= 2.915\ngini = 0.255\nsamples = 20\nvalue = [17, 3]"] ;
700 -> 701 ;
702 [label="gini = 0.0\nsamples = 8\nvalue = [8, 0]"] ;
701 -> 702 ;
703 [label="X[0] <= 2.945\ngini = 0.375\nsamples = 12\nvalue = [9, 3]"] ;
701 -> 703 ;
704 [label="X[1229] <= 0.5\ngini = 0.469\nsamples = 8\nvalue = [5, 3]"] ;
703 -> 704 ;
705 [label="X[0] <= 2.935\ngini = 0.49\nsamples = 7\nvalue = [4, 3]"] ;
704 -> 705 ;
706 [label="gini = 0.375\nsamples = 4\nvalue = [3, 1]"] ;
705 -> 706 ;
707 [label="gini = 0.444\nsamples = 3\nvalue = [1, 2]"] ;
705 -> 707 ;
708 [label="gini = 0.0\nsamples = 1\nvalue = [1, 0]"] ;
704 -> 708 ;
709 [label="gini = 0.0\nsamples = 4\nvalue = [4, 0]"] ;
703 -> 709 ;
710 [label="X[0] <= 2.895\ngini = 0.444\nsamples = 24\nvalue = [16, 8]"] ;
700 -> 710 ;
711 [label="X[0] <= 2.865\ngini = 0.49\nsamples = 7\nvalue = [3, 4]"] ;
710 -> 711 ;
712 [label="gini = 0.444\nsamples = 3\nvalue = [2, 1]"] ;
711 -> 712 ;
713 [label="X[0] <= 2.88\ngini = 0.375\nsamples = 4\nvalue = [1, 3]"] ;
711 -> 713 ;
714 [label="gini = 0.0\nsamples = 2\nvalue = [0, 2]"] ;
713 -> 714 ;
715 [label="gini = 0.5\nsamples = 2\nvalue = [1, 1]"] ;
713 -> 715 ;
716 [label="X[0] <= 2.945\ngini = 0.36\nsamples = 17\nvalue = [13, 4]"] ;
710 -> 716 ;
717 [label="X[0] <= 2.915\ngini = 0.26\nsamples = 13\nvalue = [11, 2]"] ;
716 -> 717 ;
718 [label="X[0] <= 2.905\ngini = 0.444\nsamples = 6\nvalue = [4, 2]"] ;
717 -> 718 ;
719 [label="gini = 0.444\nsamples = 3\nvalue = [2, 1]"] ;
718 -> 719 ;
720 [label="gini = 0.444\nsamples = 3\nvalue = [2, 1]"] ;
718 -> 720 ;
721 [label="gini = 0.0\nsamples = 7\nvalue = [7, 0]"] ;
717 -> 721 ;
722 [label="X[0] <= 2.955\ngini = 0.5\nsamples = 4\nvalue = [2, 2]"] ;
716 -> 722 ;
723 [label="gini = 0.5\nsamples = 2\nvalue = [1, 1]"] ;
722 -> 723 ;
724 [label="gini = 0.5\nsamples = 2\nvalue = [1, 1]"] ;
722 -> 724 ;
725 [label="X[0] <= 1.935\ngini = 0.367\nsamples = 62\nvalue = [47, 15]"] ;
667 -> 725 ;
726 [label="X[0] <= 1.055\ngini = 0.475\nsamples = 31\nvalue = [19, 12]"] ;
725 -> 726 ;
727 [label="gini = 0.0\nsamples = 6\nvalue = [6, 0]"] ;
726 -> 727 ;
728 [label="X[0] <= 1.315\ngini = 0.499\nsamples = 25\nvalue = [13, 12]"] ;
726 -> 728 ;
729 [label="gini = 0.0\nsamples = 2\nvalue = [0, 2]"] ;
728 -> 729 ;
730 [label="X[0] <= 1.845\ngini = 0.491\nsamples = 23\nvalue = [13, 10]"] ;
728 -> 730 ;
731 [label="X[0] <= 1.34\ngini = 0.465\nsamples = 19\nvalue = [12, 7]"] ;
730 -> 731 ;
732 [label="gini = 0.0\nsamples = 1\nvalue = [1, 0]"] ;
731 -> 732 ;
733 [label="X[0] <= 1.365\ngini = 0.475\nsamples = 18\nvalue = [11, 7]"] ;
731 -> 733 ;
734 [label="gini = 0.0\nsamples = 1\nvalue = [0, 1]"] ;
733 -> 734 ;
735 [label="gini = 0.457\nsamples = 17\nvalue = [11, 6]"] ;
733 -> 735 ;
736 [label="X[0] <= 1.89\ngini = 0.375\nsamples = 4\nvalue = [1, 3]"] ;
730 -> 736 ;
737 [label="gini = 0.0\nsamples = 2\nvalue = [0, 2]"] ;
736 -> 737 ;
738 [label="gini = 0.5\nsamples = 2\nvalue = [1, 1]"] ;
736 -> 738 ;
739 [label="X[0] <= 2.515\ngini = 0.175\nsamples = 31\nvalue = [28, 3]"] ;
725 -> 739 ;
740 [label="gini = 0.0\nsamples = 17\nvalue = [17, 0]"] ;
739 -> 740 ;
741 [label="X[0] <= 2.63\ngini = 0.337\nsamples = 14\nvalue = [11, 3]"] ;
739 -> 741 ;
742 [label="X[0] <= 2.56\ngini = 0.444\nsamples = 3\nvalue = [1, 2]"] ;
741 -> 742 ;
743 [label="gini = 0.0\nsamples = 1\nvalue = [0, 1]"] ;
742 -> 743 ;
744 [label="X[0] <= 2.6\ngini = 0.5\nsamples = 2\nvalue = [1, 1]"] ;
742 -> 744 ;
745 [label="gini = 0.0\nsamples = 1\nvalue = [1, 0]"] ;
744 -> 745 ;
746 [label="gini = 0.0\nsamples = 1\nvalue = [0, 1]"] ;
744 -> 746 ;
747 [label="X[0] <= 2.845\ngini = 0.165\nsamples = 11\nvalue = [10, 1]"] ;
741 -> 747 ;
748 [label="gini = 0.0\nsamples = 6\nvalue = [6, 0]"] ;
747 -> 748 ;
749 [label="X[0] <= 2.89\ngini = 0.32\nsamples = 5\nvalue = [4, 1]"] ;
747 -> 749 ;
750 [label="gini = 0.5\nsamples = 2\nvalue = [1, 1]"] ;
749 -> 750 ;
751 [label="gini = 0.0\nsamples = 3\nvalue = [3, 0]"] ;
749 -> 751 ;
752 [label="X[1142] <= 0.5\ngini = 0.5\nsamples = 4\nvalue = [2, 2]"] ;
666 -> 752 ;
753 [label="gini = 0.444\nsamples = 3\nvalue = [2, 1]"] ;
752 -> 753 ;
754 [label="gini = 0.0\nsamples = 1\nvalue = [0, 1]"] ;
752 -> 754 ;
755 [label="gini = 0.0\nsamples = 20\nvalue = [20, 0]"] ;
561 -> 755 ;
756 [label="gini = 0.0\nsamples = 2\nvalue = [0, 2]"] ;
560 -> 756 ;
757 [label="X[0] <= 1.305\ngini = 0.384\nsamples = 1028\nvalue = [762, 266]"] ;
281 -> 757 ;
758 [label="X[1142] <= 0.5\ngini = 0.424\nsamples = 361\nvalue = [251, 110]"] ;
757 -> 758 ;
759 [label="X[0] <= 1.275\ngini = 0.447\nsamples = 282\nvalue = [187, 95]"] ;
758 -> 759 ;
760 [label="X[1147] <= 0.5\ngini = 0.442\nsamples = 279\nvalue = [187, 92]"] ;
759 -> 760 ;
761 [label="X[222] <= 0.5\ngini = 0.439\nsamples = 277\nvalue = [187, 90]"] ;
760 -> 761 ;
762 [label="gini = 0.0\nsamples = 4\nvalue = [4, 0]"] ;
761 -> 762 ;
763 [label="X[0] <= 1.025\ngini = 0.442\nsamples = 273\nvalue = [183, 90]"] ;
761 -> 763 ;
764 [label="X[0] <= 0.045\ngini = 0.432\nsamples = 253\nvalue = [173, 80]"] ;
763 -> 764 ;
765 [label="X[1151] <= 0.5\ngini = 0.198\nsamples = 9\nvalue = [8, 1]"] ;
764 -> 765 ;
766 [label="gini = 0.0\nsamples = 8\nvalue = [8, 0]"] ;
765 -> 766 ;
767 [label="gini = 0.0\nsamples = 1\nvalue = [0, 1]"] ;
765 -> 767 ;
768 [label="X[0] <= 0.065\ngini = 0.438\nsamples = 244\nvalue = [165, 79]"] ;
764 -> 768 ;
769 [label="gini = 0.0\nsamples = 4\nvalue = [0, 4]"] ;
768 -> 769 ;
770 [label="X[0] <= 0.22\ngini = 0.43\nsamples = 240\nvalue = [165, 75]"] ;
768 -> 770 ;
771 [label="gini = 0.0\nsamples = 11\nvalue = [11, 0]"] ;
770 -> 771 ;
772 [label="X[0] <= 0.255\ngini = 0.44\nsamples = 229\nvalue = [154, 75]"] ;
770 -> 772 ;
773 [label="gini = 0.0\nsamples = 1\nvalue = [0, 1]"] ;
772 -> 773 ;
774 [label="X[1203] <= 0.5\ngini = 0.438\nsamples = 228\nvalue = [154, 74]"] ;
772 -> 774 ;
775 [label="X[0] <= 1.005\ngini = 0.443\nsamples = 220\nvalue = [147, 73]"] ;
774 -> 775 ;
776 [label="X[0] <= 0.285\ngini = 0.448\nsamples = 213\nvalue = [141, 72]"] ;
775 -> 776 ;
777 [label="gini = 0.0\nsamples = 2\nvalue = [2, 0]"] ;
776 -> 777 ;
778 [label="gini = 0.45\nsamples = 211\nvalue = [139, 72]"] ;
776 -> 778 ;
779 [label="X[0] <= 1.015\ngini = 0.245\nsamples = 7\nvalue = [6, 1]"] ;
775 -> 779 ;
780 [label="gini = 0.0\nsamples = 4\nvalue = [4, 0]"] ;
779 -> 780 ;
781 [label="gini = 0.444\nsamples = 3\nvalue = [2, 1]"] ;
779 -> 781 ;
782 [label="X[0] <= 0.525\ngini = 0.219\nsamples = 8\nvalue = [7, 1]"] ;
774 -> 782 ;
783 [label="X[0] <= 0.51\ngini = 0.444\nsamples = 3\nvalue = [2, 1]"] ;
782 -> 783 ;
784 [label="gini = 0.0\nsamples = 1\nvalue = [1, 0]"] ;
783 -> 784 ;
785 [label="gini = 0.5\nsamples = 2\nvalue = [1, 1]"] ;
783 -> 785 ;
786 [label="gini = 0.0\nsamples = 5\nvalue = [5, 0]"] ;
782 -> 786 ;
787 [label="X[0] <= 1.175\ngini = 0.5\nsamples = 20\nvalue = [10, 10]"] ;
763 -> 787 ;
788 [label="X[1252] <= 0.5\ngini = 0.484\nsamples = 17\nvalue = [7, 10]"] ;
787 -> 788 ;
789 [label="X[0] <= 1.075\ngini = 0.426\nsamples = 13\nvalue = [4, 9]"] ;
788 -> 789 ;
790 [label="X[0] <= 1.035\ngini = 0.278\nsamples = 6\nvalue = [1, 5]"] ;
789 -> 790 ;
791 [label="gini = 0.5\nsamples = 2\nvalue = [1, 1]"] ;
790 -> 791 ;
792 [label="gini = 0.0\nsamples = 4\nvalue = [0, 4]"] ;
790 -> 792 ;
793 [label="X[0] <= 1.095\ngini = 0.49\nsamples = 7\nvalue = [3, 4]"] ;
789 -> 793 ;
794 [label="gini = 0.0\nsamples = 2\nvalue = [2, 0]"] ;
793 -> 794 ;
795 [label="X[0] <= 1.12\ngini = 0.32\nsamples = 5\nvalue = [1, 4]"] ;
793 -> 795 ;
796 [label="gini = 0.0\nsamples = 3\nvalue = [0, 3]"] ;
795 -> 796 ;
797 [label="X[0] <= 1.135\ngini = 0.5\nsamples = 2\nvalue = [1, 1]"] ;
795 -> 797 ;
798 [label="gini = 0.0\nsamples = 1\nvalue = [1, 0]"] ;
797 -> 798 ;
799 [label="gini = 0.0\nsamples = 1\nvalue = [0, 1]"] ;
797 -> 799 ;
800 [label="X[0] <= 1.065\ngini = 0.375\nsamples = 4\nvalue = [3, 1]"] ;
788 -> 800 ;
801 [label="gini = 0.0\nsamples = 2\nvalue = [2, 0]"] ;
800 -> 801 ;
802 [label="gini = 0.5\nsamples = 2\nvalue = [1, 1]"] ;
800 -> 802 ;
803 [label="gini = 0.0\nsamples = 3\nvalue = [3, 0]"] ;
787 -> 803 ;
804 [label="gini = 0.0\nsamples = 2\nvalue = [0, 2]"] ;
760 -> 804 ;
805 [label="gini = 0.0\nsamples = 3\nvalue = [0, 3]"] ;
759 -> 805 ;
806 [label="X[0] <= 0.025\ngini = 0.308\nsamples = 79\nvalue = [64, 15]"] ;
758 -> 806 ;
807 [label="gini = 0.0\nsamples = 1\nvalue = [0, 1]"] ;
806 -> 807 ;
808 [label="X[222] <= 0.5\ngini = 0.295\nsamples = 78\nvalue = [64, 14]"] ;
806 -> 808 ;
809 [label="X[0] <= 0.28\ngini = 0.5\nsamples = 2\nvalue = [1, 1]"] ;
808 -> 809 ;
810 [label="gini = 0.0\nsamples = 1\nvalue = [0, 1]"] ;
809 -> 810 ;
811 [label="gini = 0.0\nsamples = 1\nvalue = [1, 0]"] ;
809 -> 811 ;
812 [label="X[0] <= 0.55\ngini = 0.284\nsamples = 76\nvalue = [63, 13]"] ;
808 -> 812 ;
813 [label="X[0] <= 0.105\ngini = 0.185\nsamples = 29\nvalue = [26, 3]"] ;
812 -> 813 ;
814 [label="X[0] <= 0.08\ngini = 0.408\nsamples = 7\nvalue = [5, 2]"] ;
813 -> 814 ;
815 [label="X[0] <= 0.045\ngini = 0.278\nsamples = 6\nvalue = [5, 1]"] ;
814 -> 815 ;
816 [label="gini = 0.0\nsamples = 3\nvalue = [3, 0]"] ;
815 -> 816 ;
817 [label="X[0] <= 0.06\ngini = 0.444\nsamples = 3\nvalue = [2, 1]"] ;
815 -> 817 ;
818 [label="gini = 0.0\nsamples = 1\nvalue = [0, 1]"] ;
817 -> 818 ;
819 [label="gini = 0.0\nsamples = 2\nvalue = [2, 0]"] ;
817 -> 819 ;
820 [label="gini = 0.0\nsamples = 1\nvalue = [0, 1]"] ;
814 -> 820 ;
821 [label="X[0] <= 0.31\ngini = 0.087\nsamples = 22\nvalue = [21, 1]"] ;
813 -> 821 ;
822 [label="X[0] <= 0.295\ngini = 0.219\nsamples = 8\nvalue = [7, 1]"] ;
821 -> 822 ;
823 [label="gini = 0.0\nsamples = 7\nvalue = [7, 0]"] ;
822 -> 823 ;
824 [label="gini = 0.0\nsamples = 1\nvalue = [0, 1]"] ;
822 -> 824 ;
825 [label="gini = 0.0\nsamples = 14\nvalue = [14, 0]"] ;
821 -> 825 ;
826 [label="X[0] <= 0.755\ngini = 0.335\nsamples = 47\nvalue = [37, 10]"] ;
812 -> 826 ;
827 [label="X[0] <= 0.735\ngini = 0.48\nsamples = 10\nvalue = [6, 4]"] ;
826 -> 827 ;
828 [label="X[0] <= 0.725\ngini = 0.444\nsamples = 9\nvalue = [6, 3]"] ;
827 -> 828 ;
829 [label="X[0] <= 0.69\ngini = 0.49\nsamples = 7\nvalue = [4, 3]"] ;
828 -> 829 ;
830 [label="X[0] <= 0.615\ngini = 0.444\nsamples = 6\nvalue = [4, 2]"] ;
829 -> 830 ;
831 [label="X[0] <= 0.575\ngini = 0.5\nsamples = 4\nvalue = [2, 2]"] ;
830 -> 831 ;
832 [label="X[0] <= 0.565\ngini = 0.444\nsamples = 3\nvalue = [2, 1]"] ;
831 -> 832 ;
833 [label="gini = 0.5\nsamples = 2\nvalue = [1, 1]"] ;
832 -> 833 ;
834 [label="gini = 0.0\nsamples = 1\nvalue = [1, 0]"] ;
832 -> 834 ;
835 [label="gini = 0.0\nsamples = 1\nvalue = [0, 1]"] ;
831 -> 835 ;
836 [label="gini = 0.0\nsamples = 2\nvalue = [2, 0]"] ;
830 -> 836 ;
837 [label="gini = 0.0\nsamples = 1\nvalue = [0, 1]"] ;
829 -> 837 ;
838 [label="gini = 0.0\nsamples = 2\nvalue = [2, 0]"] ;
828 -> 838 ;
839 [label="gini = 0.0\nsamples = 1\nvalue = [0, 1]"] ;
827 -> 839 ;
840 [label="X[0] <= 0.835\ngini = 0.272\nsamples = 37\nvalue = [31, 6]"] ;
826 -> 840 ;
841 [label="gini = 0.0\nsamples = 7\nvalue = [7, 0]"] ;
840 -> 841 ;
842 [label="X[0] <= 0.86\ngini = 0.32\nsamples = 30\nvalue = [24, 6]"] ;
840 -> 842 ;
843 [label="gini = 0.0\nsamples = 1\nvalue = [0, 1]"] ;
842 -> 843 ;
844 [label="X[0] <= 0.99\ngini = 0.285\nsamples = 29\nvalue = [24, 5]"] ;
842 -> 844 ;
845 [label="X[0] <= 0.945\ngini = 0.391\nsamples = 15\nvalue = [11, 4]"] ;
844 -> 845 ;
846 [label="gini = 0.0\nsamples = 6\nvalue = [6, 0]"] ;
845 -> 846 ;
847 [label="X[0] <= 0.955\ngini = 0.494\nsamples = 9\nvalue = [5, 4]"] ;
845 -> 847 ;
848 [label="gini = 0.444\nsamples = 3\nvalue = [2, 1]"] ;
847 -> 848 ;
849 [label="X[0] <= 0.965\ngini = 0.5\nsamples = 6\nvalue = [3, 3]"] ;
847 -> 849 ;
850 [label="gini = 0.0\nsamples = 1\nvalue = [0, 1]"] ;
849 -> 850 ;
851 [label="X[0] <= 0.975\ngini = 0.48\nsamples = 5\nvalue = [3, 2]"] ;
849 -> 851 ;
852 [label="gini = 0.5\nsamples = 2\nvalue = [1, 1]"] ;
851 -> 852 ;
853 [label="gini = 0.444\nsamples = 3\nvalue = [2, 1]"] ;
851 -> 853 ;
854 [label="X[0] <= 1.09\ngini = 0.133\nsamples = 14\nvalue = [13, 1]"] ;
844 -> 854 ;
855 [label="gini = 0.0\nsamples = 8\nvalue = [8, 0]"] ;
854 -> 855 ;
856 [label="X[0] <= 1.11\ngini = 0.278\nsamples = 6\nvalue = [5, 1]"] ;
854 -> 856 ;
857 [label="gini = 0.0\nsamples = 1\nvalue = [0, 1]"] ;
856 -> 857 ;
858 [label="gini = 0.0\nsamples = 5\nvalue = [5, 0]"] ;
856 -> 858 ;
859 [label="X[1203] <= 0.5\ngini = 0.358\nsamples = 667\nvalue = [511, 156]"] ;
757 -> 859 ;
860 [label="X[223] <= 0.5\ngini = 0.357\nsamples = 666\nvalue = [511, 155]"] ;
859 -> 860 ;
861 [label="X[0] <= 3.005\ngini = 0.354\nsamples = 658\nvalue = [507, 151]"] ;
860 -> 861 ;
862 [label="X[1147] <= 0.5\ngini = 0.357\nsamples = 649\nvalue = [498, 151]"] ;
861 -> 862 ;
863 [label="X[0] <= 2.695\ngini = 0.356\nsamples = 648\nvalue = [498, 150]"] ;
862 -> 863 ;
864 [label="X[0] <= 2.615\ngini = 0.338\nsamples = 488\nvalue = [383, 105]"] ;
863 -> 864 ;
865 [label="X[0] <= 1.925\ngini = 0.349\nsamples = 461\nvalue = [357, 104]"] ;
864 -> 865 ;
866 [label="X[0] <= 1.915\ngini = 0.373\nsamples = 258\nvalue = [194, 64]"] ;
865 -> 866 ;
867 [label="X[1142] <= 0.5\ngini = 0.362\nsamples = 253\nvalue = [193, 60]"] ;
866 -> 867 ;
868 [label="X[0] <= 1.875\ngini = 0.383\nsamples = 194\nvalue = [144, 50]"] ;
867 -> 868 ;
869 [label="X[0] <= 1.725\ngini = 0.363\nsamples = 176\nvalue = [134, 42]"] ;
868 -> 869 ;
870 [label="X[0] <= 1.695\ngini = 0.385\nsamples = 119\nvalue = [88, 31]"] ;
869 -> 870 ;
871 [label="gini = 0.36\nsamples = 106\nvalue = [81, 25]"] ;
870 -> 871 ;
872 [label="gini = 0.497\nsamples = 13\nvalue = [7, 6]"] ;
870 -> 872 ;
873 [label="X[0] <= 1.795\ngini = 0.311\nsamples = 57\nvalue = [46, 11]"] ;
869 -> 873 ;
874 [label="gini = 0.185\nsamples = 29\nvalue = [26, 3]"] ;
873 -> 874 ;
875 [label="gini = 0.408\nsamples = 28\nvalue = [20, 8]"] ;
873 -> 875 ;
876 [label="X[1257] <= 0.5\ngini = 0.494\nsamples = 18\nvalue = [10, 8]"] ;
868 -> 876 ;
877 [label="X[1227] <= 0.5\ngini = 0.484\nsamples = 17\nvalue = [10, 7]"] ;
876 -> 877 ;
878 [label="gini = 0.492\nsamples = 16\nvalue = [9, 7]"] ;
877 -> 878 ;
879 [label="gini = 0.0\nsamples = 1\nvalue = [1, 0]"] ;
877 -> 879 ;
880 [label="gini = 0.0\nsamples = 1\nvalue = [0, 1]"] ;
876 -> 880 ;
881 [label="X[0] <= 1.885\ngini = 0.282\nsamples = 59\nvalue = [49, 10]"] ;
867 -> 881 ;
882 [label="X[0] <= 1.68\ngini = 0.306\nsamples = 53\nvalue = [43, 10]"] ;
881 -> 882 ;
883 [label="X[0] <= 1.485\ngini = 0.245\nsamples = 35\nvalue = [30, 5]"] ;
882 -> 883 ;
884 [label="gini = 0.375\nsamples = 16\nvalue = [12, 4]"] ;
883 -> 884 ;
885 [label="gini = 0.1\nsamples = 19\nvalue = [18, 1]"] ;
883 -> 885 ;
886 [label="X[0] <= 1.765\ngini = 0.401\nsamples = 18\nvalue = [13, 5]"] ;
882 -> 886 ;
887 [label="gini = 0.444\nsamples = 3\nvalue = [1, 2]"] ;
886 -> 887 ;
888 [label="gini = 0.32\nsamples = 15\nvalue = [12, 3]"] ;
886 -> 888 ;
889 [label="gini = 0.0\nsamples = 6\nvalue = [6, 0]"] ;
881 -> 889 ;
890 [label="X[1142] <= 0.5\ngini = 0.32\nsamples = 5\nvalue = [1, 4]"] ;
866 -> 890 ;
891 [label="gini = 0.0\nsamples = 2\nvalue = [0, 2]"] ;
890 -> 891 ;
892 [label="gini = 0.444\nsamples = 3\nvalue = [1, 2]"] ;
890 -> 892 ;
893 [label="X[0] <= 1.955\ngini = 0.316\nsamples = 203\nvalue = [163, 40]"] ;
865 -> 893 ;
894 [label="gini = 0.0\nsamples = 16\nvalue = [16, 0]"] ;
893 -> 894 ;
895 [label="X[1142] <= 0.5\ngini = 0.336\nsamples = 187\nvalue = [147, 40]"] ;
893 -> 895 ;
896 [label="X[1252] <= 0.5\ngini = 0.302\nsamples = 140\nvalue = [114, 26]"] ;
895 -> 896 ;
897 [label="X[0] <= 2.535\ngini = 0.274\nsamples = 122\nvalue = [102, 20]"] ;
896 -> 897 ;
898 [label="X[0] <= 2.515\ngini = 0.231\nsamples = 105\nvalue = [91, 14]"] ;
897 -> 898 ;
899 [label="gini = 0.249\nsamples = 96\nvalue = [82, 14]"] ;
898 -> 899 ;
900 [label="gini = 0.0\nsamples = 9\nvalue = [9, 0]"] ;
898 -> 900 ;
901 [label="X[0] <= 2.55\ngini = 0.457\nsamples = 17\nvalue = [11, 6]"] ;
897 -> 901 ;
902 [label="gini = 0.444\nsamples = 3\nvalue = [1, 2]"] ;
901 -> 902 ;
903 [label="gini = 0.408\nsamples = 14\nvalue = [10, 4]"] ;
901 -> 903 ;
904 [label="X[0] <= 1.97\ngini = 0.444\nsamples = 18\nvalue = [12, 6]"] ;
896 -> 904 ;
905 [label="gini = 0.0\nsamples = 1\nvalue = [0, 1]"] ;
904 -> 905 ;
906 [label="X[0] <= 2.535\ngini = 0.415\nsamples = 17\nvalue = [12, 5]"] ;
904 -> 906 ;
907 [label="gini = 0.459\nsamples = 14\nvalue = [9, 5]"] ;
906 -> 907 ;
908 [label="gini = 0.0\nsamples = 3\nvalue = [3, 0]"] ;
906 -> 908 ;
909 [label="X[0] <= 2.605\ngini = 0.418\nsamples = 47\nvalue = [33, 14]"] ;
895 -> 909 ;
910 [label="X[0] <= 2.035\ngini = 0.405\nsamples = 46\nvalue = [33, 13]"] ;
909 -> 910 ;
911 [label="X[0] <= 2.025\ngini = 0.497\nsamples = 13\nvalue = [7, 6]"] ;
910 -> 911 ;
912 [label="gini = 0.486\nsamples = 12\nvalue = [7, 5]"] ;
911 -> 912 ;
913 [label="gini = 0.0\nsamples = 1\nvalue = [0, 1]"] ;
911 -> 913 ;
914 [label="X[0] <= 2.315\ngini = 0.334\nsamples = 33\nvalue = [26, 7]"] ;
910 -> 914 ;
915 [label="gini = 0.0\nsamples = 7\nvalue = [7, 0]"] ;
914 -> 915 ;
916 [label="gini = 0.393\nsamples = 26\nvalue = [19, 7]"] ;
914 -> 916 ;
917 [label="gini = 0.0\nsamples = 1\nvalue = [0, 1]"] ;
909 -> 917 ;
918 [label="X[1151] <= 0.5\ngini = 0.071\nsamples = 27\nvalue = [26, 1]"] ;
864 -> 918 ;
919 [label="gini = 0.0\nsamples = 23\nvalue = [23, 0]"] ;
918 -> 919 ;
920 [label="X[0] <= 2.655\ngini = 0.375\nsamples = 4\nvalue = [3, 1]"] ;
918 -> 920 ;
921 [label="gini = 0.0\nsamples = 1\nvalue = [1, 0]"] ;
920 -> 921 ;
922 [label="X[0] <= 2.685\ngini = 0.444\nsamples = 3\nvalue = [2, 1]"] ;
920 -> 922 ;
923 [label="gini = 0.5\nsamples = 2\nvalue = [1, 1]"] ;
922 -> 923 ;
924 [label="gini = 0.0\nsamples = 1\nvalue = [1, 0]"] ;
922 -> 924 ;
925 [label="X[0] <= 2.775\ngini = 0.404\nsamples = 160\nvalue = [115, 45]"] ;
863 -> 925 ;
926 [label="X[1257] <= 0.5\ngini = 0.478\nsamples = 38\nvalue = [23, 15]"] ;
925 -> 926 ;
927 [label="X[1227] <= 0.5\ngini = 0.47\nsamples = 37\nvalue = [23, 14]"] ;
926 -> 927 ;
928 [label="X[1132] <= 0.5\ngini = 0.461\nsamples = 36\nvalue = [23, 13]"] ;
927 -> 928 ;
929 [label="X[0] <= 2.715\ngini = 0.388\nsamples = 19\nvalue = [14, 5]"] ;
928 -> 929 ;
930 [label="gini = 0.0\nsamples = 5\nvalue = [5, 0]"] ;
929 -> 930 ;
931 [label="X[1229] <= 0.5\ngini = 0.459\nsamples = 14\nvalue = [9, 5]"] ;
929 -> 931 ;
932 [label="X[0] <= 2.765\ngini = 0.486\nsamples = 12\nvalue = [7, 5]"] ;
931 -> 932 ;
933 [label="gini = 0.463\nsamples = 11\nvalue = [7, 4]"] ;
932 -> 933 ;
934 [label="gini = 0.0\nsamples = 1\nvalue = [0, 1]"] ;
932 -> 934 ;
935 [label="gini = 0.0\nsamples = 2\nvalue = [2, 0]"] ;
931 -> 935 ;
936 [label="X[0] <= 2.725\ngini = 0.498\nsamples = 17\nvalue = [9, 8]"] ;
928 -> 936 ;
937 [label="X[0] <= 2.705\ngini = 0.32\nsamples = 5\nvalue = [1, 4]"] ;
936 -> 937 ;
938 [label="gini = 0.0\nsamples = 2\nvalue = [0, 2]"] ;
937 -> 938 ;
939 [label="X[0] <= 2.715\ngini = 0.444\nsamples = 3\nvalue = [1, 2]"] ;
937 -> 939 ;
940 [label="gini = 0.5\nsamples = 2\nvalue = [1, 1]"] ;
939 -> 940 ;
941 [label="gini = 0.0\nsamples = 1\nvalue = [0, 1]"] ;
939 -> 941 ;
942 [label="X[0] <= 2.765\ngini = 0.444\nsamples = 12\nvalue = [8, 4]"] ;
936 -> 942 ;
943 [label="X[0] <= 2.74\ngini = 0.397\nsamples = 11\nvalue = [8, 3]"] ;
942 -> 943 ;
944 [label="gini = 0.0\nsamples = 1\nvalue = [1, 0]"] ;
943 -> 944 ;
945 [label="gini = 0.42\nsamples = 10\nvalue = [7, 3]"] ;
943 -> 945 ;
946 [label="gini = 0.0\nsamples = 1\nvalue = [0, 1]"] ;
942 -> 946 ;
947 [label="gini = 0.0\nsamples = 1\nvalue = [0, 1]"] ;
927 -> 947 ;
948 [label="gini = 0.0\nsamples = 1\nvalue = [0, 1]"] ;
926 -> 948 ;
949 [label="X[0] <= 2.795\ngini = 0.371\nsamples = 122\nvalue = [92, 30]"] ;
925 -> 949 ;
950 [label="X[1132] <= 0.5\ngini = 0.18\nsamples = 10\nvalue = [9, 1]"] ;
949 -> 950 ;
951 [label="gini = 0.0\nsamples = 5\nvalue = [5, 0]"] ;
950 -> 951 ;
952 [label="gini = 0.32\nsamples = 5\nvalue = [4, 1]"] ;
950 -> 952 ;
953 [label="X[1229] <= 0.5\ngini = 0.384\nsamples = 112\nvalue = [83, 29]"] ;
949 -> 953 ;
954 [label="X[0] <= 2.835\ngini = 0.393\nsamples = 104\nvalue = [76, 28]"] ;
953 -> 954 ;
955 [label="X[1132] <= 0.5\ngini = 0.435\nsamples = 25\nvalue = [17, 8]"] ;
954 -> 955 ;
956 [label="X[0] <= 2.815\ngini = 0.298\nsamples = 11\nvalue = [9, 2]"] ;
955 -> 956 ;
957 [label="X[0] <= 2.805\ngini = 0.408\nsamples = 7\nvalue = [5, 2]"] ;
956 -> 957 ;
958 [label="gini = 0.0\nsamples = 2\nvalue = [2, 0]"] ;
957 -> 958 ;
959 [label="gini = 0.48\nsamples = 5\nvalue = [3, 2]"] ;
957 -> 959 ;
960 [label="gini = 0.0\nsamples = 4\nvalue = [4, 0]"] ;
956 -> 960 ;
961 [label="X[0] <= 2.825\ngini = 0.49\nsamples = 14\nvalue = [8, 6]"] ;
955 -> 961 ;
962 [label="X[0] <= 2.805\ngini = 0.469\nsamples = 8\nvalue = [5, 3]"] ;
961 -> 962 ;
963 [label="gini = 0.444\nsamples = 3\nvalue = [2, 1]"] ;
962 -> 963 ;
964 [label="gini = 0.48\nsamples = 5\nvalue = [3, 2]"] ;
962 -> 964 ;
965 [label="gini = 0.5\nsamples = 6\nvalue = [3, 3]"] ;
961 -> 965 ;
966 [label="X[1132] <= 0.5\ngini = 0.378\nsamples = 79\nvalue = [59, 20]"] ;
954 -> 966 ;
967 [label="X[0] <= 2.965\ngini = 0.427\nsamples = 42\nvalue = [29, 13]"] ;
966 -> 967 ;
968 [label="X[0] <= 2.915\ngini = 0.389\nsamples = 34\nvalue = [25, 9]"] ;
967 -> 968 ;
969 [label="gini = 0.444\nsamples = 21\nvalue = [14, 7]"] ;
968 -> 969 ;
970 [label="gini = 0.26\nsamples = 13\nvalue = [11, 2]"] ;
968 -> 970 ;
971 [label="X[1227] <= 0.5\ngini = 0.5\nsamples = 8\nvalue = [4, 4]"] ;
967 -> 971 ;
972 [label="gini = 0.49\nsamples = 7\nvalue = [3, 4]"] ;
971 -> 972 ;
973 [label="gini = 0.0\nsamples = 1\nvalue = [1, 0]"] ;
971 -> 973 ;
974 [label="X[0] <= 2.955\ngini = 0.307\nsamples = 37\nvalue = [30, 7]"] ;
966 -> 974 ;
975 [label="X[0] <= 2.945\ngini = 0.355\nsamples = 26\nvalue = [20, 6]"] ;
974 -> 975 ;
976 [label="gini = 0.278\nsamples = 24\nvalue = [20, 4]"] ;
975 -> 976 ;
977 [label="gini = 0.0\nsamples = 2\nvalue = [0, 2]"] ;
975 -> 977 ;
978 [label="X[0] <= 2.975\ngini = 0.165\nsamples = 11\nvalue = [10, 1]"] ;
974 -> 978 ;
979 [label="gini = 0.0\nsamples = 6\nvalue = [6, 0]"] ;
978 -> 979 ;
980 [label="gini = 0.32\nsamples = 5\nvalue = [4, 1]"] ;
978 -> 980 ;
981 [label="X[0] <= 2.905\ngini = 0.219\nsamples = 8\nvalue = [7, 1]"] ;
953 -> 981 ;
982 [label="gini = 0.0\nsamples = 5\nvalue = [5, 0]"] ;
981 -> 982 ;
983 [label="X[0] <= 2.94\ngini = 0.444\nsamples = 3\nvalue = [2, 1]"] ;
981 -> 983 ;
984 [label="gini = 0.0\nsamples = 1\nvalue = [0, 1]"] ;
983 -> 984 ;
985 [label="gini = 0.0\nsamples = 2\nvalue = [2, 0]"] ;
983 -> 985 ;
986 [label="gini = 0.0\nsamples = 1\nvalue = [0, 1]"] ;
862 -> 986 ;
987 [label="gini = 0.0\nsamples = 9\nvalue = [9, 0]"] ;
861 -> 987 ;
988 [label="X[1227] <= 0.5\ngini = 0.5\nsamples = 8\nvalue = [4, 4]"] ;
860 -> 988 ;
989 [label="X[0] <= 1.955\ngini = 0.444\nsamples = 6\nvalue = [2, 4]"] ;
988 -> 989 ;
990 [label="gini = 0.0\nsamples = 1\nvalue = [0, 1]"] ;
989 -> 990 ;
991 [label="X[0] <= 2.19\ngini = 0.48\nsamples = 5\nvalue = [2, 3]"] ;
989 -> 991 ;
992 [label="gini = 0.0\nsamples = 1\nvalue = [1, 0]"] ;
991 -> 992 ;
993 [label="X[0] <= 2.86\ngini = 0.375\nsamples = 4\nvalue = [1, 3]"] ;
991 -> 993 ;
994 [label="gini = 0.0\nsamples = 2\nvalue = [0, 2]"] ;
993 -> 994 ;
995 [label="X[0] <= 2.915\ngini = 0.5\nsamples = 2\nvalue = [1, 1]"] ;
993 -> 995 ;
996 [label="gini = 0.0\nsamples = 1\nvalue = [1, 0]"] ;
995 -> 996 ;
997 [label="gini = 0.0\nsamples = 1\nvalue = [0, 1]"] ;
995 -> 997 ;
998 [label="gini = 0.0\nsamples = 2\nvalue = [2, 0]"] ;
988 -> 998 ;
999 [label="gini = 0.0\nsamples = 1\nvalue = [0, 1]"] ;
859 -> 999 ;
1000 [label="gini = 0.0\nsamples = 30\nvalue = [0, 30]"] ;
30 -> 1000 ;
1001 [label="gini = 0.0\nsamples = 34\nvalue = [0, 34]"] ;
29 -> 1001 ;
1002 [label="X[0] <= 1.865\ngini = 0.497\nsamples = 149\nvalue = [69, 80]"] ;
28 -> 1002 ;
1003 [label="X[0] <= 1.01\ngini = 0.484\nsamples = 127\nvalue = [52, 75]"] ;
1002 -> 1003 ;
1004 [label="X[0] <= 0.415\ngini = 0.496\nsamples = 75\nvalue = [41, 34]"] ;
1003 -> 1004 ;
1005 [label="X[4] <= 0.5\ngini = 0.444\nsamples = 18\nvalue = [6, 12]"] ;
1004 -> 1005 ;
1006 [label="X[996] <= 0.5\ngini = 0.337\nsamples = 14\nvalue = [3, 11]"] ;
1005 -> 1006 ;
1007 [label="X[1001] <= 0.5\ngini = 0.26\nsamples = 13\nvalue = [2, 11]"] ;
1006 -> 1007 ;
1008 [label="X[7] <= 0.5\ngini = 0.153\nsamples = 12\nvalue = [1, 11]"] ;
1007 -> 1008 ;
1009 [label="gini = 0.0\nsamples = 10\nvalue = [0, 10]"] ;
1008 -> 1009 ;
1010 [label="X[1003] <= 0.5\ngini = 0.5\nsamples = 2\nvalue = [1, 1]"] ;
1008 -> 1010 ;
1011 [label="gini = 0.0\nsamples = 1\nvalue = [0, 1]"] ;
1010 -> 1011 ;
1012 [label="gini = 0.0\nsamples = 1\nvalue = [1, 0]"] ;
1010 -> 1012 ;
1013 [label="gini = 0.0\nsamples = 1\nvalue = [1, 0]"] ;
1007 -> 1013 ;
1014 [label="gini = 0.0\nsamples = 1\nvalue = [1, 0]"] ;
1006 -> 1014 ;
1015 [label="X[996] <= 0.5\ngini = 0.375\nsamples = 4\nvalue = [3, 1]"] ;
1005 -> 1015 ;
1016 [label="gini = 0.0\nsamples = 3\nvalue = [3, 0]"] ;
1015 -> 1016 ;
1017 [label="gini = 0.0\nsamples = 1\nvalue = [0, 1]"] ;
1015 -> 1017 ;
1018 [label="X[37] <= 0.5\ngini = 0.474\nsamples = 57\nvalue = [35, 22]"] ;
1004 -> 1018 ;
1019 [label="X[0] <= 0.905\ngini = 0.497\nsamples = 39\nvalue = [21, 18]"] ;
1018 -> 1019 ;
1020 [label="X[1012] <= 0.5\ngini = 0.491\nsamples = 37\nvalue = [21, 16]"] ;
1019 -> 1020 ;
1021 [label="X[0] <= 0.755\ngini = 0.478\nsamples = 33\nvalue = [20, 13]"] ;
1020 -> 1021 ;
1022 [label="X[0] <= 0.64\ngini = 0.452\nsamples = 29\nvalue = [19, 10]"] ;
1021 -> 1022 ;
1023 [label="X[0] <= 0.565\ngini = 0.495\nsamples = 20\nvalue = [11, 9]"] ;
1022 -> 1023 ;
1024 [label="X[0] <= 0.535\ngini = 0.426\nsamples = 13\nvalue = [9, 4]"] ;
1023 -> 1024 ;
1025 [label="X[0] <= 0.525\ngini = 0.463\nsamples = 11\nvalue = [7, 4]"] ;
1024 -> 1025 ;
1026 [label="X[0] <= 0.45\ngini = 0.42\nsamples = 10\nvalue = [7, 3]"] ;
1025 -> 1026 ;
1027 [label="X[0] <= 0.43\ngini = 0.5\nsamples = 4\nvalue = [2, 2]"] ;
1026 -> 1027 ;
1028 [label="gini = 0.5\nsamples = 2\nvalue = [1, 1]"] ;
1027 -> 1028 ;
1029 [label="gini = 0.5\nsamples = 2\nvalue = [1, 1]"] ;
1027 -> 1029 ;
1030 [label="X[1008] <= 0.5\ngini = 0.278\nsamples = 6\nvalue = [5, 1]"] ;
1026 -> 1030 ;
1031 [label="gini = 0.0\nsamples = 4\nvalue = [4, 0]"] ;
1030 -> 1031 ;
1032 [label="X[0] <= 0.51\ngini = 0.5\nsamples = 2\nvalue = [1, 1]"] ;
1030 -> 1032 ;
1033 [label="gini = 0.0\nsamples = 1\nvalue = [0, 1]"] ;
1032 -> 1033 ;
1034 [label="gini = 0.0\nsamples = 1\nvalue = [1, 0]"] ;
1032 -> 1034 ;
1035 [label="gini = 0.0\nsamples = 1\nvalue = [0, 1]"] ;
1025 -> 1035 ;
1036 [label="gini = 0.0\nsamples = 2\nvalue = [2, 0]"] ;
1024 -> 1036 ;
1037 [label="X[0] <= 0.62\ngini = 0.408\nsamples = 7\nvalue = [2, 5]"] ;
1023 -> 1037 ;
1038 [label="gini = 0.0\nsamples = 4\nvalue = [0, 4]"] ;
1037 -> 1038 ;
1039 [label="X[1003] <= 0.5\ngini = 0.444\nsamples = 3\nvalue = [2, 1]"] ;
1037 -> 1039 ;
1040 [label="gini = 0.0\nsamples = 2\nvalue = [2, 0]"] ;
1039 -> 1040 ;
1041 [label="gini = 0.0\nsamples = 1\nvalue = [0, 1]"] ;
1039 -> 1041 ;
1042 [label="X[1009] <= 0.5\ngini = 0.198\nsamples = 9\nvalue = [8, 1]"] ;
1022 -> 1042 ;
1043 [label="gini = 0.0\nsamples = 5\nvalue = [5, 0]"] ;
1042 -> 1043 ;
1044 [label="X[0] <= 0.735\ngini = 0.375\nsamples = 4\nvalue = [3, 1]"] ;
1042 -> 1044 ;
1045 [label="X[191] <= 0.5\ngini = 0.5\nsamples = 2\nvalue = [1, 1]"] ;
1044 -> 1045 ;
1046 [label="gini = 0.0\nsamples = 1\nvalue = [0, 1]"] ;
1045 -> 1046 ;
1047 [label="gini = 0.0\nsamples = 1\nvalue = [1, 0]"] ;
1045 -> 1047 ;
1048 [label="gini = 0.0\nsamples = 2\nvalue = [2, 0]"] ;
1044 -> 1048 ;
1049 [label="X[0] <= 0.765\ngini = 0.375\nsamples = 4\nvalue = [1, 3]"] ;
1021 -> 1049 ;
1050 [label="gini = 0.0\nsamples = 1\nvalue = [0, 1]"] ;
1049 -> 1050 ;
1051 [label="gini = 0.444\nsamples = 3\nvalue = [1, 2]"] ;
1049 -> 1051 ;
1052 [label="X[0] <= 0.79\ngini = 0.375\nsamples = 4\nvalue = [1, 3]"] ;
1020 -> 1052 ;
1053 [label="gini = 0.0\nsamples = 3\nvalue = [0, 3]"] ;
1052 -> 1053 ;
1054 [label="gini = 0.0\nsamples = 1\nvalue = [1, 0]"] ;
1052 -> 1054 ;
1055 [label="gini = 0.0\nsamples = 2\nvalue = [0, 2]"] ;
1019 -> 1055 ;
1056 [label="X[1010] <= 0.5\ngini = 0.346\nsamples = 18\nvalue = [14, 4]"] ;
1018 -> 1056 ;
1057 [label="X[0] <= 0.68\ngini = 0.291\nsamples = 17\nvalue = [14, 3]"] ;
1056 -> 1057 ;
1058 [label="X[0] <= 0.635\ngini = 0.49\nsamples = 7\nvalue = [4, 3]"] ;
1057 -> 1058 ;
1059 [label="X[0] <= 0.45\ngini = 0.32\nsamples = 5\nvalue = [4, 1]"] ;
1058 -> 1059 ;
1060 [label="gini = 0.5\nsamples = 2\nvalue = [1, 1]"] ;
1059 -> 1060 ;
1061 [label="gini = 0.0\nsamples = 3\nvalue = [3, 0]"] ;
1059 -> 1061 ;
1062 [label="gini = 0.0\nsamples = 2\nvalue = [0, 2]"] ;
1058 -> 1062 ;
1063 [label="gini = 0.0\nsamples = 10\nvalue = [10, 0]"] ;
1057 -> 1063 ;
1064 [label="gini = 0.0\nsamples = 1\nvalue = [0, 1]"] ;
1056 -> 1064 ;
1065 [label="X[0] <= 1.735\ngini = 0.334\nsamples = 52\nvalue = [11, 41]"] ;
1003 -> 1065 ;
1066 [label="X[0] <= 1.635\ngini = 0.387\nsamples = 42\nvalue = [11, 31]"] ;
1065 -> 1066 ;
1067 [label="X[0] <= 1.495\ngini = 0.238\nsamples = 29\nvalue = [4, 25]"] ;
1066 -> 1067 ;
1068 [label="X[0] <= 1.305\ngini = 0.375\nsamples = 12\nvalue = [3, 9]"] ;
1067 -> 1068 ;
1069 [label="gini = 0.0\nsamples = 4\nvalue = [0, 4]"] ;
1068 -> 1069 ;
1070 [label="X[1003] <= 0.5\ngini = 0.469\nsamples = 8\nvalue = [3, 5]"] ;
1068 -> 1070 ;
1071 [label="X[0] <= 1.44\ngini = 0.48\nsamples = 5\nvalue = [3, 2]"] ;
1070 -> 1071 ;
1072 [label="X[1008] <= 0.5\ngini = 0.444\nsamples = 3\nvalue = [1, 2]"] ;
1071 -> 1072 ;
1073 [label="gini = 0.0\nsamples = 2\nvalue = [0, 2]"] ;
1072 -> 1073 ;
1074 [label="gini = 0.0\nsamples = 1\nvalue = [1, 0]"] ;
1072 -> 1074 ;
1075 [label="gini = 0.0\nsamples = 2\nvalue = [2, 0]"] ;
1071 -> 1075 ;
1076 [label="gini = 0.0\nsamples = 3\nvalue = [0, 3]"] ;
1070 -> 1076 ;
1077 [label="X[0] <= 1.6\ngini = 0.111\nsamples = 17\nvalue = [1, 16]"] ;
1067 -> 1077 ;
1078 [label="gini = 0.0\nsamples = 11\nvalue = [0, 11]"] ;
1077 -> 1078 ;
1079 [label="X[0] <= 1.615\ngini = 0.278\nsamples = 6\nvalue = [1, 5]"] ;
1077 -> 1079 ;
1080 [label="gini = 0.444\nsamples = 3\nvalue = [1, 2]"] ;
1079 -> 1080 ;
1081 [label="gini = 0.0\nsamples = 3\nvalue = [0, 3]"] ;
1079 -> 1081 ;
1082 [label="X[7] <= 0.5\ngini = 0.497\nsamples = 13\nvalue = [7, 6]"] ;
1066 -> 1082 ;
1083 [label="X[1007] <= 0.5\ngini = 0.486\nsamples = 12\nvalue = [7, 5]"] ;
1082 -> 1083 ;
1084 [label="X[0] <= 1.645\ngini = 0.496\nsamples = 11\nvalue = [6, 5]"] ;
1083 -> 1084 ;
1085 [label="gini = 0.0\nsamples = 1\nvalue = [0, 1]"] ;
1084 -> 1085 ;
1086 [label="X[0] <= 1.72\ngini = 0.48\nsamples = 10\nvalue = [6, 4]"] ;
1084 -> 1086 ;
1087 [label="X[1009] <= 0.5\ngini = 0.494\nsamples = 9\nvalue = [5, 4]"] ;
1086 -> 1087 ;
1088 [label="X[0] <= 1.685\ngini = 0.444\nsamples = 3\nvalue = [2, 1]"] ;
1087 -> 1088 ;
1089 [label="gini = 0.0\nsamples = 2\nvalue = [2, 0]"] ;
1088 -> 1089 ;
1090 [label="gini = 0.0\nsamples = 1\nvalue = [0, 1]"] ;
1088 -> 1090 ;
1091 [label="X[0] <= 1.665\ngini = 0.5\nsamples = 6\nvalue = [3, 3]"] ;
1087 -> 1091 ;
1092 [label="gini = 0.0\nsamples = 1\nvalue = [0, 1]"] ;
1091 -> 1092 ;
1093 [label="X[0] <= 1.69\ngini = 0.48\nsamples = 5\nvalue = [3, 2]"] ;
1091 -> 1093 ;
1094 [label="gini = 0.5\nsamples = 2\nvalue = [1, 1]"] ;
1093 -> 1094 ;
1095 [label="X[0] <= 1.705\ngini = 0.444\nsamples = 3\nvalue = [2, 1]"] ;
1093 -> 1095 ;
1096 [label="gini = 0.0\nsamples = 1\nvalue = [1, 0]"] ;
1095 -> 1096 ;
1097 [label="gini = 0.5\nsamples = 2\nvalue = [1, 1]"] ;
1095 -> 1097 ;
1098 [label="gini = 0.0\nsamples = 1\nvalue = [1, 0]"] ;
1086 -> 1098 ;
1099 [label="gini = 0.0\nsamples = 1\nvalue = [1, 0]"] ;
1083 -> 1099 ;
1100 [label="gini = 0.0\nsamples = 1\nvalue = [0, 1]"] ;
1082 -> 1100 ;
1101 [label="gini = 0.0\nsamples = 10\nvalue = [0, 10]"] ;
1065 -> 1101 ;
1102 [label="X[0] <= 2.415\ngini = 0.351\nsamples = 22\nvalue = [17, 5]"] ;
1002 -> 1102 ;
1103 [label="gini = 0.0\nsamples = 9\nvalue = [9, 0]"] ;
1102 -> 1103 ;
1104 [label="X[1003] <= 0.5\ngini = 0.473\nsamples = 13\nvalue = [8, 5]"] ;
1102 -> 1104 ;
1105 [label="X[37] <= 0.5\ngini = 0.397\nsamples = 11\nvalue = [8, 3]"] ;
1104 -> 1105 ;
1106 [label="X[6] <= 0.5\ngini = 0.5\nsamples = 6\nvalue = [3, 3]"] ;
1105 -> 1106 ;
1107 [label="X[1010] <= 0.5\ngini = 0.375\nsamples = 4\nvalue = [1, 3]"] ;
1106 -> 1107 ;
1108 [label="gini = 0.0\nsamples = 3\nvalue = [0, 3]"] ;
1107 -> 1108 ;
1109 [label="gini = 0.0\nsamples = 1\nvalue = [1, 0]"] ;
1107 -> 1109 ;
1110 [label="gini = 0.0\nsamples = 2\nvalue = [2, 0]"] ;
1106 -> 1110 ;
1111 [label="gini = 0.0\nsamples = 5\nvalue = [5, 0]"] ;
1105 -> 1111 ;
1112 [label="gini = 0.0\nsamples = 2\nvalue = [0, 2]"] ;
1104 -> 1112 ;
1113 [label="gini = 0.0\nsamples = 38\nvalue = [0, 38]"] ;
27 -> 1113 ;
1114 [label="X[1013] <= 0.5\ngini = 0.499\nsamples = 208\nvalue = [99, 109]"] ;
26 -> 1114 ;
1115 [label="X[1012] <= 0.5\ngini = 0.494\nsamples = 197\nvalue = [88, 109]"] ;
1114 -> 1115 ;
1116 [label="X[1009] <= 0.5\ngini = 0.499\nsamples = 178\nvalue = [85, 93]"] ;
1115 -> 1116 ;
1117 [label="X[1003] <= 0.5\ngini = 0.495\nsamples = 107\nvalue = [59, 48]"] ;
1116 -> 1117 ;
1118 [label="X[0] <= 2.125\ngini = 0.448\nsamples = 59\nvalue = [39, 20]"] ;
1117 -> 1118 ;
1119 [label="X[1006] <= 0.5\ngini = 0.369\nsamples = 45\nvalue = [34, 11]"] ;
1118 -> 1119 ;
1120 [label="X[0] <= 0.935\ngini = 0.351\nsamples = 44\nvalue = [34, 10]"] ;
1119 -> 1120 ;
1121 [label="X[1007] <= 0.5\ngini = 0.117\nsamples = 16\nvalue = [15, 1]"] ;
1120 -> 1121 ;
1122 [label="gini = 0.0\nsamples = 14\nvalue = [14, 0]"] ;
1121 -> 1122 ;
1123 [label="X[0] <= 0.585\ngini = 0.5\nsamples = 2\nvalue = [1, 1]"] ;
1121 -> 1123 ;
1124 [label="gini = 0.0\nsamples = 1\nvalue = [0, 1]"] ;
1123 -> 1124 ;
1125 [label="gini = 0.0\nsamples = 1\nvalue = [1, 0]"] ;
1123 -> 1125 ;
1126 [label="X[0] <= 1.505\ngini = 0.436\nsamples = 28\nvalue = [19, 9]"] ;
1120 -> 1126 ;
1127 [label="X[222] <= 0.5\ngini = 0.444\nsamples = 6\nvalue = [2, 4]"] ;
1126 -> 1127 ;
1128 [label="gini = 0.0\nsamples = 1\nvalue = [1, 0]"] ;
1127 -> 1128 ;
1129 [label="X[996] <= 0.5\ngini = 0.32\nsamples = 5\nvalue = [1, 4]"] ;
1127 -> 1129 ;
1130 [label="gini = 0.0\nsamples = 4\nvalue = [0, 4]"] ;
1129 -> 1130 ;
1131 [label="gini = 0.0\nsamples = 1\nvalue = [1, 0]"] ;
1129 -> 1131 ;
1132 [label="X[1008] <= 0.5\ngini = 0.351\nsamples = 22\nvalue = [17, 5]"] ;
1126 -> 1132 ;
1133 [label="X[222] <= 0.5\ngini = 0.198\nsamples = 18\nvalue = [16, 2]"] ;
1132 -> 1133 ;
1134 [label="gini = 0.0\nsamples = 1\nvalue = [0, 1]"] ;
1133 -> 1134 ;
1135 [label="X[1015] <= 0.5\ngini = 0.111\nsamples = 17\nvalue = [16, 1]"] ;
1133 -> 1135 ;
1136 [label="gini = 0.0\nsamples = 16\nvalue = [16, 0]"] ;
1135 -> 1136 ;
1137 [label="gini = 0.0\nsamples = 1\nvalue = [0, 1]"] ;
1135 -> 1137 ;
1138 [label="X[0] <= 1.915\ngini = 0.375\nsamples = 4\nvalue = [1, 3]"] ;
1132 -> 1138 ;
1139 [label="gini = 0.0\nsamples = 3\nvalue = [0, 3]"] ;
1138 -> 1139 ;
1140 [label="gini = 0.0\nsamples = 1\nvalue = [1, 0]"] ;
1138 -> 1140 ;
1141 [label="gini = 0.0\nsamples = 1\nvalue = [0, 1]"] ;
1119 -> 1141 ;
1142 [label="X[1028] <= 0.5\ngini = 0.459\nsamples = 14\nvalue = [5, 9]"] ;
1118 -> 1142 ;
1143 [label="X[1017] <= 0.5\ngini = 0.426\nsamples = 13\nvalue = [4, 9]"] ;
1142 -> 1143 ;
1144 [label="X[998] <= 0.5\ngini = 0.375\nsamples = 12\nvalue = [3, 9]"] ;
1143 -> 1144 ;
1145 [label="X[0] <= 2.725\ngini = 0.298\nsamples = 11\nvalue = [2, 9]"] ;
1144 -> 1145 ;
1146 [label="X[1021] <= 0.5\ngini = 0.18\nsamples = 10\nvalue = [1, 9]"] ;
1145 -> 1146 ;
1147 [label="gini = 0.0\nsamples = 9\nvalue = [0, 9]"] ;
1146 -> 1147 ;
1148 [label="gini = 0.0\nsamples = 1\nvalue = [1, 0]"] ;
1146 -> 1148 ;
1149 [label="gini = 0.0\nsamples = 1\nvalue = [1, 0]"] ;
1145 -> 1149 ;
1150 [label="gini = 0.0\nsamples = 1\nvalue = [1, 0]"] ;
1144 -> 1150 ;
1151 [label="gini = 0.0\nsamples = 1\nvalue = [1, 0]"] ;
1143 -> 1151 ;
1152 [label="gini = 0.0\nsamples = 1\nvalue = [1, 0]"] ;
1142 -> 1152 ;
1153 [label="X[0] <= 0.735\ngini = 0.486\nsamples = 48\nvalue = [20, 28]"] ;
1117 -> 1153 ;
1154 [label="gini = 0.0\nsamples = 7\nvalue = [0, 7]"] ;
1153 -> 1154 ;
1155 [label="X[0] <= 2.43\ngini = 0.5\nsamples = 41\nvalue = [20, 21]"] ;
1153 -> 1155 ;
1156 [label="X[0] <= 1.765\ngini = 0.493\nsamples = 25\nvalue = [14, 11]"] ;
1155 -> 1156 ;
1157 [label="X[0] <= 1.555\ngini = 0.484\nsamples = 17\nvalue = [7, 10]"] ;
1156 -> 1157 ;
1158 [label="X[0] <= 1.54\ngini = 0.48\nsamples = 10\nvalue = [6, 4]"] ;
1157 -> 1158 ;
1159 [label="X[0] <= 1.46\ngini = 0.494\nsamples = 9\nvalue = [5, 4]"] ;
1158 -> 1159 ;
1160 [label="X[0] <= 1.1\ngini = 0.444\nsamples = 3\nvalue = [2, 1]"] ;
1159 -> 1160 ;
1161 [label="gini = 0.5\nsamples = 2\nvalue = [1, 1]"] ;
1160 -> 1161 ;
1162 [label="gini = 0.0\nsamples = 1\nvalue = [1, 0]"] ;
1160 -> 1162 ;
1163 [label="X[0] <= 1.5\ngini = 0.5\nsamples = 6\nvalue = [3, 3]"] ;
1159 -> 1163 ;
1164 [label="X[0] <= 1.485\ngini = 0.444\nsamples = 3\nvalue = [1, 2]"] ;
1163 -> 1164 ;
1165 [label="gini = 0.5\nsamples = 2\nvalue = [1, 1]"] ;
1164 -> 1165 ;
1166 [label="gini = 0.0\nsamples = 1\nvalue = [0, 1]"] ;
1164 -> 1166 ;
1167 [label="X[0] <= 1.52\ngini = 0.444\nsamples = 3\nvalue = [2, 1]"] ;
1163 -> 1167 ;
1168 [label="gini = 0.0\nsamples = 1\nvalue = [1, 0]"] ;
1167 -> 1168 ;
1169 [label="gini = 0.5\nsamples = 2\nvalue = [1, 1]"] ;
1167 -> 1169 ;
1170 [label="gini = 0.0\nsamples = 1\nvalue = [1, 0]"] ;
1158 -> 1170 ;
1171 [label="X[0] <= 1.67\ngini = 0.245\nsamples = 7\nvalue = [1, 6]"] ;
1157 -> 1171 ;
1172 [label="gini = 0.0\nsamples = 5\nvalue = [0, 5]"] ;
1171 -> 1172 ;
1173 [label="X[0] <= 1.735\ngini = 0.5\nsamples = 2\nvalue = [1, 1]"] ;
1171 -> 1173 ;
1174 [label="gini = 0.0\nsamples = 1\nvalue = [1, 0]"] ;
1173 -> 1174 ;
1175 [label="gini = 0.0\nsamples = 1\nvalue = [0, 1]"] ;
1173 -> 1175 ;
1176 [label="X[0] <= 2.21\ngini = 0.219\nsamples = 8\nvalue = [7, 1]"] ;
1156 -> 1176 ;
1177 [label="gini = 0.0\nsamples = 4\nvalue = [4, 0]"] ;
1176 -> 1177 ;
1178 [label="X[0] <= 2.34\ngini = 0.375\nsamples = 4\nvalue = [3, 1]"] ;
1176 -> 1178 ;
1179 [label="gini = 0.0\nsamples = 1\nvalue = [0, 1]"] ;
1178 -> 1179 ;
1180 [label="gini = 0.0\nsamples = 3\nvalue = [3, 0]"] ;
1178 -> 1180 ;
1181 [label="X[0] <= 2.56\ngini = 0.469\nsamples = 16\nvalue = [6, 10]"] ;
1155 -> 1181 ;
1182 [label="gini = 0.0\nsamples = 4\nvalue = [0, 4]"] ;
1181 -> 1182 ;
1183 [label="X[0] <= 2.625\ngini = 0.5\nsamples = 12\nvalue = [6, 6]"] ;
1181 -> 1183 ;
1184 [label="gini = 0.0\nsamples = 3\nvalue = [3, 0]"] ;
1183 -> 1184 ;
1185 [label="X[0] <= 2.81\ngini = 0.444\nsamples = 9\nvalue = [3, 6]"] ;
1183 -> 1185 ;
1186 [label="X[0] <= 2.68\ngini = 0.375\nsamples = 8\nvalue = [2, 6]"] ;
1185 -> 1186 ;
1187 [label="X[0] <= 2.66\ngini = 0.48\nsamples = 5\nvalue = [2, 3]"] ;
1186 -> 1187 ;
1188 [label="gini = 0.375\nsamples = 4\nvalue = [1, 3]"] ;
1187 -> 1188 ;
1189 [label="gini = 0.0\nsamples = 1\nvalue = [1, 0]"] ;
1187 -> 1189 ;
1190 [label="gini = 0.0\nsamples = 3\nvalue = [0, 3]"] ;
1186 -> 1190 ;
1191 [label="gini = 0.0\nsamples = 1\nvalue = [1, 0]"] ;
1185 -> 1191 ;
1192 [label="X[0] <= 2.745\ngini = 0.464\nsamples = 71\nvalue = [26, 45]"] ;
1116 -> 1192 ;
1193 [label="X[0] <= 1.825\ngini = 0.454\nsamples = 69\nvalue = [24, 45]"] ;
1192 -> 1193 ;
1194 [label="X[0] <= 0.63\ngini = 0.494\nsamples = 38\nvalue = [17, 21]"] ;
1193 -> 1194 ;
1195 [label="gini = 0.0\nsamples = 4\nvalue = [0, 4]"] ;
1194 -> 1195 ;
1196 [label="X[0] <= 1.595\ngini = 0.5\nsamples = 34\nvalue = [17, 17]"] ;
1194 -> 1196 ;
1197 [label="X[0] <= 1.56\ngini = 0.486\nsamples = 24\nvalue = [10, 14]"] ;
1196 -> 1197 ;
1198 [label="X[0] <= 0.69\ngini = 0.496\nsamples = 22\nvalue = [10, 12]"] ;
1197 -> 1198 ;
1199 [label="gini = 0.0\nsamples = 1\nvalue = [1, 0]"] ;
1198 -> 1199 ;
1200 [label="X[0] <= 0.725\ngini = 0.49\nsamples = 21\nvalue = [9, 12]"] ;
1198 -> 1200 ;
1201 [label="gini = 0.0\nsamples = 2\nvalue = [0, 2]"] ;
1200 -> 1201 ;
1202 [label="X[0] <= 0.755\ngini = 0.499\nsamples = 19\nvalue = [9, 10]"] ;
1200 -> 1202 ;
1203 [label="gini = 0.0\nsamples = 2\nvalue = [2, 0]"] ;
1202 -> 1203 ;
1204 [label="X[0] <= 1.545\ngini = 0.484\nsamples = 17\nvalue = [7, 10]"] ;
1202 -> 1204 ;
1205 [label="X[0] <= 0.825\ngini = 0.469\nsamples = 16\nvalue = [6, 10]"] ;
1204 -> 1205 ;
1206 [label="X[0] <= 0.785\ngini = 0.32\nsamples = 5\nvalue = [1, 4]"] ;
1205 -> 1206 ;
1207 [label="X[0] <= 0.77\ngini = 0.444\nsamples = 3\nvalue = [1, 2]"] ;
1206 -> 1207 ;
1208 [label="gini = 0.0\nsamples = 1\nvalue = [0, 1]"] ;
1207 -> 1208 ;
1209 [label="gini = 0.5\nsamples = 2\nvalue = [1, 1]"] ;
1207 -> 1209 ;
1210 [label="gini = 0.0\nsamples = 2\nvalue = [0, 2]"] ;
1206 -> 1210 ;
1211 [label="X[0] <= 1.435\ngini = 0.496\nsamples = 11\nvalue = [5, 6]"] ;
1205 -> 1211 ;
1212 [label="X[0] <= 0.93\ngini = 0.375\nsamples = 4\nvalue = [3, 1]"] ;
1211 -> 1212 ;
1213 [label="gini = 0.5\nsamples = 2\nvalue = [1, 1]"] ;
1212 -> 1213 ;
1214 [label="gini = 0.0\nsamples = 2\nvalue = [2, 0]"] ;
1212 -> 1214 ;
1215 [label="X[0] <= 1.49\ngini = 0.408\nsamples = 7\nvalue = [2, 5]"] ;
1211 -> 1215 ;
1216 [label="gini = 0.0\nsamples = 3\nvalue = [0, 3]"] ;
1215 -> 1216 ;
1217 [label="X[0] <= 1.525\ngini = 0.5\nsamples = 4\nvalue = [2, 2]"] ;
1215 -> 1217 ;
1218 [label="gini = 0.0\nsamples = 1\nvalue = [1, 0]"] ;
1217 -> 1218 ;
1219 [label="gini = 0.444\nsamples = 3\nvalue = [1, 2]"] ;
1217 -> 1219 ;
1220 [label="gini = 0.0\nsamples = 1\nvalue = [1, 0]"] ;
1204 -> 1220 ;
1221 [label="gini = 0.0\nsamples = 2\nvalue = [0, 2]"] ;
1197 -> 1221 ;
1222 [label="X[0] <= 1.655\ngini = 0.42\nsamples = 10\nvalue = [7, 3]"] ;
1196 -> 1222 ;
1223 [label="gini = 0.0\nsamples = 3\nvalue = [3, 0]"] ;
1222 -> 1223 ;
1224 [label="X[0] <= 1.71\ngini = 0.49\nsamples = 7\nvalue = [4, 3]"] ;
1222 -> 1224 ;
1225 [label="gini = 0.0\nsamples = 2\nvalue = [0, 2]"] ;
1224 -> 1225 ;
1226 [label="X[0] <= 1.77\ngini = 0.32\nsamples = 5\nvalue = [4, 1]"] ;
1224 -> 1226 ;
1227 [label="gini = 0.0\nsamples = 2\nvalue = [2, 0]"] ;
1226 -> 1227 ;
1228 [label="X[0] <= 1.79\ngini = 0.444\nsamples = 3\nvalue = [2, 1]"] ;
1226 -> 1228 ;
1229 [label="gini = 0.5\nsamples = 2\nvalue = [1, 1]"] ;
1228 -> 1229 ;
1230 [label="gini = 0.0\nsamples = 1\nvalue = [1, 0]"] ;
1228 -> 1230 ;
1231 [label="X[0] <= 2.445\ngini = 0.35\nsamples = 31\nvalue = [7, 24]"] ;
1193 -> 1231 ;
1232 [label="gini = 0.0\nsamples = 11\nvalue = [0, 11]"] ;
1231 -> 1232 ;
1233 [label="X[0] <= 2.585\ngini = 0.455\nsamples = 20\nvalue = [7, 13]"] ;
1231 -> 1233 ;
1234 [label="X[0] <= 2.545\ngini = 0.494\nsamples = 9\nvalue = [5, 4]"] ;
1233 -> 1234 ;
1235 [label="X[0] <= 2.47\ngini = 0.49\nsamples = 7\nvalue = [3, 4]"] ;
1234 -> 1235 ;
1236 [label="gini = 0.0\nsamples = 1\nvalue = [1, 0]"] ;
1235 -> 1236 ;
1237 [label="X[0] <= 2.485\ngini = 0.444\nsamples = 6\nvalue = [2, 4]"] ;
1235 -> 1237 ;
1238 [label="gini = 0.0\nsamples = 1\nvalue = [0, 1]"] ;
1237 -> 1238 ;
1239 [label="X[0] <= 2.495\ngini = 0.48\nsamples = 5\nvalue = [2, 3]"] ;
1237 -> 1239 ;
1240 [label="gini = 0.0\nsamples = 1\nvalue = [1, 0]"] ;
1239 -> 1240 ;
1241 [label="X[0] <= 2.53\ngini = 0.375\nsamples = 4\nvalue = [1, 3]"] ;
1239 -> 1241 ;
1242 [label="gini = 0.0\nsamples = 2\nvalue = [0, 2]"] ;
1241 -> 1242 ;
1243 [label="gini = 0.5\nsamples = 2\nvalue = [1, 1]"] ;
1241 -> 1243 ;
1244 [label="gini = 0.0\nsamples = 2\nvalue = [2, 0]"] ;
1234 -> 1244 ;
1245 [label="X[0] <= 2.695\ngini = 0.298\nsamples = 11\nvalue = [2, 9]"] ;
1233 -> 1245 ;
1246 [label="gini = 0.0\nsamples = 4\nvalue = [0, 4]"] ;
1245 -> 1246 ;
1247 [label="X[0] <= 2.71\ngini = 0.408\nsamples = 7\nvalue = [2, 5]"] ;
1245 -> 1247 ;
1248 [label="gini = 0.5\nsamples = 2\nvalue = [1, 1]"] ;
1247 -> 1248 ;
1249 [label="X[0] <= 2.73\ngini = 0.32\nsamples = 5\nvalue = [1, 4]"] ;
1247 -> 1249 ;
1250 [label="gini = 0.0\nsamples = 1\nvalue = [0, 1]"] ;
1249 -> 1250 ;
1251 [label="gini = 0.375\nsamples = 4\nvalue = [1, 3]"] ;
1249 -> 1251 ;
1252 [label="gini = 0.0\nsamples = 2\nvalue = [2, 0]"] ;
1192 -> 1252 ;
1253 [label="X[0] <= 1.51\ngini = 0.266\nsamples = 19\nvalue = [3, 16]"] ;
1115 -> 1253 ;
1254 [label="gini = 0.0\nsamples = 4\nvalue = [0, 4]"] ;
1253 -> 1254 ;
