digraph Tree {
node [shape=box] ;
0 [label="X[1173] <= 0.5\ngini = 0.5\nsamples = 84796\nvalue = [42502, 42294]"] ;
1 [label="X[36] <= 0.5\ngini = 0.485\nsamples = 72295\nvalue = [42364, 29931]"] ;
0 -> 1 [labeldistance=2.5, labelangle=45, headlabel="True"] ;
2 [label="X[1136] <= 0.5\ngini = 0.462\nsamples = 66376\nvalue = [42354, 24022]"] ;
1 -> 2 ;
3 [label="X[20] <= 0.5\ngini = 0.428\nsamples = 61217\nvalue = [42262, 18955]"] ;
2 -> 3 ;
4 [label="X[1130] <= 0.5\ngini = 0.392\nsamples = 57592\nvalue = [42180, 15412]"] ;
3 -> 4 ;
5 [label="X[45] <= 0.5\ngini = 0.355\nsamples = 54162\nvalue = [41682, 12480]"] ;
4 -> 5 ;
6 [label="X[30] <= 0.5\ngini = 0.332\nsamples = 52748\nvalue = [41670, 11078]"] ;
5 -> 6 ;
7 [label="X[221] <= 0.5\ngini = 0.315\nsamples = 51693\nvalue = [41573, 10120]"] ;
6 -> 7 ;
8 [label="X[11] <= 0.5\ngini = 0.305\nsamples = 51121\nvalue = [41505, 9616]"] ;
7 -> 8 ;
9 [label="X[1185] <= 0.5\ngini = 0.296\nsamples = 50499\nvalue = [41397, 9102]"] ;
8 -> 9 ;
10 [label="X[1126] <= 0.5\ngini = 0.287\nsamples = 50003\nvalue = [41321, 8682]"] ;
9 -> 10 ;
11 [label="X[10] <= 0.5\ngini = 0.279\nsamples = 49584\nvalue = [41260, 8324]"] ;
10 -> 11 ;
12 [label="X[1161] <= 0.5\ngini = 0.255\nsamples = 44068\nvalue = [37473, 6595]"] ;
11 -> 12 ;
13 [label="X[9] <= 0.5\ngini = 0.249\nsamples = 43858\nvalue = [37463, 6395]"] ;
12 -> 13 ;
14 [label="X[1167] <= 0.5\ngini = 0.234\nsamples = 42292\nvalue = [36562, 5730]"] ;
13 -> 14 ;
15 [label="X[21] <= 0.5\ngini = 0.229\nsamples = 42114\nvalue = [36556, 5558]"] ;
14 -> 15 ;
16 [label="X[1200] <= 0.5\ngini = 0.219\nsamples = 41349\nvalue = [36179, 5170]"] ;
15 -> 16 ;
17 [label="X[1210] <= 0.5\ngini = 0.214\nsamples = 41204\nvalue = [36178, 5026]"] ;
16 -> 17 ;
18 [label="X[1205] <= 0.5\ngini = 0.209\nsamples = 41042\nvalue = [36168, 4874]"] ;
17 -> 18 ;
19 [label="X[12] <= 0.5\ngini = 0.205\nsamples = 40887\nvalue = [36156, 4731]"] ;
18 -> 19 ;
20 [label="X[1211] <= 0.5\ngini = 0.192\nsamples = 39607\nvalue = [35347, 4260]"] ;
19 -> 20 ;
21 [label="X[1137] <= 0.5\ngini = 0.189\nsamples = 39519\nvalue = [35347, 4172]"] ;
20 -> 21 ;
22 [label="X[1195] <= 0.5\ngini = 0.187\nsamples = 39461\nvalue = [35347, 4114]"] ;
21 -> 22 ;
23 [label="X[1029] <= 0.5\ngini = 0.185\nsamples = 39395\nvalue = [35343, 4052]"] ;
22 -> 23 ;
24 [label="X[1238] <= 0.5\ngini = 0.18\nsamples = 39150\nvalue = [35228, 3922]"] ;
23 -> 24 ;
25 [label="X[1265] <= 0.5\ngini = 0.178\nsamples = 39095\nvalue = [35228, 3867]"] ;
24 -> 25 ;
26 [label="X[33] <= 0.5\ngini = 0.176\nsamples = 39030\nvalue = [35220, 3810]"] ;
25 -> 26 ;
27 [label="X[1259] <= 0.5\ngini = 0.172\nsamples = 38822\nvalue = [35121, 3701]"] ;
26 -> 27 ;
28 [label="gini = 0.171\nsamples = 38784\nvalue = [35121, 3663]"] ;
27 -> 28 ;
29 [label="gini = 0.0\nsamples = 38\nvalue = [0, 38]"] ;
27 -> 29 ;
30 [label="X[1013] <= 0.5\ngini = 0.499\nsamples = 208\nvalue = [99, 109]"] ;
26 -> 30 ;
31 [label="gini = 0.494\nsamples = 197\nvalue = [88, 109]"] ;
30 -> 31 ;
32 [label="gini = 0.0\nsamples = 11\nvalue = [11, 0]"] ;
30 -> 32 ;
33 [label="X[16] <= 0.5\ngini = 0.216\nsamples = 65\nvalue = [8, 57]"] ;
25 -> 33 ;
34 [label="gini = 0.0\nsamples = 4\nvalue = [4, 0]"] ;
33 -> 34 ;
35 [label="X[1003] <= 0.5\ngini = 0.123\nsamples = 61\nvalue = [4, 57]"] ;
33 -> 35 ;
36 [label="gini = 0.034\nsamples = 58\nvalue = [1, 57]"] ;
35 -> 36 ;
37 [label="gini = 0.0\nsamples = 3\nvalue = [3, 0]"] ;
35 -> 37 ;
38 [label="gini = 0.0\nsamples = 55\nvalue = [0, 55]"] ;
24 -> 38 ;
39 [label="X[0] <= 0.27\ngini = 0.498\nsamples = 245\nvalue = [115, 130]"] ;
23 -> 39 ;
40 [label="gini = 0.0\nsamples = 33\nvalue = [0, 33]"] ;
39 -> 40 ;
41 [label="X[0] <= 1.025\ngini = 0.496\nsamples = 212\nvalue = [115, 97]"] ;
39 -> 41 ;
42 [label="X[0] <= 0.37\ngini = 0.149\nsamples = 37\nvalue = [34, 3]"] ;
41 -> 42 ;
43 [label="X[14] <= 0.5\ngini = 0.48\nsamples = 5\nvalue = [2, 3]"] ;
42 -> 43 ;
44 [label="gini = 0.375\nsamples = 4\nvalue = [1, 3]"] ;
43 -> 44 ;
45 [label="gini = 0.0\nsamples = 1\nvalue = [1, 0]"] ;
43 -> 45 ;
46 [label="gini = 0.0\nsamples = 32\nvalue = [32, 0]"] ;
42 -> 46 ;
47 [label="X[0] <= 2.565\ngini = 0.497\nsamples = 175\nvalue = [81, 94]"] ;
41 -> 47 ;
48 [label="X[19] <= 0.5\ngini = 0.474\nsamples = 153\nvalue = [59, 94]"] ;
47 -> 48 ;
49 [label="gini = 0.436\nsamples = 134\nvalue = [43, 91]"] ;
48 -> 49 ;
50 [label="gini = 0.266\nsamples = 19\nvalue = [16, 3]"] ;
48 -> 50 ;
51 [label="gini = 0.0\nsamples = 22\nvalue = [22, 0]"] ;
47 -> 51 ;
52 [label="X[16] <= 0.5\ngini = 0.114\nsamples = 66\nvalue = [4, 62]"] ;
22 -> 52 ;
53 [label="X[1008] <= 0.5\ngini = 0.031\nsamples = 63\nvalue = [1, 62]"] ;
52 -> 53 ;
54 [label="gini = 0.0\nsamples = 57\nvalue = [0, 57]"] ;
53 -> 54 ;
55 [label="X[0] <= 1.86\ngini = 0.278\nsamples = 6\nvalue = [1, 5]"] ;
53 -> 55 ;
56 [label="gini = 0.0\nsamples = 4\nvalue = [0, 4]"] ;
55 -> 56 ;
57 [label="X[0] <= 2.775\ngini = 0.5\nsamples = 2\nvalue = [1, 1]"] ;
55 -> 57 ;
58 [label="gini = 0.0\nsamples = 1\nvalue = [1, 0]"] ;
57 -> 58 ;
59 [label="gini = 0.0\nsamples = 1\nvalue = [0, 1]"] ;
57 -> 59 ;
60 [label="gini = 0.0\nsamples = 3\nvalue = [3, 0]"] ;
52 -> 60 ;
61 [label="gini = 0.0\nsamples = 58\nvalue = [0, 58]"] ;
21 -> 61 ;
62 [label="gini = 0.0\nsamples = 88\nvalue = [0, 88]"] ;
20 -> 62 ;
63 [label="X[1003] <= 0.5\ngini = 0.465\nsamples = 1280\nvalue = [809, 471]"] ;
19 -> 63 ;
64 [label="X[1009] <= 0.5\ngini = 0.439\nsamples = 948\nvalue = [640, 308]"] ;
63 -> 64 ;
65 [label="X[1211] <= 0.5\ngini = 0.379\nsamples = 582\nvalue = [434, 148]"] ;
64 -> 65 ;
66 [label="X[1007] <= 0.5\ngini = 0.363\nsamples = 570\nvalue = [434, 136]"] ;
65 -> 66 ;
67 [label="X[1012] <= 0.5\ngini = 0.338\nsamples = 502\nvalue = [394, 108]"] ;
66 -> 67 ;
68 [label="X[1008] <= 0.5\ngini = 0.302\nsamples = 437\nvalue = [356, 81]"] ;
67 -> 68 ;
69 [label="X[0] <= 2.705\ngini = 0.278\nsamples = 384\nvalue = [320, 64]"] ;
68 -> 69 ;
70 [label="X[0] <= 2.65\ngini = 0.3\nsamples = 327\nvalue = [267, 60]"] ;
69 -> 70 ;
71 [label="gini = 0.289\nsamples = 320\nvalue = [264, 56]"] ;
70 -> 71 ;
72 [label="gini = 0.49\nsamples = 7\nvalue = [3, 4]"] ;
70 -> 72 ;
73 [label="X[999] <= 0.5\ngini = 0.131\nsamples = 57\nvalue = [53, 4]"] ;
69 -> 73 ;
74 [label="gini = 0.071\nsamples = 54\nvalue = [52, 2]"] ;
73 -> 74 ;
75 [label="gini = 0.444\nsamples = 3\nvalue = [1, 2]"] ;
73 -> 75 ;
76 [label="X[1279] <= 0.5\ngini = 0.436\nsamples = 53\nvalue = [36, 17]"] ;
68 -> 76 ;
77 [label="X[1175] <= 0.5\ngini = 0.466\nsamples = 46\nvalue = [29, 17]"] ;
76 -> 77 ;
78 [label="gini = 0.494\nsamples = 36\nvalue = [20, 16]"] ;
77 -> 78 ;
79 [label="gini = 0.18\nsamples = 10\nvalue = [9, 1]"] ;
77 -> 79 ;
80 [label="gini = 0.0\nsamples = 7\nvalue = [7, 0]"] ;
76 -> 80 ;
81 [label="X[1270] <= 0.5\ngini = 0.486\nsamples = 65\nvalue = [38, 27]"] ;
67 -> 81 ;
82 [label="X[1207] <= 0.5\ngini = 0.473\nsamples = 60\nvalue = [37, 23]"] ;
81 -> 82 ;
83 [label="X[1222] <= 0.5\ngini = 0.456\nsamples = 54\nvalue = [35, 19]"] ;
82 -> 83 ;
84 [label="gini = 0.449\nsamples = 53\nvalue = [35, 18]"] ;
83 -> 84 ;
85 [label="gini = 0.0\nsamples = 1\nvalue = [0, 1]"] ;
83 -> 85 ;
86 [label="X[0] <= 2.235\ngini = 0.444\nsamples = 6\nvalue = [2, 4]"] ;
82 -> 86 ;
87 [label="gini = 0.5\nsamples = 4\nvalue = [2, 2]"] ;
86 -> 87 ;
88 [label="gini = 0.0\nsamples = 2\nvalue = [0, 2]"] ;
86 -> 88 ;
89 [label="X[0] <= 2.745\ngini = 0.32\nsamples = 5\nvalue = [1, 4]"] ;
81 -> 89 ;
90 [label="gini = 0.0\nsamples = 4\nvalue = [0, 4]"] ;
89 -> 90 ;
91 [label="gini = 0.0\nsamples = 1\nvalue = [1, 0]"] ;
89 -> 91 ;
92 [label="X[0] <= 0.325\ngini = 0.484\nsamples = 68\nvalue = [40, 28]"] ;
66 -> 92 ;
93 [label="gini = 0.0\nsamples = 5\nvalue = [0, 5]"] ;
92 -> 93 ;
94 [label="X[1207] <= 0.5\ngini = 0.464\nsamples = 63\nvalue = [40, 23]"] ;
92 -> 94 ;
95 [label="X[0] <= 0.71\ngini = 0.488\nsamples = 52\nvalue = [30, 22]"] ;
94 -> 95 ;
96 [label="X[0] <= 0.365\ngini = 0.469\nsamples = 8\nvalue = [3, 5]"] ;
95 -> 96 ;
97 [label="gini = 0.0\nsamples = 1\nvalue = [1, 0]"] ;
96 -> 97 ;
98 [label="gini = 0.408\nsamples = 7\nvalue = [2, 5]"] ;
96 -> 98 ;
99 [label="X[0] <= 1.37\ngini = 0.474\nsamples = 44\nvalue = [27, 17]"] ;
95 -> 99 ;
100 [label="gini = 0.0\nsamples = 6\nvalue = [6, 0]"] ;
99 -> 100 ;
101 [label="gini = 0.494\nsamples = 38\nvalue = [21, 17]"] ;
99 -> 101 ;
102 [label="X[0] <= 2.425\ngini = 0.165\nsamples = 11\nvalue = [10, 1]"] ;
94 -> 102 ;
103 [label="gini = 0.0\nsamples = 8\nvalue = [8, 0]"] ;
102 -> 103 ;
104 [label="X[0] <= 2.595\ngini = 0.444\nsamples = 3\nvalue = [2, 1]"] ;
102 -> 104 ;
105 [label="gini = 0.0\nsamples = 1\nvalue = [0, 1]"] ;
104 -> 105 ;
106 [label="gini = 0.0\nsamples = 2\nvalue = [2, 0]"] ;
104 -> 106 ;
107 [label="gini = 0.0\nsamples = 12\nvalue = [0, 12]"] ;
65 -> 107 ;
108 [label="X[0] <= 2.945\ngini = 0.492\nsamples = 366\nvalue = [206, 160]"] ;
64 -> 108 ;
109 [label="X[0] <= 2.925\ngini = 0.494\nsamples = 359\nvalue = [199, 160]"] ;
108 -> 109 ;
110 [label="X[0] <= 2.67\ngini = 0.493\nsamples = 356\nvalue = [199, 157]"] ;
109 -> 110 ;
111 [label="X[0] <= 2.435\ngini = 0.497\nsamples = 314\nvalue = [170, 144]"] ;
110 -> 111 ;
112 [label="X[0] <= 1.645\ngini = 0.49\nsamples = 268\nvalue = [153, 115]"] ;
111 -> 112 ;
113 [label="X[1162] <= 0.5\ngini = 0.498\nsamples = 182\nvalue = [97, 85]"] ;
112 -> 113 ;
114 [label="gini = 0.5\nsamples = 164\nvalue = [84, 80]"] ;
113 -> 114 ;
115 [label="gini = 0.401\nsamples = 18\nvalue = [13, 5]"] ;
113 -> 115 ;
116 [label="X[1279] <= 0.5\ngini = 0.454\nsamples = 86\nvalue = [56, 30]"] ;
112 -> 116 ;
117 [label="gini = 0.48\nsamples = 75\nvalue = [45, 30]"] ;
116 -> 117 ;
118 [label="gini = 0.0\nsamples = 11\nvalue = [11, 0]"] ;
116 -> 118 ;
119 [label="X[1275] <= 0.5\ngini = 0.466\nsamples = 46\nvalue = [17, 29]"] ;
111 -> 119 ;
120 [label="X[1162] <= 0.5\ngini = 0.444\nsamples = 42\nvalue = [14, 28]"] ;
119 -> 120 ;
121 [label="gini = 0.433\nsamples = 41\nvalue = [13, 28]"] ;
120 -> 121 ;
122 [label="gini = 0.0\nsamples = 1\nvalue = [1, 0]"] ;
120 -> 122 ;
123 [label="X[0] <= 2.65\ngini = 0.375\nsamples = 4\nvalue = [3, 1]"] ;
119 -> 123 ;
124 [label="gini = 0.0\nsamples = 3\nvalue = [3, 0]"] ;
123 -> 124 ;
125 [label="gini = 0.0\nsamples = 1\nvalue = [0, 1]"] ;
123 -> 125 ;
126 [label="X[0] <= 2.875\ngini = 0.427\nsamples = 42\nvalue = [29, 13]"] ;
110 -> 126 ;
127 [label="X[0] <= 2.865\ngini = 0.45\nsamples = 38\nvalue = [25, 13]"] ;
126 -> 127 ;
128 [label="X[1204] <= 0.5\ngini = 0.438\nsamples = 37\nvalue = [25, 12]"] ;
127 -> 128 ;
129 [label="gini = 0.384\nsamples = 27\nvalue = [20, 7]"] ;
128 -> 129 ;
130 [label="gini = 0.5\nsamples = 10\nvalue = [5, 5]"] ;
128 -> 130 ;
131 [label="gini = 0.0\nsamples = 1\nvalue = [0, 1]"] ;
127 -> 131 ;
132 [label="gini = 0.0\nsamples = 4\nvalue = [4, 0]"] ;
126 -> 132 ;
133 [label="gini = 0.0\nsamples = 3\nvalue = [0, 3]"] ;
109 -> 133 ;
134 [label="gini = 0.0\nsamples = 7\nvalue = [7, 0]"] ;
108 -> 134 ;
135 [label="X[0] <= 2.945\ngini = 0.5\nsamples = 332\nvalue = [169, 163]"] ;
63 -> 135 ;
136 [label="X[0] <= 0.825\ngini = 0.5\nsamples = 326\nvalue = [163, 163]"] ;
135 -> 136 ;
137 [label="X[0] <= 0.305\ngini = 0.478\nsamples = 76\nvalue = [30, 46]"] ;
136 -> 137 ;
138 [label="X[0] <= 0.055\ngini = 0.463\nsamples = 11\nvalue = [7, 4]"] ;
137 -> 138 ;
139 [label="gini = 0.0\nsamples = 2\nvalue = [0, 2]"] ;
138 -> 139 ;
140 [label="X[1143] <= 0.5\ngini = 0.346\nsamples = 9\nvalue = [7, 2]"] ;
138 -> 140 ;
141 [label="X[1207] <= 0.5\ngini = 0.219\nsamples = 8\nvalue = [7, 1]"] ;
140 -> 141 ;
142 [label="gini = 0.0\nsamples = 6\nvalue = [6, 0]"] ;
141 -> 142 ;
143 [label="X[0] <= 0.24\ngini = 0.5\nsamples = 2\nvalue = [1, 1]"] ;
141 -> 143 ;
144 [label="gini = 0.0\nsamples = 1\nvalue = [0, 1]"] ;
143 -> 144 ;
145 [label="gini = 0.0\nsamples = 1\nvalue = [1, 0]"] ;
143 -> 145 ;
146 [label="gini = 0.0\nsamples = 1\nvalue = [0, 1]"] ;
140 -> 146 ;
147 [label="X[0] <= 0.355\ngini = 0.457\nsamples = 65\nvalue = [23, 42]"] ;
137 -> 147 ;
148 [label="gini = 0.0\nsamples = 5\nvalue = [0, 5]"] ;
147 -> 148 ;
149 [label="X[0] <= 0.595\ngini = 0.473\nsamples = 60\nvalue = [23, 37]"] ;
147 -> 149 ;
150 [label="X[0] <= 0.475\ngini = 0.498\nsamples = 36\nvalue = [17, 19]"] ;
149 -> 150 ;
151 [label="X[0] <= 0.38\ngini = 0.43\nsamples = 16\nvalue = [5, 11]"] ;
150 -> 151 ;
152 [label="gini = 0.375\nsamples = 4\nvalue = [3, 1]"] ;
151 -> 152 ;
153 [label="gini = 0.278\nsamples = 12\nvalue = [2, 10]"] ;
151 -> 153 ;
154 [label="X[0] <= 0.53\ngini = 0.48\nsamples = 20\nvalue = [12, 8]"] ;
150 -> 154 ;
155 [label="gini = 0.346\nsamples = 9\nvalue = [7, 2]"] ;
154 -> 155 ;
156 [label="gini = 0.496\nsamples = 11\nvalue = [5, 6]"] ;
154 -> 156 ;
157 [label="X[1270] <= 0.5\ngini = 0.375\nsamples = 24\nvalue = [6, 18]"] ;
149 -> 157 ;
158 [label="X[1207] <= 0.5\ngini = 0.34\nsamples = 23\nvalue = [5, 18]"] ;
157 -> 158 ;
159 [label="gini = 0.219\nsamples = 16\nvalue = [2, 14]"] ;
158 -> 159 ;
160 [label="gini = 0.49\nsamples = 7\nvalue = [3, 4]"] ;
158 -> 160 ;
161 [label="gini = 0.0\nsamples = 1\nvalue = [1, 0]"] ;
157 -> 161 ;
162 [label="X[0] <= 0.975\ngini = 0.498\nsamples = 250\nvalue = [133, 117]"] ;
136 -> 162 ;
163 [label="gini = 0.0\nsamples = 14\nvalue = [14, 0]"] ;
162 -> 163 ;
164 [label="X[0] <= 1.425\ngini = 0.5\nsamples = 236\nvalue = [119, 117]"] ;
162 -> 164 ;
165 [label="X[1204] <= 0.5\ngini = 0.42\nsamples = 30\nvalue = [9, 21]"] ;
164 -> 165 ;
166 [label="X[0] <= 1.03\ngini = 0.266\nsamples = 19\nvalue = [3, 16]"] ;
165 -> 166 ;
167 [label="X[0] <= 0.99\ngini = 0.444\nsamples = 3\nvalue = [2, 1]"] ;
166 -> 167 ;
168 [label="gini = 0.0\nsamples = 1\nvalue = [0, 1]"] ;
167 -> 168 ;
169 [label="gini = 0.0\nsamples = 2\nvalue = [2, 0]"] ;
167 -> 169 ;
170 [label="X[1270] <= 0.5\ngini = 0.117\nsamples = 16\nvalue = [1, 15]"] ;
166 -> 170 ;
171 [label="gini = 0.0\nsamples = 14\nvalue = [0, 14]"] ;
170 -> 171 ;
172 [label="gini = 0.5\nsamples = 2\nvalue = [1, 1]"] ;
170 -> 172 ;
173 [label="X[0] <= 1.385\ngini = 0.496\nsamples = 11\nvalue = [6, 5]"] ;
165 -> 173 ;
174 [label="X[0] <= 1.31\ngini = 0.494\nsamples = 9\nvalue = [4, 5]"] ;
173 -> 174 ;
175 [label="gini = 0.375\nsamples = 4\nvalue = [3, 1]"] ;
174 -> 175 ;
176 [label="gini = 0.32\nsamples = 5\nvalue = [1, 4]"] ;
174 -> 176 ;
177 [label="gini = 0.0\nsamples = 2\nvalue = [2, 0]"] ;
173 -> 177 ;
178 [label="X[0] <= 1.475\ngini = 0.498\nsamples = 206\nvalue = [110, 96]"] ;
164 -> 178 ;
179 [label="gini = 0.0\nsamples = 7\nvalue = [7, 0]"] ;
178 -> 179 ;
180 [label="X[1175] <= 0.5\ngini = 0.499\nsamples = 199\nvalue = [103, 96]"] ;
178 -> 180 ;
181 [label="X[0] <= 1.82\ngini = 0.5\nsamples = 182\nvalue = [90, 92]"] ;
180 -> 181 ;
182 [label="gini = 0.462\nsamples = 47\nvalue = [17, 30]"] ;
181 -> 182 ;
183 [label="gini = 0.497\nsamples = 135\nvalue = [73, 62]"] ;
181 -> 183 ;
184 [label="X[0] <= 2.92\ngini = 0.36\nsamples = 17\nvalue = [13, 4]"] ;
180 -> 184 ;
185 [label="gini = 0.305\nsamples = 16\nvalue = [13, 3]"] ;
184 -> 185 ;
186 [label="gini = 0.0\nsamples = 1\nvalue = [0, 1]"] ;
184 -> 186 ;
187 [label="gini = 0.0\nsamples = 6\nvalue = [6, 0]"] ;
135 -> 187 ;
188 [label="X[120] <= 0.5\ngini = 0.143\nsamples = 155\nvalue = [12, 143]"] ;
18 -> 188 ;
189 [label="X[288] <= 0.5\ngini = 0.296\nsamples = 61\nvalue = [11, 50]"] ;
188 -> 189 ;
190 [label="X[254] <= 0.5\ngini = 0.278\nsamples = 60\nvalue = [10, 50]"] ;
189 -> 190 ;
191 [label="X[884] <= 0.5\ngini = 0.259\nsamples = 59\nvalue = [9, 50]"] ;
190 -> 191 ;
192 [label="X[1074] <= 0.5\ngini = 0.238\nsamples = 58\nvalue = [8, 50]"] ;
191 -> 192 ;
193 [label="X[311] <= 0.5\ngini = 0.215\nsamples = 57\nvalue = [7, 50]"] ;
192 -> 193 ;
194 [label="X[252] <= 0.5\ngini = 0.191\nsamples = 56\nvalue = [6, 50]"] ;
193 -> 194 ;
195 [label="X[226] <= 0.5\ngini = 0.165\nsamples = 55\nvalue = [5, 50]"] ;
194 -> 195 ;
196 [label="X[530] <= 0.5\ngini = 0.137\nsamples = 54\nvalue = [4, 50]"] ;
195 -> 196 ;
197 [label="gini = 0.107\nsamples = 53\nvalue = [3, 50]"] ;
196 -> 197 ;
198 [label="gini = 0.0\nsamples = 1\nvalue = [1, 0]"] ;
196 -> 198 ;
199 [label="gini = 0.0\nsamples = 1\nvalue = [1, 0]"] ;
195 -> 199 ;
200 [label="gini = 0.0\nsamples = 1\nvalue = [1, 0]"] ;
194 -> 200 ;
201 [label="gini = 0.0\nsamples = 1\nvalue = [1, 0]"] ;
193 -> 201 ;
202 [label="gini = 0.0\nsamples = 1\nvalue = [1, 0]"] ;
192 -> 202 ;
203 [label="gini = 0.0\nsamples = 1\nvalue = [1, 0]"] ;
191 -> 203 ;
204 [label="gini = 0.0\nsamples = 1\nvalue = [1, 0]"] ;
190 -> 204 ;
205 [label="gini = 0.0\nsamples = 1\nvalue = [1, 0]"] ;
189 -> 205 ;
206 [label="X[793] <= 0.5\ngini = 0.021\nsamples = 94\nvalue = [1, 93]"] ;
188 -> 206 ;
207 [label="gini = 0.0\nsamples = 93\nvalue = [0, 93]"] ;
206 -> 207 ;
208 [label="gini = 0.0\nsamples = 1\nvalue = [1, 0]"] ;
206 -> 208 ;
209 [label="X[158] <= 0.5\ngini = 0.116\nsamples = 162\nvalue = [10, 152]"] ;
17 -> 209 ;
210 [label="X[1005] <= 0.5\ngini = 0.073\nsamples = 158\nvalue = [6, 152]"] ;
209 -> 210 ;
211 [label="X[1015] <= 0.5\ngini = 0.062\nsamples = 156\nvalue = [5, 151]"] ;
210 -> 211 ;
212 [label="X[1003] <= 0.5\ngini = 0.051\nsamples = 154\nvalue = [4, 150]"] ;
211 -> 212 ;
213 [label="X[1029] <= 0.5\ngini = 0.017\nsamples = 119\nvalue = [1, 118]"] ;
212 -> 213 ;
214 [label="gini = 0.0\nsamples = 113\nvalue = [0, 113]"] ;
213 -> 214 ;
215 [label="X[0] <= 2.12\ngini = 0.278\nsamples = 6\nvalue = [1, 5]"] ;
213 -> 215 ;
216 [label="gini = 0.0\nsamples = 5\nvalue = [0, 5]"] ;
215 -> 216 ;
217 [label="gini = 0.0\nsamples = 1\nvalue = [1, 0]"] ;
215 -> 217 ;
218 [label="X[43] <= 0.5\ngini = 0.157\nsamples = 35\nvalue = [3, 32]"] ;
212 -> 218 ;
219 [label="gini = 0.0\nsamples = 1\nvalue = [1, 0]"] ;
218 -> 219 ;
220 [label="X[0] <= 1.13\ngini = 0.111\nsamples = 34\nvalue = [2, 32]"] ;
218 -> 220 ;
221 [label="X[0] <= 0.835\ngini = 0.219\nsamples = 16\nvalue = [2, 14]"] ;
220 -> 221 ;
222 [label="gini = 0.0\nsamples = 14\nvalue = [0, 14]"] ;
221 -> 222 ;
223 [label="gini = 0.0\nsamples = 2\nvalue = [2, 0]"] ;
221 -> 223 ;
224 [label="gini = 0.0\nsamples = 18\nvalue = [0, 18]"] ;
220 -> 224 ;
225 [label="X[0] <= 0.695\ngini = 0.5\nsamples = 2\nvalue = [1, 1]"] ;
211 -> 225 ;
226 [label="gini = 0.0\nsamples = 1\nvalue = [0, 1]"] ;
225 -> 226 ;
227 [label="gini = 0.0\nsamples = 1\nvalue = [1, 0]"] ;
225 -> 227 ;
228 [label="X[0] <= 1.09\ngini = 0.5\nsamples = 2\nvalue = [1, 1]"] ;
210 -> 228 ;
229 [label="gini = 0.0\nsamples = 1\nvalue = [0, 1]"] ;
228 -> 229 ;
230 [label="gini = 0.0\nsamples = 1\nvalue = [1, 0]"] ;
228 -> 230 ;
231 [label="gini = 0.0\nsamples = 4\nvalue = [4, 0]"] ;
209 -> 231 ;
232 [label="X[600] <= 0.5\ngini = 0.014\nsamples = 145\nvalue = [1, 144]"] ;
16 -> 232 ;
233 [label="gini = 0.0\nsamples = 144\nvalue = [0, 144]"] ;
232 -> 233 ;
234 [label="gini = 0.0\nsamples = 1\nvalue = [1, 0]"] ;
232 -> 234 ;
235 [label="X[1190] <= 0.5\ngini = 0.5\nsamples = 765\nvalue = [377, 388]"] ;
15 -> 235 ;
236 [label="X[1009] <= 0.5\ngini = 0.434\nsamples = 346\nvalue = [110, 236]"] ;
235 -> 236 ;
237 [label="X[0] <= 2.98\ngini = 0.471\nsamples = 226\nvalue = [86, 140]"] ;
236 -> 237 ;
238 [label="X[1003] <= 0.5\ngini = 0.467\nsamples = 223\nvalue = [83, 140]"] ;
237 -> 238 ;
239 [label="X[992] <= 0.5\ngini = 0.49\nsamples = 119\nvalue = [51, 68]"] ;
238 -> 239 ;
240 [label="X[1240] <= 0.5\ngini = 0.487\nsamples = 117\nvalue = [49, 68]"] ;
239 -> 240 ;
241 [label="X[0] <= 2.89\ngini = 0.49\nsamples = 114\nvalue = [49, 65]"] ;
240 -> 241 ;
242 [label="X[0] <= 2.855\ngini = 0.493\nsamples = 111\nvalue = [49, 62]"] ;
241 -> 242 ;
243 [label="X[0] <= 2.095\ngini = 0.487\nsamples = 107\nvalue = [45, 62]"] ;
242 -> 243 ;
244 [label="X[1007] <= 0.5\ngini = 0.499\nsamples = 69\nvalue = [33, 36]"] ;
243 -> 244 ;
245 [label="X[1000] <= 0.5\ngini = 0.499\nsamples = 59\nvalue = [31, 28]"] ;
244 -> 245 ;
246 [label="X[1008] <= 0.5\ngini = 0.494\nsamples = 56\nvalue = [31, 25]"] ;
245 -> 246 ;
247 [label="gini = 0.47\nsamples = 45\nvalue = [28, 17]"] ;
246 -> 247 ;
248 [label="gini = 0.397\nsamples = 11\nvalue = [3, 8]"] ;
246 -> 248 ;
249 [label="gini = 0.0\nsamples = 3\nvalue = [0, 3]"] ;
245 -> 249 ;
250 [label="X[0] <= 0.77\ngini = 0.32\nsamples = 10\nvalue = [2, 8]"] ;
244 -> 250 ;
251 [label="X[0] <= 0.64\ngini = 0.5\nsamples = 4\nvalue = [2, 2]"] ;
250 -> 251 ;
252 [label="gini = 0.0\nsamples = 2\nvalue = [0, 2]"] ;
251 -> 252 ;
253 [label="gini = 0.0\nsamples = 2\nvalue = [2, 0]"] ;
251 -> 253 ;
254 [label="gini = 0.0\nsamples = 6\nvalue = [0, 6]"] ;
250 -> 254 ;
255 [label="X[1007] <= 0.5\ngini = 0.432\nsamples = 38\nvalue = [12, 26]"] ;
243 -> 255 ;
256 [label="X[1008] <= 0.5\ngini = 0.382\nsamples = 35\nvalue = [9, 26]"] ;
255 -> 256 ;
257 [label="X[993] <= 0.5\ngini = 0.328\nsamples = 29\nvalue = [6, 23]"] ;
256 -> 257 ;
258 [label="gini = 0.269\nsamples = 25\nvalue = [4, 21]"] ;
257 -> 258 ;
259 [label="gini = 0.5\nsamples = 4\nvalue = [2, 2]"] ;
257 -> 259 ;
260 [label="X[0] <= 2.585\ngini = 0.5\nsamples = 6\nvalue = [3, 3]"] ;
256 -> 260 ;
261 [label="gini = 0.375\nsamples = 4\nvalue = [1, 3]"] ;
260 -> 261 ;
262 [label="gini = 0.0\nsamples = 2\nvalue = [2, 0]"] ;
260 -> 262 ;
263 [label="gini = 0.0\nsamples = 3\nvalue = [3, 0]"] ;
255 -> 263 ;
264 [label="gini = 0.0\nsamples = 4\nvalue = [4, 0]"] ;
242 -> 264 ;
265 [label="gini = 0.0\nsamples = 3\nvalue = [0, 3]"] ;
241 -> 265 ;
266 [label="gini = 0.0\nsamples = 3\nvalue = [0, 3]"] ;
240 -> 266 ;
267 [label="gini = 0.0\nsamples = 2\nvalue = [2, 0]"] ;
239 -> 267 ;
268 [label="X[0] <= 0.935\ngini = 0.426\nsamples = 104\nvalue = [32, 72]"] ;
238 -> 268 ;
269 [label="X[0] <= 0.36\ngini = 0.302\nsamples = 27\nvalue = [5, 22]"] ;
268 -> 269 ;
270 [label="X[0] <= 0.325\ngini = 0.48\nsamples = 5\nvalue = [3, 2]"] ;
269 -> 270 ;
271 [label="X[0] <= 0.205\ngini = 0.444\nsamples = 3\nvalue = [1, 2]"] ;
270 -> 271 ;
272 [label="gini = 0.0\nsamples = 1\nvalue = [1, 0]"] ;
271 -> 272 ;
273 [label="gini = 0.0\nsamples = 2\nvalue = [0, 2]"] ;
271 -> 273 ;
274 [label="gini = 0.0\nsamples = 2\nvalue = [2, 0]"] ;
270 -> 274 ;
275 [label="X[0] <= 0.48\ngini = 0.165\nsamples = 22\nvalue = [2, 20]"] ;
269 -> 275 ;
276 [label="gini = 0.0\nsamples = 9\nvalue = [0, 9]"] ;
275 -> 276 ;
277 [label="X[0] <= 0.55\ngini = 0.26\nsamples = 13\nvalue = [2, 11]"] ;
275 -> 277 ;
278 [label="X[0] <= 0.52\ngini = 0.5\nsamples = 4\nvalue = [2, 2]"] ;
277 -> 278 ;
279 [label="X[0] <= 0.495\ngini = 0.444\nsamples = 3\nvalue = [1, 2]"] ;
278 -> 279 ;
280 [label="gini = 0.5\nsamples = 2\nvalue = [1, 1]"] ;
279 -> 280 ;
281 [label="gini = 0.0\nsamples = 1\nvalue = [0, 1]"] ;
279 -> 281 ;
282 [label="gini = 0.0\nsamples = 1\nvalue = [1, 0]"] ;
278 -> 282 ;
283 [label="gini = 0.0\nsamples = 9\nvalue = [0, 9]"] ;
277 -> 283 ;
284 [label="X[0] <= 1.21\ngini = 0.455\nsamples = 77\nvalue = [27, 50]"] ;
268 -> 284 ;
285 [label="gini = 0.0\nsamples = 5\nvalue = [5, 0]"] ;
284 -> 285 ;
286 [label="X[0] <= 2.015\ngini = 0.424\nsamples = 72\nvalue = [22, 50]"] ;
284 -> 286 ;
287 [label="X[0] <= 1.845\ngini = 0.472\nsamples = 34\nvalue = [13, 21]"] ;
286 -> 287 ;
288 [label="X[0] <= 1.49\ngini = 0.428\nsamples = 29\nvalue = [9, 20]"] ;
287 -> 288 ;
289 [label="X[0] <= 1.415\ngini = 0.219\nsamples = 8\nvalue = [1, 7]"] ;
288 -> 289 ;
290 [label="X[0] <= 1.39\ngini = 0.375\nsamples = 4\nvalue = [1, 3]"] ;
289 -> 290 ;
291 [label="gini = 0.0\nsamples = 3\nvalue = [0, 3]"] ;
290 -> 291 ;
292 [label="gini = 0.0\nsamples = 1\nvalue = [1, 0]"] ;
290 -> 292 ;
293 [label="gini = 0.0\nsamples = 4\nvalue = [0, 4]"] ;
289 -> 293 ;
294 [label="X[0] <= 1.595\ngini = 0.472\nsamples = 21\nvalue = [8, 13]"] ;
288 -> 294 ;
295 [label="X[0] <= 1.575\ngini = 0.444\nsamples = 6\nvalue = [4, 2]"] ;
294 -> 295 ;
296 [label="X[0] <= 1.505\ngini = 0.48\nsamples = 5\nvalue = [3, 2]"] ;
295 -> 296 ;
297 [label="gini = 0.5\nsamples = 2\nvalue = [1, 1]"] ;
296 -> 297 ;
298 [label="gini = 0.444\nsamples = 3\nvalue = [2, 1]"] ;
296 -> 298 ;
299 [label="gini = 0.0\nsamples = 1\nvalue = [1, 0]"] ;
295 -> 299 ;
300 [label="X[0] <= 1.645\ngini = 0.391\nsamples = 15\nvalue = [4, 11]"] ;
294 -> 300 ;
301 [label="gini = 0.0\nsamples = 2\nvalue = [0, 2]"] ;
300 -> 301 ;
302 [label="X[0] <= 1.695\ngini = 0.426\nsamples = 13\nvalue = [4, 9]"] ;
300 -> 302 ;
303 [label="gini = 0.5\nsamples = 4\nvalue = [2, 2]"] ;
302 -> 303 ;
304 [label="gini = 0.346\nsamples = 9\nvalue = [2, 7]"] ;
302 -> 304 ;
305 [label="X[0] <= 1.915\ngini = 0.32\nsamples = 5\nvalue = [4, 1]"] ;
287 -> 305 ;
306 [label="gini = 0.0\nsamples = 2\nvalue = [2, 0]"] ;
305 -> 306 ;
307 [label="X[0] <= 1.96\ngini = 0.444\nsamples = 3\nvalue = [2, 1]"] ;
305 -> 307 ;
308 [label="gini = 0.5\nsamples = 2\nvalue = [1, 1]"] ;
307 -> 308 ;
309 [label="gini = 0.0\nsamples = 1\nvalue = [1, 0]"] ;
307 -> 309 ;
310 [label="X[0] <= 2.31\ngini = 0.361\nsamples = 38\nvalue = [9, 29]"] ;
286 -> 310 ;
311 [label="gini = 0.0\nsamples = 7\nvalue = [0, 7]"] ;
310 -> 311 ;
312 [label="X[0] <= 2.355\ngini = 0.412\nsamples = 31\nvalue = [9, 22]"] ;
310 -> 312 ;
313 [label="X[0] <= 2.345\ngini = 0.5\nsamples = 4\nvalue = [2, 2]"] ;
312 -> 313 ;
314 [label="X[0] <= 2.335\ngini = 0.444\nsamples = 3\nvalue = [1, 2]"] ;
313 -> 314 ;
315 [label="gini = 0.5\nsamples = 2\nvalue = [1, 1]"] ;
314 -> 315 ;
316 [label="gini = 0.0\nsamples = 1\nvalue = [0, 1]"] ;
314 -> 316 ;
317 [label="gini = 0.0\nsamples = 1\nvalue = [1, 0]"] ;
313 -> 317 ;
318 [label="X[0] <= 2.395\ngini = 0.384\nsamples = 27\nvalue = [7, 20]"] ;
312 -> 318 ;
319 [label="gini = 0.0\nsamples = 4\nvalue = [0, 4]"] ;
318 -> 319 ;
320 [label="X[0] <= 2.405\ngini = 0.423\nsamples = 23\nvalue = [7, 16]"] ;
318 -> 320 ;
321 [label="gini = 0.0\nsamples = 1\nvalue = [1, 0]"] ;
320 -> 321 ;
322 [label="X[0] <= 2.53\ngini = 0.397\nsamples = 22\nvalue = [6, 16]"] ;
320 -> 322 ;
323 [label="gini = 0.219\nsamples = 8\nvalue = [1, 7]"] ;
322 -> 323 ;
324 [label="gini = 0.459\nsamples = 14\nvalue = [5, 9]"] ;
322 -> 324 ;
325 [label="gini = 0.0\nsamples = 3\nvalue = [3, 0]"] ;
237 -> 325 ;
326 [label="X[0] <= 2.935\ngini = 0.32\nsamples = 120\nvalue = [24, 96]"] ;
236 -> 326 ;
327 [label="X[0] <= 0.325\ngini = 0.305\nsamples = 117\nvalue = [22, 95]"] ;
326 -> 327 ;
328 [label="X[0] <= 0.2\ngini = 0.5\nsamples = 4\nvalue = [2, 2]"] ;
327 -> 328 ;
329 [label="gini = 0.0\nsamples = 1\nvalue = [0, 1]"] ;
328 -> 329 ;
330 [label="X[0] <= 0.29\ngini = 0.444\nsamples = 3\nvalue = [2, 1]"] ;
328 -> 330 ;
331 [label="gini = 0.0\nsamples = 1\nvalue = [1, 0]"] ;
330 -> 331 ;
332 [label="X[0] <= 0.305\ngini = 0.5\nsamples = 2\nvalue = [1, 1]"] ;
330 -> 332 ;
333 [label="gini = 0.0\nsamples = 1\nvalue = [0, 1]"] ;
332 -> 333 ;
334 [label="gini = 0.0\nsamples = 1\nvalue = [1, 0]"] ;
332 -> 334 ;
335 [label="X[0] <= 1.415\ngini = 0.291\nsamples = 113\nvalue = [20, 93]"] ;
327 -> 335 ;
336 [label="X[0] <= 0.5\ngini = 0.198\nsamples = 45\nvalue = [5, 40]"] ;
335 -> 336 ;
337 [label="X[0] <= 0.46\ngini = 0.32\nsamples = 15\nvalue = [3, 12]"] ;
336 -> 337 ;
338 [label="X[0] <= 0.39\ngini = 0.142\nsamples = 13\nvalue = [1, 12]"] ;
337 -> 338 ;
339 [label="gini = 0.0\nsamples = 8\nvalue = [0, 8]"] ;
338 -> 339 ;
340 [label="X[0] <= 0.405\ngini = 0.32\nsamples = 5\nvalue = [1, 4]"] ;
338 -> 340 ;
341 [label="gini = 0.5\nsamples = 2\nvalue = [1, 1]"] ;
340 -> 341 ;
342 [label="gini = 0.0\nsamples = 3\nvalue = [0, 3]"] ;
340 -> 342 ;
343 [label="gini = 0.0\nsamples = 2\nvalue = [2, 0]"] ;
337 -> 343 ;
344 [label="X[0] <= 1.31\ngini = 0.124\nsamples = 30\nvalue = [2, 28]"] ;
336 -> 344 ;
345 [label="X[0] <= 0.825\ngini = 0.083\nsamples = 23\nvalue = [1, 22]"] ;
344 -> 345 ;
346 [label="X[0] <= 0.815\ngini = 0.165\nsamples = 11\nvalue = [1, 10]"] ;
345 -> 346 ;
347 [label="gini = 0.0\nsamples = 8\nvalue = [0, 8]"] ;
346 -> 347 ;
348 [label="gini = 0.444\nsamples = 3\nvalue = [1, 2]"] ;
346 -> 348 ;
349 [label="gini = 0.0\nsamples = 12\nvalue = [0, 12]"] ;
345 -> 349 ;
350 [label="X[0] <= 1.335\ngini = 0.245\nsamples = 7\nvalue = [1, 6]"] ;
344 -> 350 ;
351 [label="gini = 0.0\nsamples = 1\nvalue = [1, 0]"] ;
350 -> 351 ;
352 [label="gini = 0.0\nsamples = 6\nvalue = [0, 6]"] ;
350 -> 352 ;
353 [label="X[0] <= 1.425\ngini = 0.344\nsamples = 68\nvalue = [15, 53]"] ;
335 -> 353 ;
354 [label="gini = 0.0\nsamples = 2\nvalue = [2, 0]"] ;
353 -> 354 ;
355 [label="X[0] <= 2.565\ngini = 0.316\nsamples = 66\nvalue = [13, 53]"] ;
353 -> 355 ;
356 [label="X[0] <= 2.335\ngini = 0.282\nsamples = 53\nvalue = [9, 44]"] ;
355 -> 356 ;
357 [label="X[0] <= 2.32\ngini = 0.346\nsamples = 36\nvalue = [8, 28]"] ;
356 -> 357 ;
358 [label="X[0] <= 1.995\ngini = 0.327\nsamples = 34\nvalue = [7, 27]"] ;
357 -> 358 ;
359 [label="X[0] <= 1.95\ngini = 0.358\nsamples = 30\nvalue = [7, 23]"] ;
358 -> 359 ;
360 [label="X[0] <= 1.825\ngini = 0.328\nsamples = 29\nvalue = [6, 23]"] ;
359 -> 360 ;
361 [label="gini = 0.375\nsamples = 20\nvalue = [5, 15]"] ;
360 -> 361 ;
362 [label="gini = 0.198\nsamples = 9\nvalue = [1, 8]"] ;
360 -> 362 ;
363 [label="gini = 0.0\nsamples = 1\nvalue = [1, 0]"] ;
359 -> 363 ;
364 [label="gini = 0.0\nsamples = 4\nvalue = [0, 4]"] ;
358 -> 364 ;
365 [label="gini = 0.5\nsamples = 2\nvalue = [1, 1]"] ;
357 -> 365 ;
366 [label="X[0] <= 2.46\ngini = 0.111\nsamples = 17\nvalue = [1, 16]"] ;
356 -> 366 ;
367 [label="gini = 0.0\nsamples = 9\nvalue = [0, 9]"] ;
366 -> 367 ;
368 [label="X[0] <= 2.48\ngini = 0.219\nsamples = 8\nvalue = [1, 7]"] ;
366 -> 368 ;
369 [label="gini = 0.5\nsamples = 2\nvalue = [1, 1]"] ;
368 -> 369 ;
370 [label="gini = 0.0\nsamples = 6\nvalue = [0, 6]"] ;
368 -> 370 ;
371 [label="X[0] <= 2.655\ngini = 0.426\nsamples = 13\nvalue = [4, 9]"] ;
355 -> 371 ;
372 [label="X[0] <= 2.59\ngini = 0.375\nsamples = 4\nvalue = [3, 1]"] ;
371 -> 372 ;
373 [label="gini = 0.0\nsamples = 1\nvalue = [1, 0]"] ;
372 -> 373 ;
374 [label="X[0] <= 2.625\ngini = 0.444\nsamples = 3\nvalue = [2, 1]"] ;
372 -> 374 ;
375 [label="gini = 0.5\nsamples = 2\nvalue = [1, 1]"] ;
374 -> 375 ;
376 [label="gini = 0.0\nsamples = 1\nvalue = [1, 0]"] ;
374 -> 376 ;
377 [label="X[0] <= 2.82\ngini = 0.198\nsamples = 9\nvalue = [1, 8]"] ;
371 -> 377 ;
378 [label="gini = 0.0\nsamples = 6\nvalue = [0, 6]"] ;
377 -> 378 ;
379 [label="X[0] <= 2.845\ngini = 0.444\nsamples = 3\nvalue = [1, 2]"] ;
377 -> 379 ;
380 [label="gini = 0.0\nsamples = 1\nvalue = [1, 0]"] ;
379 -> 380 ;
381 [label="gini = 0.0\nsamples = 2\nvalue = [0, 2]"] ;
379 -> 381 ;
382 [label="X[0] <= 2.965\ngini = 0.444\nsamples = 3\nvalue = [2, 1]"] ;
326 -> 382 ;
383 [label="gini = 0.0\nsamples = 1\nvalue = [1, 0]"] ;
382 -> 383 ;
384 [label="X[0] <= 2.995\ngini = 0.5\nsamples = 2\nvalue = [1, 1]"] ;
382 -> 384 ;
385 [label="gini = 0.0\nsamples = 1\nvalue = [0, 1]"] ;
384 -> 385 ;
386 [label="gini = 0.0\nsamples = 1\nvalue = [1, 0]"] ;
384 -> 386 ;
387 [label="X[223] <= 0.5\ngini = 0.462\nsamples = 419\nvalue = [267, 152]"] ;
235 -> 387 ;
388 [label="X[0] <= 0.4\ngini = 0.482\nsamples = 368\nvalue = [219, 149]"] ;
387 -> 388 ;
389 [label="X[0] <= 0.205\ngini = 0.494\nsamples = 63\nvalue = [28, 35]"] ;
388 -> 389 ;
390 [label="X[0] <= 0.035\ngini = 0.487\nsamples = 31\nvalue = [18, 13]"] ;
389 -> 390 ;
391 [label="X[1009] <= 0.5\ngini = 0.278\nsamples = 6\nvalue = [1, 5]"] ;
390 -> 391 ;
392 [label="gini = 0.0\nsamples = 3\nvalue = [0, 3]"] ;
391 -> 392 ;
393 [label="X[0] <= 0.025\ngini = 0.444\nsamples = 3\nvalue = [1, 2]"] ;
391 -> 393 ;
394 [label="gini = 0.5\nsamples = 2\nvalue = [1, 1]"] ;
393 -> 394 ;
395 [label="gini = 0.0\nsamples = 1\nvalue = [0, 1]"] ;
393 -> 395 ;
396 [label="X[0] <= 0.16\ngini = 0.435\nsamples = 25\nvalue = [17, 8]"] ;
390 -> 396 ;
397 [label="X[998] <= 0.5\ngini = 0.48\nsamples = 20\nvalue = [12, 8]"] ;
396 -> 397 ;
398 [label="X[1015] <= 0.5\ngini = 0.465\nsamples = 19\nvalue = [12, 7]"] ;
397 -> 398 ;
399 [label="X[0] <= 0.105\ngini = 0.444\nsamples = 18\nvalue = [12, 6]"] ;
398 -> 399 ;
400 [label="X[1009] <= 0.5\ngini = 0.355\nsamples = 13\nvalue = [10, 3]"] ;
399 -> 400 ;
401 [label="X[0] <= 0.075\ngini = 0.469\nsamples = 8\nvalue = [5, 3]"] ;
400 -> 401 ;
402 [label="X[996] <= 0.5\ngini = 0.5\nsamples = 6\nvalue = [3, 3]"] ;
401 -> 402 ;
403 [label="gini = 0.48\nsamples = 5\nvalue = [2, 3]"] ;
402 -> 403 ;
404 [label="gini = 0.0\nsamples = 1\nvalue = [1, 0]"] ;
402 -> 404 ;
405 [label="gini = 0.0\nsamples = 2\nvalue = [2, 0]"] ;
401 -> 405 ;
406 [label="gini = 0.0\nsamples = 5\nvalue = [5, 0]"] ;
400 -> 406 ;
407 [label="X[1012] <= 0.5\ngini = 0.48\nsamples = 5\nvalue = [2, 3]"] ;
399 -> 407 ;
408 [label="X[0] <= 0.13\ngini = 0.375\nsamples = 4\nvalue = [1, 3]"] ;
407 -> 408 ;
409 [label="gini = 0.0\nsamples = 2\nvalue = [0, 2]"] ;
408 -> 409 ;
410 [label="X[0] <= 0.145\ngini = 0.5\nsamples = 2\nvalue = [1, 1]"] ;
408 -> 410 ;
411 [label="gini = 0.0\nsamples = 1\nvalue = [1, 0]"] ;
410 -> 411 ;
412 [label="gini = 0.0\nsamples = 1\nvalue = [0, 1]"] ;
410 -> 412 ;
413 [label="gini = 0.0\nsamples = 1\nvalue = [1, 0]"] ;
407 -> 413 ;
414 [label="gini = 0.0\nsamples = 1\nvalue = [0, 1]"] ;
398 -> 414 ;
415 [label="gini = 0.0\nsamples = 1\nvalue = [0, 1]"] ;
397 -> 415 ;
416 [label="gini = 0.0\nsamples = 5\nvalue = [5, 0]"] ;
396 -> 416 ;
417 [label="X[999] <= 0.5\ngini = 0.43\nsamples = 32\nvalue = [10, 22]"] ;
389 -> 417 ;
418 [label="X[991] <= 0.5\ngini = 0.412\nsamples = 31\nvalue = [9, 22]"] ;
417 -> 418 ;
419 [label="X[0] <= 0.285\ngini = 0.391\nsamples = 30\nvalue = [8, 22]"] ;
418 -> 419 ;
420 [label="gini = 0.0\nsamples = 4\nvalue = [0, 4]"] ;
419 -> 420 ;
421 [label="X[0] <= 0.355\ngini = 0.426\nsamples = 26\nvalue = [8, 18]"] ;
419 -> 421 ;
422 [label="X[993] <= 0.5\ngini = 0.48\nsamples = 15\nvalue = [6, 9]"] ;
421 -> 422 ;
423 [label="X[996] <= 0.5\ngini = 0.459\nsamples = 14\nvalue = [5, 9]"] ;
422 -> 423 ;
424 [label="X[1007] <= 0.5\ngini = 0.473\nsamples = 13\nvalue = [5, 8]"] ;
423 -> 424 ;
425 [label="X[0] <= 0.345\ngini = 0.486\nsamples = 12\nvalue = [5, 7]"] ;
424 -> 425 ;
426 [label="gini = 0.444\nsamples = 9\nvalue = [3, 6]"] ;
425 -> 426 ;
427 [label="gini = 0.444\nsamples = 3\nvalue = [2, 1]"] ;
425 -> 427 ;
428 [label="gini = 0.0\nsamples = 1\nvalue = [0, 1]"] ;
424 -> 428 ;
429 [label="gini = 0.0\nsamples = 1\nvalue = [0, 1]"] ;
423 -> 429 ;
430 [label="gini = 0.0\nsamples = 1\nvalue = [1, 0]"] ;
422 -> 430 ;
431 [label="X[1007] <= 0.5\ngini = 0.298\nsamples = 11\nvalue = [2, 9]"] ;
421 -> 431 ;
432 [label="X[1003] <= 0.5\ngini = 0.198\nsamples = 9\nvalue = [1, 8]"] ;
431 -> 432 ;
433 [label="gini = 0.0\nsamples = 5\nvalue = [0, 5]"] ;
432 -> 433 ;
434 [label="X[0] <= 0.38\ngini = 0.375\nsamples = 4\nvalue = [1, 3]"] ;
432 -> 434 ;
435 [label="gini = 0.5\nsamples = 2\nvalue = [1, 1]"] ;
434 -> 435 ;
436 [label="gini = 0.0\nsamples = 2\nvalue = [0, 2]"] ;
434 -> 436 ;
437 [label="gini = 0.5\nsamples = 2\nvalue = [1, 1]"] ;
431 -> 437 ;
438 [label="gini = 0.0\nsamples = 1\nvalue = [1, 0]"] ;
418 -> 438 ;
439 [label="gini = 0.0\nsamples = 1\nvalue = [1, 0]"] ;
417 -> 439 ;
440 [label="X[1003] <= 0.5\ngini = 0.468\nsamples = 305\nvalue = [191, 114]"] ;
388 -> 440 ;
441 [label="X[1009] <= 0.5\ngini = 0.445\nsamples = 230\nvalue = [153, 77]"] ;
440 -> 441 ;
442 [label="X[996] <= 0.5\ngini = 0.386\nsamples = 149\nvalue = [110, 39]"] ;
441 -> 442 ;
443 [label="X[0] <= 0.655\ngini = 0.364\nsamples = 142\nvalue = [108, 34]"] ;
442 -> 443 ;
444 [label="X[1005] <= 0.5\ngini = 0.121\nsamples = 31\nvalue = [29, 2]"] ;
443 -> 444 ;
445 [label="X[1010] <= 0.5\ngini = 0.064\nsamples = 30\nvalue = [29, 1]"] ;
444 -> 445 ;
446 [label="gini = 0.0\nsamples = 29\nvalue = [29, 0]"] ;
445 -> 446 ;
447 [label="gini = 0.0\nsamples = 1\nvalue = [0, 1]"] ;
445 -> 447 ;
448 [label="gini = 0.0\nsamples = 1\nvalue = [0, 1]"] ;
444 -> 448 ;
449 [label="X[1030] <= 0.5\ngini = 0.41\nsamples = 111\nvalue = [79, 32]"] ;
443 -> 449 ;
450 [label="X[998] <= 0.5\ngini = 0.399\nsamples = 109\nvalue = [79, 30]"] ;
449 -> 450 ;
451 [label="X[1017] <= 0.5\ngini = 0.377\nsamples = 103\nvalue = [77, 26]"] ;
450 -> 451 ;
452 [label="X[0] <= 2.355\ngini = 0.357\nsamples = 99\nvalue = [76, 23]"] ;
451 -> 452 ;
453 [label="X[1007] <= 0.5\ngini = 0.412\nsamples = 69\nvalue = [49, 20]"] ;
452 -> 453 ;
454 [label="gini = 0.379\nsamples = 59\nvalue = [44, 15]"] ;
453 -> 454 ;
455 [label="gini = 0.5\nsamples = 10\nvalue = [5, 5]"] ;
453 -> 455 ;
456 [label="X[991] <= 0.5\ngini = 0.18\nsamples = 30\nvalue = [27, 3]"] ;
452 -> 456 ;
457 [label="gini = 0.128\nsamples = 29\nvalue = [27, 2]"] ;
456 -> 457 ;
458 [label="gini = 0.0\nsamples = 1\nvalue = [0, 1]"] ;
456 -> 458 ;
459 [label="X[0] <= 1.48\ngini = 0.375\nsamples = 4\nvalue = [1, 3]"] ;
451 -> 459 ;
460 [label="X[0] <= 0.825\ngini = 0.5\nsamples = 2\nvalue = [1, 1]"] ;
459 -> 460 ;
461 [label="gini = 0.0\nsamples = 1\nvalue = [0, 1]"] ;
460 -> 461 ;
462 [label="gini = 0.0\nsamples = 1\nvalue = [1, 0]"] ;
460 -> 462 ;
463 [label="gini = 0.0\nsamples = 2\nvalue = [0, 2]"] ;
459 -> 463 ;
464 [label="X[0] <= 1.375\ngini = 0.444\nsamples = 6\nvalue = [2, 4]"] ;
450 -> 464 ;
465 [label="X[0] <= 0.9\ngini = 0.444\nsamples = 3\nvalue = [2, 1]"] ;
464 -> 465 ;
466 [label="gini = 0.0\nsamples = 1\nvalue = [1, 0]"] ;
465 -> 466 ;
467 [label="X[0] <= 1.14\ngini = 0.5\nsamples = 2\nvalue = [1, 1]"] ;
465 -> 467 ;
468 [label="gini = 0.0\nsamples = 1\nvalue = [0, 1]"] ;
467 -> 468 ;
469 [label="gini = 0.0\nsamples = 1\nvalue = [1, 0]"] ;
467 -> 469 ;
470 [label="gini = 0.0\nsamples = 3\nvalue = [0, 3]"] ;
464 -> 470 ;
471 [label="gini = 0.0\nsamples = 2\nvalue = [0, 2]"] ;
449 -> 471 ;
472 [label="X[0] <= 2.59\ngini = 0.408\nsamples = 7\nvalue = [2, 5]"] ;
442 -> 472 ;
473 [label="X[0] <= 0.665\ngini = 0.278\nsamples = 6\nvalue = [1, 5]"] ;
472 -> 473 ;
474 [label="gini = 0.5\nsamples = 2\nvalue = [1, 1]"] ;
473 -> 474 ;
475 [label="gini = 0.0\nsamples = 4\nvalue = [0, 4]"] ;
473 -> 475 ;
476 [label="gini = 0.0\nsamples = 1\nvalue = [1, 0]"] ;
472 -> 476 ;
477 [label="X[0] <= 1.15\ngini = 0.498\nsamples = 81\nvalue = [43, 38]"] ;
441 -> 477 ;
478 [label="X[0] <= 0.98\ngini = 0.444\nsamples = 39\nvalue = [26, 13]"] ;
477 -> 478 ;
479 [label="X[0] <= 0.92\ngini = 0.469\nsamples = 32\nvalue = [20, 12]"] ;
478 -> 479 ;
480 [label="X[0] <= 0.69\ngini = 0.436\nsamples = 28\nvalue = [19, 9]"] ;
479 -> 480 ;
481 [label="X[0] <= 0.64\ngini = 0.48\nsamples = 20\nvalue = [12, 8]"] ;
480 -> 481 ;
482 [label="X[0] <= 0.575\ngini = 0.444\nsamples = 18\nvalue = [12, 6]"] ;
481 -> 482 ;
483 [label="X[0] <= 0.55\ngini = 0.48\nsamples = 15\nvalue = [9, 6]"] ;
482 -> 483 ;
484 [label="gini = 0.426\nsamples = 13\nvalue = [9, 4]"] ;
483 -> 484 ;
485 [label="gini = 0.0\nsamples = 2\nvalue = [0, 2]"] ;
483 -> 485 ;
486 [label="gini = 0.0\nsamples = 3\nvalue = [3, 0]"] ;
482 -> 486 ;
487 [label="gini = 0.0\nsamples = 2\nvalue = [0, 2]"] ;
481 -> 487 ;
488 [label="X[0] <= 0.855\ngini = 0.219\nsamples = 8\nvalue = [7, 1]"] ;
480 -> 488 ;
489 [label="gini = 0.0\nsamples = 5\nvalue = [5, 0]"] ;
488 -> 489 ;
490 [label="X[0] <= 0.9\ngini = 0.444\nsamples = 3\nvalue = [2, 1]"] ;
488 -> 490 ;
491 [label="gini = 0.5\nsamples = 2\nvalue = [1, 1]"] ;
490 -> 491 ;
492 [label="gini = 0.0\nsamples = 1\nvalue = [1, 0]"] ;
490 -> 492 ;
493 [label="X[0] <= 0.94\ngini = 0.375\nsamples = 4\nvalue = [1, 3]"] ;
479 -> 493 ;
494 [label="gini = 0.0\nsamples = 1\nvalue = [0, 1]"] ;
493 -> 494 ;
495 [label="X[0] <= 0.96\ngini = 0.444\nsamples = 3\nvalue = [1, 2]"] ;
493 -> 495 ;
496 [label="gini = 0.5\nsamples = 2\nvalue = [1, 1]"] ;
495 -> 496 ;
497 [label="gini = 0.0\nsamples = 1\nvalue = [0, 1]"] ;
495 -> 497 ;
498 [label="X[0] <= 1.015\ngini = 0.245\nsamples = 7\nvalue = [6, 1]"] ;
478 -> 498 ;
499 [label="gini = 0.0\nsamples = 3\nvalue = [3, 0]"] ;
498 -> 499 ;
500 [label="X[0] <= 1.025\ngini = 0.375\nsamples = 4\nvalue = [3, 1]"] ;
498 -> 500 ;
501 [label="gini = 0.5\nsamples = 2\nvalue = [1, 1]"] ;
500 -> 501 ;
502 [label="gini = 0.0\nsamples = 2\nvalue = [2, 0]"] ;
500 -> 502 ;
503 [label="X[0] <= 1.365\ngini = 0.482\nsamples = 42\nvalue = [17, 25]"] ;
477 -> 503 ;
504 [label="gini = 0.0\nsamples = 7\nvalue = [0, 7]"] ;
503 -> 504 ;
505 [label="X[0] <= 2.02\ngini = 0.5\nsamples = 35\nvalue = [17, 18]"] ;
503 -> 505 ;
506 [label="X[0] <= 1.445\ngini = 0.375\nsamples = 12\nvalue = [9, 3]"] ;
505 -> 506 ;
507 [label="X[0] <= 1.395\ngini = 0.5\nsamples = 2\nvalue = [1, 1]"] ;
506 -> 507 ;
508 [label="gini = 0.0\nsamples = 1\nvalue = [1, 0]"] ;
507 -> 508 ;
509 [label="gini = 0.0\nsamples = 1\nvalue = [0, 1]"] ;
507 -> 509 ;
510 [label="X[0] <= 1.59\ngini = 0.32\nsamples = 10\nvalue = [8, 2]"] ;
506 -> 510 ;
511 [label="gini = 0.0\nsamples = 3\nvalue = [3, 0]"] ;
510 -> 511 ;
512 [label="X[0] <= 1.905\ngini = 0.408\nsamples = 7\nvalue = [5, 2]"] ;
510 -> 512 ;
513 [label="X[0] <= 1.695\ngini = 0.48\nsamples = 5\nvalue = [3, 2]"] ;
512 -> 513 ;
514 [label="gini = 0.5\nsamples = 2\nvalue = [1, 1]"] ;
513 -> 514 ;
515 [label="gini = 0.444\nsamples = 3\nvalue = [2, 1]"] ;
513 -> 515 ;
516 [label="gini = 0.0\nsamples = 2\nvalue = [2, 0]"] ;
512 -> 516 ;
517 [label="X[0] <= 2.515\ngini = 0.454\nsamples = 23\nvalue = [8, 15]"] ;
505 -> 517 ;
518 [label="X[0] <= 2.23\ngini = 0.32\nsamples = 10\nvalue = [2, 8]"] ;
517 -> 518 ;
519 [label="X[0] <= 2.095\ngini = 0.5\nsamples = 4\nvalue = [2, 2]"] ;
518 -> 519 ;
520 [label="gini = 0.0\nsamples = 2\nvalue = [0, 2]"] ;
519 -> 520 ;
521 [label="gini = 0.0\nsamples = 2\nvalue = [2, 0]"] ;
519 -> 521 ;
522 [label="gini = 0.0\nsamples = 6\nvalue = [0, 6]"] ;
518 -> 522 ;
523 [label="X[0] <= 2.565\ngini = 0.497\nsamples = 13\nvalue = [6, 7]"] ;
517 -> 523 ;
524 [label="gini = 0.0\nsamples = 2\nvalue = [2, 0]"] ;
523 -> 524 ;
525 [label="X[0] <= 2.67\ngini = 0.463\nsamples = 11\nvalue = [4, 7]"] ;
523 -> 525 ;
526 [label="gini = 0.0\nsamples = 3\nvalue = [0, 3]"] ;
525 -> 526 ;
527 [label="X[0] <= 2.875\ngini = 0.5\nsamples = 8\nvalue = [4, 4]"] ;
525 -> 527 ;
528 [label="gini = 0.444\nsamples = 6\nvalue = [4, 2]"] ;
527 -> 528 ;
529 [label="gini = 0.0\nsamples = 2\nvalue = [0, 2]"] ;
527 -> 529 ;
530 [label="X[0] <= 2.075\ngini = 0.5\nsamples = 75\nvalue = [38, 37]"] ;
440 -> 530 ;
531 [label="X[0] <= 2.015\ngini = 0.495\nsamples = 60\nvalue = [27, 33]"] ;
530 -> 531 ;
532 [label="X[0] <= 1.965\ngini = 0.499\nsamples = 57\nvalue = [27, 30]"] ;
531 -> 532 ;
533 [label="X[0] <= 1.835\ngini = 0.494\nsamples = 54\nvalue = [24, 30]"] ;
532 -> 533 ;
534 [label="X[0] <= 1.375\ngini = 0.5\nsamples = 42\nvalue = [21, 21]"] ;
533 -> 534 ;
535 [label="X[0] <= 0.45\ngini = 0.493\nsamples = 34\nvalue = [15, 19]"] ;
534 -> 535 ;
536 [label="gini = 0.0\nsamples = 1\nvalue = [1, 0]"] ;
535 -> 536 ;
537 [label="X[0] <= 0.625\ngini = 0.489\nsamples = 33\nvalue = [14, 19]"] ;
535 -> 537 ;
538 [label="X[0] <= 0.585\ngini = 0.375\nsamples = 8\nvalue = [2, 6]"] ;
537 -> 538 ;
539 [label="gini = 0.444\nsamples = 6\nvalue = [2, 4]"] ;
538 -> 539 ;
540 [label="gini = 0.0\nsamples = 2\nvalue = [0, 2]"] ;
538 -> 540 ;
541 [label="X[0] <= 0.89\ngini = 0.499\nsamples = 25\nvalue = [12, 13]"] ;
537 -> 541 ;
542 [label="gini = 0.278\nsamples = 6\nvalue = [5, 1]"] ;
541 -> 542 ;
543 [label="gini = 0.465\nsamples = 19\nvalue = [7, 12]"] ;
541 -> 543 ;
544 [label="X[0] <= 1.7\ngini = 0.375\nsamples = 8\nvalue = [6, 2]"] ;
534 -> 544 ;
545 [label="gini = 0.0\nsamples = 3\nvalue = [3, 0]"] ;
544 -> 545 ;
546 [label="X[0] <= 1.805\ngini = 0.48\nsamples = 5\nvalue = [3, 2]"] ;
544 -> 546 ;
547 [label="X[0] <= 1.755\ngini = 0.444\nsamples = 3\nvalue = [1, 2]"] ;
546 -> 547 ;
548 [label="gini = 0.5\nsamples = 2\nvalue = [1, 1]"] ;
547 -> 548 ;
549 [label="gini = 0.0\nsamples = 1\nvalue = [0, 1]"] ;
547 -> 549 ;
550 [label="gini = 0.0\nsamples = 2\nvalue = [2, 0]"] ;
546 -> 550 ;
551 [label="X[0] <= 1.9\ngini = 0.375\nsamples = 12\nvalue = [3, 9]"] ;
533 -> 551 ;
552 [label="gini = 0.0\nsamples = 7\nvalue = [0, 7]"] ;
551 -> 552 ;
553 [label="X[0] <= 1.94\ngini = 0.48\nsamples = 5\nvalue = [3, 2]"] ;
551 -> 553 ;
554 [label="X[0] <= 1.915\ngini = 0.375\nsamples = 4\nvalue = [3, 1]"] ;
553 -> 554 ;
555 [label="gini = 0.0\nsamples = 1\nvalue = [1, 0]"] ;
554 -> 555 ;
556 [label="gini = 0.444\nsamples = 3\nvalue = [2, 1]"] ;
554 -> 556 ;
557 [label="gini = 0.0\nsamples = 1\nvalue = [0, 1]"] ;
553 -> 557 ;
558 [label="gini = 0.0\nsamples = 3\nvalue = [3, 0]"] ;
532 -> 558 ;
559 [label="gini = 0.0\nsamples = 3\nvalue = [0, 3]"] ;
531 -> 559 ;
560 [label="X[0] <= 2.335\ngini = 0.391\nsamples = 15\nvalue = [11, 4]"] ;
530 -> 560 ;
561 [label="gini = 0.0\nsamples = 4\nvalue = [4, 0]"] ;
560 -> 561 ;
562 [label="X[0] <= 2.635\ngini = 0.463\nsamples = 11\nvalue = [7, 4]"] ;
560 -> 562 ;
563 [label="X[0] <= 2.43\ngini = 0.48\nsamples = 5\nvalue = [2, 3]"] ;
562 -> 563 ;
564 [label="gini = 0.0\nsamples = 1\nvalue = [0, 1]"] ;
563 -> 564 ;
565 [label="X[0] <= 2.515\ngini = 0.5\nsamples = 4\nvalue = [2, 2]"] ;
563 -> 565 ;
566 [label="gini = 0.0\nsamples = 1\nvalue = [1, 0]"] ;
565 -> 566 ;
567 [label="X[0] <= 2.53\ngini = 0.444\nsamples = 3\nvalue = [1, 2]"] ;
565 -> 567 ;
568 [label="gini = 0.0\nsamples = 1\nvalue = [0, 1]"] ;
567 -> 568 ;
569 [label="X[0] <= 2.555\ngini = 0.5\nsamples = 2\nvalue = [1, 1]"] ;
567 -> 569 ;
570 [label="gini = 0.0\nsamples = 1\nvalue = [1, 0]"] ;
569 -> 570 ;
571 [label="gini = 0.0\nsamples = 1\nvalue = [0, 1]"] ;
569 -> 571 ;
572 [label="X[0] <= 2.91\ngini = 0.278\nsamples = 6\nvalue = [5, 1]"] ;
562 -> 572 ;
573 [label="gini = 0.0\nsamples = 4\nvalue = [4, 0]"] ;
572 -> 573 ;
574 [label="X[0] <= 2.95\ngini = 0.5\nsamples = 2\nvalue = [1, 1]"] ;
572 -> 574 ;
575 [label="gini = 0.0\nsamples = 1\nvalue = [0, 1]"] ;
574 -> 575 ;
576 [label="gini = 0.0\nsamples = 1\nvalue = [1, 0]"] ;
574 -> 576 ;
577 [label="X[1009] <= 0.5\ngini = 0.111\nsamples = 51\nvalue = [48, 3]"] ;
387 -> 577 ;
578 [label="X[1003] <= 0.5\ngini = 0.045\nsamples = 43\nvalue = [42, 1]"] ;
577 -> 578 ;
579 [label="gini = 0.0\nsamples = 32\nvalue = [32, 0]"] ;
578 -> 579 ;
580 [label="X[0] <= 1.19\ngini = 0.165\nsamples = 11\nvalue = [10, 1]"] ;
578 -> 580 ;
581 [label="X[0] <= 0.985\ngini = 0.32\nsamples = 5\nvalue = [4, 1]"] ;
580 -> 581 ;
582 [label="gini = 0.0\nsamples = 4\nvalue = [4, 0]"] ;
581 -> 582 ;
583 [label="gini = 0.0\nsamples = 1\nvalue = [0, 1]"] ;
581 -> 583 ;
584 [label="gini = 0.0\nsamples = 6\nvalue = [6, 0]"] ;
580 -> 584 ;
585 [label="X[0] <= 0.135\ngini = 0.375\nsamples = 8\nvalue = [6, 2]"] ;
577 -> 585 ;
586 [label="gini = 0.0\nsamples = 1\nvalue = [0, 1]"] ;
585 -> 586 ;
587 [label="X[0] <= 2.11\ngini = 0.245\nsamples = 7\nvalue = [6, 1]"] ;
585 -> 587 ;
588 [label="gini = 0.0\nsamples = 6\nvalue = [6, 0]"] ;
587 -> 588 ;
589 [label="gini = 0.0\nsamples = 1\nvalue = [0, 1]"] ;
587 -> 589 ;
590 [label="X[16] <= 0.5\ngini = 0.065\nsamples = 178\nvalue = [6, 172]"] ;
14 -> 590 ;
591 [label="X[1024] <= 0.5\ngini = 0.034\nsamples = 175\nvalue = [3, 172]"] ;
590 -> 591 ;
592 [label="X[0] <= 2.935\ngini = 0.023\nsamples = 172\nvalue = [2, 170]"] ;
591 -> 592 ;
593 [label="X[1003] <= 0.5\ngini = 0.013\nsamples = 156\nvalue = [1, 155]"] ;
592 -> 593 ;
594 [label="gini = 0.0\nsamples = 121\nvalue = [0, 121]"] ;
593 -> 594 ;
595 [label="X[0] <= 1.65\ngini = 0.056\nsamples = 35\nvalue = [1, 34]"] ;
593 -> 595 ;
596 [label="gini = 0.0\nsamples = 21\nvalue = [0, 21]"] ;
595 -> 596 ;
597 [label="X[0] <= 1.795\ngini = 0.133\nsamples = 14\nvalue = [1, 13]"] ;
595 -> 597 ;
598 [label="gini = 0.5\nsamples = 2\nvalue = [1, 1]"] ;
597 -> 598 ;
599 [label="gini = 0.0\nsamples = 12\nvalue = [0, 12]"] ;
597 -> 599 ;
600 [label="X[0] <= 2.945\ngini = 0.117\nsamples = 16\nvalue = [1, 15]"] ;
592 -> 600 ;
601 [label="X[1009] <= 0.5\ngini = 0.245\nsamples = 7\nvalue = [1, 6]"] ;
600 -> 601 ;
602 [label="gini = 0.0\nsamples = 4\nvalue = [0, 4]"] ;
601 -> 602 ;
603 [label="X[104] <= 0.5\ngini = 0.444\nsamples = 3\nvalue = [1, 2]"] ;
601 -> 603 ;
604 [label="gini = 0.5\nsamples = 2\nvalue = [1, 1]"] ;
603 -> 604 ;
605 [label="gini = 0.0\nsamples = 1\nvalue = [0, 1]"] ;
603 -> 605 ;
606 [label="gini = 0.0\nsamples = 9\nvalue = [0, 9]"] ;
600 -> 606 ;
607 [label="X[104] <= 0.5\ngini = 0.444\nsamples = 3\nvalue = [1, 2]"] ;
591 -> 607 ;
608 [label="gini = 0.0\nsamples = 1\nvalue = [1, 0]"] ;
607 -> 608 ;
609 [label="gini = 0.0\nsamples = 2\nvalue = [0, 2]"] ;
607 -> 609 ;
610 [label="gini = 0.0\nsamples = 3\nvalue = [3, 0]"] ;
590 -> 610 ;
611 [label="X[222] <= 0.5\ngini = 0.489\nsamples = 1566\nvalue = [901, 665]"] ;
13 -> 611 ;
612 [label="X[996] <= 0.5\ngini = 0.022\nsamples = 88\nvalue = [87, 1]"] ;
611 -> 612 ;
613 [label="gini = 0.0\nsamples = 83\nvalue = [83, 0]"] ;
612 -> 613 ;
614 [label="X[1156] <= 0.5\ngini = 0.32\nsamples = 5\nvalue = [4, 1]"] ;
612 -> 614 ;
615 [label="gini = 0.0\nsamples = 1\nvalue = [0, 1]"] ;
614 -> 615 ;
616 [label="gini = 0.0\nsamples = 4\nvalue = [4, 0]"] ;
614 -> 616 ;
617 [label="X[1009] <= 0.5\ngini = 0.495\nsamples = 1478\nvalue = [814, 664]"] ;
611 -> 617 ;
618 [label="X[1003] <= 0.5\ngini = 0.477\nsamples = 988\nvalue = [601, 387]"] ;
617 -> 618 ;
619 [label="X[1012] <= 0.5\ngini = 0.422\nsamples = 601\nvalue = [419, 182]"] ;
618 -> 619 ;
620 [label="X[0] <= 2.855\ngini = 0.388\nsamples = 536\nvalue = [395, 141]"] ;
619 -> 620 ;
621 [label="X[1007] <= 0.5\ngini = 0.396\nsamples = 515\nvalue = [375, 140]"] ;
620 -> 621 ;
622 [label="X[0] <= 2.825\ngini = 0.379\nsamples = 441\nvalue = [329, 112]"] ;
621 -> 622 ;
623 [label="X[1156] <= 0.5\ngini = 0.376\nsamples = 439\nvalue = [329, 110]"] ;
622 -> 623 ;
624 [label="X[0] <= 0.585\ngini = 0.465\nsamples = 68\nvalue = [43, 25]"] ;
623 -> 624 ;
625 [label="X[1015] <= 0.5\ngini = 0.32\nsamples = 10\nvalue = [2, 8]"] ;
624 -> 625 ;
626 [label="gini = 0.0\nsamples = 8\nvalue = [0, 8]"] ;
625 -> 626 ;
627 [label="gini = 0.0\nsamples = 2\nvalue = [2, 0]"] ;
625 -> 627 ;
628 [label="X[996] <= 0.5\ngini = 0.414\nsamples = 58\nvalue = [41, 17]"] ;
624 -> 628 ;
629 [label="X[1005] <= 0.5\ngini = 0.392\nsamples = 56\nvalue = [41, 15]"] ;
628 -> 629 ;
630 [label="X[1008] <= 0.5\ngini = 0.36\nsamples = 51\nvalue = [39, 12]"] ;
629 -> 630 ;
631 [label="X[0] <= 0.775\ngini = 0.289\nsamples = 40\nvalue = [33, 7]"] ;
630 -> 631 ;
632 [label="X[1000] <= 0.5\ngini = 0.49\nsamples = 7\nvalue = [4, 3]"] ;
631 -> 632 ;
633 [label="gini = 0.32\nsamples = 5\nvalue = [4, 1]"] ;
632 -> 633 ;
634 [label="gini = 0.0\nsamples = 2\nvalue = [0, 2]"] ;
632 -> 634 ;
635 [label="X[1030] <= 0.5\ngini = 0.213\nsamples = 33\nvalue = [29, 4]"] ;
631 -> 635 ;
636 [label="gini = 0.128\nsamples = 29\nvalue = [27, 2]"] ;
635 -> 636 ;
637 [label="gini = 0.5\nsamples = 4\nvalue = [2, 2]"] ;
635 -> 637 ;
638 [label="X[1155] <= 0.5\ngini = 0.496\nsamples = 11\nvalue = [6, 5]"] ;
630 -> 638 ;
639 [label="X[0] <= 0.97\ngini = 0.278\nsamples = 6\nvalue = [5, 1]"] ;
638 -> 639 ;
640 [label="gini = 0.0\nsamples = 3\nvalue = [3, 0]"] ;
639 -> 640 ;
641 [label="gini = 0.444\nsamples = 3\nvalue = [2, 1]"] ;
639 -> 641 ;
642 [label="X[0] <= 0.7\ngini = 0.32\nsamples = 5\nvalue = [1, 4]"] ;
638 -> 642 ;
643 [label="gini = 0.0\nsamples = 1\nvalue = [1, 0]"] ;
642 -> 643 ;
644 [label="gini = 0.0\nsamples = 4\nvalue = [0, 4]"] ;
642 -> 644 ;
645 [label="X[0] <= 0.82\ngini = 0.48\nsamples = 5\nvalue = [2, 3]"] ;
629 -> 645 ;
646 [label="gini = 0.0\nsamples = 2\nvalue = [0, 2]"] ;
645 -> 646 ;
647 [label="X[0] <= 1.565\ngini = 0.444\nsamples = 3\nvalue = [2, 1]"] ;
645 -> 647 ;
648 [label="gini = 0.0\nsamples = 2\nvalue = [2, 0]"] ;
647 -> 648 ;
649 [label="gini = 0.0\nsamples = 1\nvalue = [0, 1]"] ;
647 -> 649 ;
650 [label="gini = 0.0\nsamples = 2\nvalue = [0, 2]"] ;
628 -> 650 ;
651 [label="X[1006] <= 0.5\ngini = 0.353\nsamples = 371\nvalue = [286, 85]"] ;
623 -> 651 ;
652 [label="X[0] <= 1.715\ngini = 0.342\nsamples = 356\nvalue = [278, 78]"] ;
651 -> 652 ;
653 [label="X[0] <= 0.075\ngini = 0.293\nsamples = 185\nvalue = [152, 33]"] ;
652 -> 653 ;
654 [label="X[1013] <= 0.5\ngini = 0.469\nsamples = 16\nvalue = [10, 6]"] ;
653 -> 654 ;
655 [label="X[0] <= 0.055\ngini = 0.444\nsamples = 15\nvalue = [10, 5]"] ;
654 -> 655 ;
656 [label="X[993] <= 0.5\ngini = 0.32\nsamples = 10\nvalue = [8, 2]"] ;
655 -> 656 ;
657 [label="gini = 0.198\nsamples = 9\nvalue = [8, 1]"] ;
656 -> 657 ;
658 [label="gini = 0.0\nsamples = 1\nvalue = [0, 1]"] ;
656 -> 658 ;
659 [label="X[999] <= 0.5\ngini = 0.48\nsamples = 5\nvalue = [2, 3]"] ;
655 -> 659 ;
660 [label="gini = 0.375\nsamples = 4\nvalue = [1, 3]"] ;
659 -> 660 ;
661 [label="gini = 0.0\nsamples = 1\nvalue = [1, 0]"] ;
659 -> 661 ;
662 [label="gini = 0.0\nsamples = 1\nvalue = [0, 1]"] ;
654 -> 662 ;
663 [label="X[1015] <= 0.5\ngini = 0.268\nsamples = 169\nvalue = [142, 27]"] ;
653 -> 663 ;
664 [label="X[1024] <= 0.5\ngini = 0.249\nsamples = 158\nvalue = [135, 23]"] ;
663 -> 664 ;
665 [label="X[1008] <= 0.5\ngini = 0.231\nsamples = 150\nvalue = [130, 20]"] ;
664 -> 665 ;
666 [label="gini = 0.203\nsamples = 131\nvalue = [116, 15]"] ;
665 -> 666 ;
667 [label="gini = 0.388\nsamples = 19\nvalue = [14, 5]"] ;
665 -> 667 ;
668 [label="X[0] <= 0.335\ngini = 0.469\nsamples = 8\nvalue = [5, 3]"] ;
664 -> 668 ;
669 [label="gini = 0.0\nsamples = 1\nvalue = [0, 1]"] ;
668 -> 669 ;
670 [label="gini = 0.408\nsamples = 7\nvalue = [5, 2]"] ;
668 -> 670 ;
671 [label="X[0] <= 1.35\ngini = 0.463\nsamples = 11\nvalue = [7, 4]"] ;
663 -> 671 ;
672 [label="X[0] <= 0.42\ngini = 0.278\nsamples = 6\nvalue = [5, 1]"] ;
671 -> 672 ;
673 [label="gini = 0.5\nsamples = 2\nvalue = [1, 1]"] ;
672 -> 673 ;
674 [label="gini = 0.0\nsamples = 4\nvalue = [4, 0]"] ;
672 -> 674 ;
675 [label="X[0] <= 1.455\ngini = 0.48\nsamples = 5\nvalue = [2, 3]"] ;
671 -> 675 ;
676 [label="gini = 0.0\nsamples = 2\nvalue = [0, 2]"] ;
675 -> 676 ;
677 [label="gini = 0.444\nsamples = 3\nvalue = [2, 1]"] ;
675 -> 677 ;
678 [label="X[0] <= 2.635\ngini = 0.388\nsamples = 171\nvalue = [126, 45]"] ;
652 -> 678 ;
679 [label="X[0] <= 2.585\ngini = 0.428\nsamples = 116\nvalue = [80, 36]"] ;
678 -> 679 ;
680 [label="X[0] <= 2.415\ngini = 0.406\nsamples = 99\nvalue = [71, 28]"] ;
679 -> 680 ;
681 [label="X[1008] <= 0.5\ngini = 0.464\nsamples = 52\nvalue = [33, 19]"] ;
680 -> 681 ;
682 [label="gini = 0.44\nsamples = 49\nvalue = [33, 16]"] ;
681 -> 682 ;
683 [label="gini = 0.0\nsamples = 3\nvalue = [0, 3]"] ;
681 -> 683 ;
684 [label="X[0] <= 2.535\ngini = 0.31\nsamples = 47\nvalue = [38, 9]"] ;
680 -> 684 ;
685 [label="gini = 0.0\nsamples = 18\nvalue = [18, 0]"] ;
684 -> 685 ;
686 [label="gini = 0.428\nsamples = 29\nvalue = [20, 9]"] ;
684 -> 686 ;
687 [label="X[0] <= 2.625\ngini = 0.498\nsamples = 17\nvalue = [9, 8]"] ;
679 -> 687 ;
688 [label="X[993] <= 0.5\ngini = 0.492\nsamples = 16\nvalue = [9, 7]"] ;
687 -> 688 ;
689 [label="gini = 0.48\nsamples = 15\nvalue = [9, 6]"] ;
688 -> 689 ;
690 [label="gini = 0.0\nsamples = 1\nvalue = [0, 1]"] ;
688 -> 690 ;
691 [label="gini = 0.0\nsamples = 1\nvalue = [0, 1]"] ;
687 -> 691 ;
692 [label="X[1024] <= 0.5\ngini = 0.274\nsamples = 55\nvalue = [46, 9]"] ;
678 -> 692 ;
693 [label="X[0] <= 2.67\ngini = 0.252\nsamples = 54\nvalue = [46, 8]"] ;
692 -> 693 ;
694 [label="gini = 0.0\nsamples = 10\nvalue = [10, 0]"] ;
693 -> 694 ;
695 [label="X[1000] <= 0.5\ngini = 0.298\nsamples = 44\nvalue = [36, 8]"] ;
693 -> 695 ;
696 [label="gini = 0.255\nsamples = 40\nvalue = [34, 6]"] ;
695 -> 696 ;
697 [label="gini = 0.5\nsamples = 4\nvalue = [2, 2]"] ;
695 -> 697 ;
698 [label="gini = 0.0\nsamples = 1\nvalue = [0, 1]"] ;
692 -> 698 ;
699 [label="X[0] <= 2.575\ngini = 0.498\nsamples = 15\nvalue = [8, 7]"] ;
651 -> 699 ;
700 [label="X[0] <= 1.685\ngini = 0.463\nsamples = 11\nvalue = [4, 7]"] ;
699 -> 700 ;
701 [label="X[0] <= 1.52\ngini = 0.49\nsamples = 7\nvalue = [4, 3]"] ;
700 -> 701 ;
702 [label="X[0] <= 0.975\ngini = 0.48\nsamples = 5\nvalue = [2, 3]"] ;
701 -> 702 ;
703 [label="X[0] <= 0.235\ngini = 0.444\nsamples = 3\nvalue = [2, 1]"] ;
702 -> 703 ;
704 [label="gini = 0.0\nsamples = 1\nvalue = [1, 0]"] ;
703 -> 704 ;
705 [label="gini = 0.5\nsamples = 2\nvalue = [1, 1]"] ;
703 -> 705 ;
706 [label="gini = 0.0\nsamples = 2\nvalue = [0, 2]"] ;
702 -> 706 ;
707 [label="gini = 0.0\nsamples = 2\nvalue = [2, 0]"] ;
701 -> 707 ;
708 [label="gini = 0.0\nsamples = 4\nvalue = [0, 4]"] ;
700 -> 708 ;
709 [label="gini = 0.0\nsamples = 4\nvalue = [4, 0]"] ;
699 -> 709 ;
710 [label="gini = 0.0\nsamples = 2\nvalue = [0, 2]"] ;
622 -> 710 ;
711 [label="X[0] <= 1.88\ngini = 0.47\nsamples = 74\nvalue = [46, 28]"] ;
621 -> 711 ;
712 [label="X[0] <= 0.505\ngini = 0.363\nsamples = 42\nvalue = [32, 10]"] ;
711 -> 712 ;
713 [label="X[0] <= 0.47\ngini = 0.492\nsamples = 16\nvalue = [9, 7]"] ;
712 -> 713 ;
714 [label="X[1190] <= 0.5\ngini = 0.48\nsamples = 15\nvalue = [9, 6]"] ;
713 -> 714 ;
715 [label="X[0] <= 0.08\ngini = 0.459\nsamples = 14\nvalue = [9, 5]"] ;
714 -> 715 ;
716 [label="X[0] <= 0.055\ngini = 0.444\nsamples = 3\nvalue = [1, 2]"] ;
715 -> 716 ;
717 [label="gini = 0.5\nsamples = 2\nvalue = [1, 1]"] ;
716 -> 717 ;
718 [label="gini = 0.0\nsamples = 1\nvalue = [0, 1]"] ;
716 -> 718 ;
719 [label="X[0] <= 0.335\ngini = 0.397\nsamples = 11\nvalue = [8, 3]"] ;
715 -> 719 ;
720 [label="gini = 0.0\nsamples = 4\nvalue = [4, 0]"] ;
719 -> 720 ;
721 [label="X[0] <= 0.385\ngini = 0.49\nsamples = 7\nvalue = [4, 3]"] ;
719 -> 721 ;
722 [label="X[0] <= 0.36\ngini = 0.48\nsamples = 5\nvalue = [2, 3]"] ;
721 -> 722 ;
723 [label="gini = 0.5\nsamples = 4\nvalue = [2, 2]"] ;
722 -> 723 ;
724 [label="gini = 0.0\nsamples = 1\nvalue = [0, 1]"] ;
722 -> 724 ;
725 [label="gini = 0.0\nsamples = 2\nvalue = [2, 0]"] ;
721 -> 725 ;
726 [label="gini = 0.0\nsamples = 1\nvalue = [0, 1]"] ;
714 -> 726 ;
727 [label="gini = 0.0\nsamples = 1\nvalue = [0, 1]"] ;
713 -> 727 ;
728 [label="X[1190] <= 0.5\ngini = 0.204\nsamples = 26\nvalue = [23, 3]"] ;
712 -> 728 ;
729 [label="X[0] <= 1.21\ngini = 0.091\nsamples = 21\nvalue = [20, 1]"] ;
728 -> 729 ;
730 [label="gini = 0.0\nsamples = 12\nvalue = [12, 0]"] ;
729 -> 730 ;
731 [label="X[0] <= 1.34\ngini = 0.198\nsamples = 9\nvalue = [8, 1]"] ;
729 -> 731 ;
732 [label="gini = 0.5\nsamples = 2\nvalue = [1, 1]"] ;
731 -> 732 ;
733 [label="gini = 0.0\nsamples = 7\nvalue = [7, 0]"] ;
731 -> 733 ;
734 [label="X[0] <= 0.995\ngini = 0.48\nsamples = 5\nvalue = [3, 2]"] ;
728 -> 734 ;
735 [label="gini = 0.0\nsamples = 1\nvalue = [1, 0]"] ;
734 -> 735 ;
736 [label="X[0] <= 1.045\ngini = 0.5\nsamples = 4\nvalue = [2, 2]"] ;
734 -> 736 ;
737 [label="gini = 0.0\nsamples = 1\nvalue = [0, 1]"] ;
736 -> 737 ;
738 [label="X[0] <= 1.085\ngini = 0.444\nsamples = 3\nvalue = [2, 1]"] ;
736 -> 738 ;
739 [label="gini = 0.0\nsamples = 1\nvalue = [1, 0]"] ;
738 -> 739 ;
740 [label="X[0] <= 1.235\ngini = 0.5\nsamples = 2\nvalue = [1, 1]"] ;
738 -> 740 ;
741 [label="gini = 0.0\nsamples = 1\nvalue = [0, 1]"] ;
740 -> 741 ;
742 [label="gini = 0.0\nsamples = 1\nvalue = [1, 0]"] ;
740 -> 742 ;
743 [label="X[0] <= 1.99\ngini = 0.492\nsamples = 32\nvalue = [14, 18]"] ;
711 -> 743 ;
744 [label="gini = 0.0\nsamples = 2\nvalue = [0, 2]"] ;
743 -> 744 ;
745 [label="X[1155] <= 0.5\ngini = 0.498\nsamples = 30\nvalue = [14, 16]"] ;
743 -> 745 ;
746 [label="X[0] <= 2.095\ngini = 0.49\nsamples = 28\nvalue = [12, 16]"] ;
745 -> 746 ;
747 [label="gini = 0.0\nsamples = 1\nvalue = [1, 0]"] ;
746 -> 747 ;
748 [label="X[0] <= 2.735\ngini = 0.483\nsamples = 27\nvalue = [11, 16]"] ;
746 -> 748 ;
749 [label="X[0] <= 2.645\ngini = 0.463\nsamples = 22\nvalue = [8, 14]"] ;
748 -> 749 ;
750 [label="X[0] <= 2.615\ngini = 0.48\nsamples = 20\nvalue = [8, 12]"] ;
749 -> 750 ;
751 [label="X[0] <= 2.6\ngini = 0.465\nsamples = 19\nvalue = [7, 12]"] ;
750 -> 751 ;
752 [label="gini = 0.475\nsamples = 18\nvalue = [7, 11]"] ;
751 -> 752 ;
753 [label="gini = 0.0\nsamples = 1\nvalue = [0, 1]"] ;
751 -> 753 ;
754 [label="gini = 0.0\nsamples = 1\nvalue = [1, 0]"] ;
750 -> 754 ;
755 [label="gini = 0.0\nsamples = 2\nvalue = [0, 2]"] ;
749 -> 755 ;
756 [label="X[0] <= 2.79\ngini = 0.48\nsamples = 5\nvalue = [3, 2]"] ;
748 -> 756 ;
757 [label="gini = 0.0\nsamples = 2\nvalue = [2, 0]"] ;
756 -> 757 ;
758 [label="X[0] <= 2.805\ngini = 0.444\nsamples = 3\nvalue = [1, 2]"] ;
756 -> 758 ;
759 [label="gini = 0.0\nsamples = 1\nvalue = [0, 1]"] ;
758 -> 759 ;
760 [label="gini = 0.5\nsamples = 2\nvalue = [1, 1]"] ;
758 -> 760 ;
761 [label="gini = 0.0\nsamples = 2\nvalue = [2, 0]"] ;
745 -> 761 ;
762 [label="X[1007] <= 0.5\ngini = 0.091\nsamples = 21\nvalue = [20, 1]"] ;
620 -> 762 ;
763 [label="gini = 0.0\nsamples = 15\nvalue = [15, 0]"] ;
762 -> 763 ;
764 [label="X[0] <= 2.915\ngini = 0.278\nsamples = 6\nvalue = [5, 1]"] ;
762 -> 764 ;
765 [label="X[0] <= 2.88\ngini = 0.444\nsamples = 3\nvalue = [2, 1]"] ;
764 -> 765 ;
766 [label="gini = 0.0\nsamples = 2\nvalue = [2, 0]"] ;
765 -> 766 ;
767 [label="gini = 0.0\nsamples = 1\nvalue = [0, 1]"] ;
765 -> 767 ;
768 [label="gini = 0.0\nsamples = 3\nvalue = [3, 0]"] ;
764 -> 768 ;
769 [label="X[1156] <= 0.5\ngini = 0.466\nsamples = 65\nvalue = [24, 41]"] ;
619 -> 769 ;
770 [label="gini = 0.0\nsamples = 10\nvalue = [0, 10]"] ;
769 -> 770 ;
771 [label="X[0] <= 1.215\ngini = 0.492\nsamples = 55\nvalue = [24, 31]"] ;
769 -> 771 ;
772 [label="X[0] <= 1.045\ngini = 0.426\nsamples = 13\nvalue = [9, 4]"] ;
771 -> 772 ;
773 [label="X[0] <= 0.355\ngini = 0.48\nsamples = 10\nvalue = [6, 4]"] ;
772 -> 773 ;
774 [label="gini = 0.0\nsamples = 2\nvalue = [2, 0]"] ;
773 -> 774 ;
775 [label="X[0] <= 0.375\ngini = 0.5\nsamples = 8\nvalue = [4, 4]"] ;
773 -> 775 ;
776 [label="gini = 0.0\nsamples = 1\nvalue = [0, 1]"] ;
775 -> 776 ;
777 [label="X[0] <= 0.985\ngini = 0.49\nsamples = 7\nvalue = [4, 3]"] ;
775 -> 777 ;
778 [label="X[0] <= 0.57\ngini = 0.444\nsamples = 6\nvalue = [4, 2]"] ;
777 -> 778 ;
779 [label="X[0] <= 0.415\ngini = 0.5\nsamples = 4\nvalue = [2, 2]"] ;
778 -> 779 ;
780 [label="gini = 0.0\nsamples = 1\nvalue = [1, 0]"] ;
779 -> 780 ;
781 [label="X[0] <= 0.46\ngini = 0.444\nsamples = 3\nvalue = [1, 2]"] ;
779 -> 781 ;
782 [label="gini = 0.0\nsamples = 1\nvalue = [0, 1]"] ;
781 -> 782 ;
783 [label="X[0] <= 0.49\ngini = 0.5\nsamples = 2\nvalue = [1, 1]"] ;
781 -> 783 ;
784 [label="gini = 0.0\nsamples = 1\nvalue = [1, 0]"] ;
783 -> 784 ;
785 [label="gini = 0.0\nsamples = 1\nvalue = [0, 1]"] ;
783 -> 785 ;
786 [label="gini = 0.0\nsamples = 2\nvalue = [2, 0]"] ;
778 -> 786 ;
787 [label="gini = 0.0\nsamples = 1\nvalue = [0, 1]"] ;
777 -> 787 ;
788 [label="gini = 0.0\nsamples = 3\nvalue = [3, 0]"] ;
772 -> 788 ;
789 [label="X[0] <= 2.755\ngini = 0.459\nsamples = 42\nvalue = [15, 27]"] ;
771 -> 789 ;
790 [label="X[0] <= 2.64\ngini = 0.432\nsamples = 38\nvalue = [12, 26]"] ;
789 -> 790 ;
791 [label="X[0] <= 1.86\ngini = 0.469\nsamples = 32\nvalue = [12, 20]"] ;
790 -> 791 ;
792 [label="X[0] <= 1.37\ngini = 0.219\nsamples = 8\nvalue = [1, 7]"] ;
791 -> 792 ;
793 [label="X[0] <= 1.355\ngini = 0.444\nsamples = 3\nvalue = [1, 2]"] ;
792 -> 793 ;
794 [label="gini = 0.0\nsamples = 1\nvalue = [0, 1]"] ;
793 -> 794 ;
795 [label="gini = 0.5\nsamples = 2\nvalue = [1, 1]"] ;
793 -> 795 ;
796 [label="gini = 0.0\nsamples = 5\nvalue = [0, 5]"] ;
792 -> 796 ;
797 [label="X[0] <= 2.455\ngini = 0.497\nsamples = 24\nvalue = [11, 13]"] ;
791 -> 797 ;
798 [label="gini = 0.0\nsamples = 4\nvalue = [4, 0]"] ;
797 -> 798 ;
799 [label="X[0] <= 2.54\ngini = 0.455\nsamples = 20\nvalue = [7, 13]"] ;
797 -> 799 ;
800 [label="gini = 0.0\nsamples = 7\nvalue = [0, 7]"] ;
799 -> 800 ;
801 [label="X[0] <= 2.615\ngini = 0.497\nsamples = 13\nvalue = [7, 6]"] ;
799 -> 801 ;
802 [label="X[0] <= 2.595\ngini = 0.5\nsamples = 12\nvalue = [6, 6]"] ;
801 -> 802 ;
803 [label="X[0] <= 2.57\ngini = 0.496\nsamples = 11\nvalue = [6, 5]"] ;
802 -> 803 ;
804 [label="gini = 0.49\nsamples = 7\nvalue = [3, 4]"] ;
803 -> 804 ;
805 [label="gini = 0.375\nsamples = 4\nvalue = [3, 1]"] ;
803 -> 805 ;
806 [label="gini = 0.0\nsamples = 1\nvalue = [0, 1]"] ;
802 -> 806 ;
807 [label="gini = 0.0\nsamples = 1\nvalue = [1, 0]"] ;
801 -> 807 ;
808 [label="gini = 0.0\nsamples = 6\nvalue = [0, 6]"] ;
790 -> 808 ;
809 [label="X[0] <= 2.815\ngini = 0.375\nsamples = 4\nvalue = [3, 1]"] ;
789 -> 809 ;
810 [label="gini = 0.0\nsamples = 2\nvalue = [2, 0]"] ;
809 -> 810 ;
811 [label="X[0] <= 2.895\ngini = 0.5\nsamples = 2\nvalue = [1, 1]"] ;
809 -> 811 ;
812 [label="gini = 0.0\nsamples = 1\nvalue = [0, 1]"] ;
811 -> 812 ;
813 [label="gini = 0.0\nsamples = 1\nvalue = [1, 0]"] ;
811 -> 813 ;
814 [label="X[0] <= 2.795\ngini = 0.498\nsamples = 387\nvalue = [182, 205]"] ;
618 -> 814 ;
815 [label="X[0] <= 2.115\ngini = 0.495\nsamples = 365\nvalue = [164, 201]"] ;
814 -> 815 ;
816 [label="X[0] <= 2.055\ngini = 0.5\nsamples = 243\nvalue = [118, 125]"] ;
815 -> 816 ;
817 [label="X[0] <= 2.03\ngini = 0.499\nsamples = 239\nvalue = [114, 125]"] ;
816 -> 817 ;
818 [label="X[0] <= 1.945\ngini = 0.5\nsamples = 234\nvalue = [114, 120]"] ;
817 -> 818 ;
819 [label="X[0] <= 1.8\ngini = 0.499\nsamples = 227\nvalue = [108, 119]"] ;
818 -> 819 ;
820 [label="X[0] <= 1.7\ngini = 0.5\nsamples = 215\nvalue = [105, 110]"] ;
819 -> 820 ;
821 [label="X[0] <= 1.61\ngini = 0.498\nsamples = 202\nvalue = [95, 107]"] ;
820 -> 821 ;
822 [label="X[0] <= 0.615\ngini = 0.5\nsamples = 189\nvalue = [92, 97]"] ;
821 -> 822 ;
823 [label="X[0] <= 0.405\ngini = 0.486\nsamples = 89\nvalue = [37, 52]"] ;
822 -> 823 ;
824 [label="X[0] <= 0.385\ngini = 0.497\nsamples = 48\nvalue = [26, 22]"] ;
823 -> 824 ;
825 [label="gini = 0.5\nsamples = 39\nvalue = [19, 20]"] ;
824 -> 825 ;
826 [label="gini = 0.346\nsamples = 9\nvalue = [7, 2]"] ;
824 -> 826 ;
827 [label="X[1156] <= 0.5\ngini = 0.393\nsamples = 41\nvalue = [11, 30]"] ;
823 -> 827 ;
828 [label="gini = 0.153\nsamples = 12\nvalue = [1, 11]"] ;
827 -> 828 ;
829 [label="gini = 0.452\nsamples = 29\nvalue = [10, 19]"] ;
827 -> 829 ;
830 [label="X[0] <= 1.01\ngini = 0.495\nsamples = 100\nvalue = [55, 45]"] ;
822 -> 830 ;
831 [label="X[0] <= 0.735\ngini = 0.411\nsamples = 38\nvalue = [27, 11]"] ;
830 -> 831 ;
832 [label="gini = 0.5\nsamples = 8\nvalue = [4, 4]"] ;
831 -> 832 ;
833 [label="gini = 0.358\nsamples = 30\nvalue = [23, 7]"] ;
831 -> 833 ;
834 [label="X[0] <= 1.43\ngini = 0.495\nsamples = 62\nvalue = [28, 34]"] ;
830 -> 834 ;
835 [label="gini = 0.47\nsamples = 37\nvalue = [14, 23]"] ;
834 -> 835 ;
836 [label="gini = 0.493\nsamples = 25\nvalue = [14, 11]"] ;
834 -> 836 ;
837 [label="X[0] <= 1.655\ngini = 0.355\nsamples = 13\nvalue = [3, 10]"] ;
821 -> 837 ;
838 [label="gini = 0.0\nsamples = 6\nvalue = [0, 6]"] ;
837 -> 838 ;
839 [label="X[0] <= 1.665\ngini = 0.49\nsamples = 7\nvalue = [3, 4]"] ;
837 -> 839 ;
840 [label="gini = 0.0\nsamples = 2\nvalue = [2, 0]"] ;
839 -> 840 ;
841 [label="X[0] <= 1.685\ngini = 0.32\nsamples = 5\nvalue = [1, 4]"] ;
839 -> 841 ;
842 [label="gini = 0.0\nsamples = 3\nvalue = [0, 3]"] ;
841 -> 842 ;
843 [label="gini = 0.5\nsamples = 2\nvalue = [1, 1]"] ;
841 -> 843 ;
844 [label="X[0] <= 1.745\ngini = 0.355\nsamples = 13\nvalue = [10, 3]"] ;
820 -> 844 ;
845 [label="gini = 0.0\nsamples = 3\nvalue = [3, 0]"] ;
844 -> 845 ;
846 [label="X[0] <= 1.76\ngini = 0.42\nsamples = 10\nvalue = [7, 3]"] ;
844 -> 846 ;
847 [label="gini = 0.0\nsamples = 1\nvalue = [0, 1]"] ;
846 -> 847 ;
848 [label="X[0] <= 1.775\ngini = 0.346\nsamples = 9\nvalue = [7, 2]"] ;
846 -> 848 ;
849 [label="X[1156] <= 0.5\ngini = 0.444\nsamples = 3\nvalue = [2, 1]"] ;
848 -> 849 ;
850 [label="gini = 0.5\nsamples = 2\nvalue = [1, 1]"] ;
849 -> 850 ;
851 [label="gini = 0.0\nsamples = 1\nvalue = [1, 0]"] ;
849 -> 851 ;
852 [label="X[0] <= 1.785\ngini = 0.278\nsamples = 6\nvalue = [5, 1]"] ;
848 -> 852 ;
853 [label="gini = 0.0\nsamples = 2\nvalue = [2, 0]"] ;
852 -> 853 ;
854 [label="gini = 0.375\nsamples = 4\nvalue = [3, 1]"] ;
852 -> 854 ;
855 [label="X[0] <= 1.915\ngini = 0.375\nsamples = 12\nvalue = [3, 9]"] ;
819 -> 855 ;
856 [label="X[1190] <= 0.5\ngini = 0.219\nsamples = 8\nvalue = [1, 7]"] ;
855 -> 856 ;
857 [label="gini = 0.0\nsamples = 6\nvalue = [0, 6]"] ;
856 -> 857 ;
858 [label="X[0] <= 1.87\ngini = 0.5\nsamples = 2\nvalue = [1, 1]"] ;
856 -> 858 ;
859 [label="gini = 0.0\nsamples = 1\nvalue = [1, 0]"] ;
858 -> 859 ;
860 [label="gini = 0.0\nsamples = 1\nvalue = [0, 1]"] ;
858 -> 860 ;
861 [label="X[0] <= 1.935\ngini = 0.5\nsamples = 4\nvalue = [2, 2]"] ;
855 -> 861 ;
862 [label="gini = 0.0\nsamples = 2\nvalue = [2, 0]"] ;
861 -> 862 ;
863 [label="gini = 0.0\nsamples = 2\nvalue = [0, 2]"] ;
861 -> 863 ;
864 [label="X[1155] <= 0.5\ngini = 0.245\nsamples = 7\nvalue = [6, 1]"] ;
818 -> 864 ;
865 [label="gini = 0.0\nsamples = 4\nvalue = [4, 0]"] ;
864 -> 865 ;
866 [label="X[0] <= 1.985\ngini = 0.444\nsamples = 3\nvalue = [2, 1]"] ;
864 -> 866 ;
867 [label="gini = 0.5\nsamples = 2\nvalue = [1, 1]"] ;
866 -> 867 ;
868 [label="gini = 0.0\nsamples = 1\nvalue = [1, 0]"] ;
866 -> 868 ;
869 [label="gini = 0.0\nsamples = 5\nvalue = [0, 5]"] ;
817 -> 869 ;
870 [label="gini = 0.0\nsamples = 4\nvalue = [4, 0]"] ;
816 -> 870 ;
871 [label="X[0] <= 2.565\ngini = 0.47\nsamples = 122\nvalue = [46, 76]"] ;
815 -> 871 ;
872 [label="X[0] <= 2.305\ngini = 0.384\nsamples = 54\nvalue = [14, 40]"] ;
871 -> 872 ;
873 [label="gini = 0.0\nsamples = 5\nvalue = [0, 5]"] ;
872 -> 873 ;
874 [label="X[0] <= 2.535\ngini = 0.408\nsamples = 49\nvalue = [14, 35]"] ;
872 -> 874 ;
875 [label="X[0] <= 2.425\ngini = 0.451\nsamples = 35\nvalue = [12, 23]"] ;
874 -> 875 ;
876 [label="X[0] <= 2.355\ngini = 0.355\nsamples = 13\nvalue = [3, 10]"] ;
875 -> 876 ;
877 [label="X[1156] <= 0.5\ngini = 0.5\nsamples = 4\nvalue = [2, 2]"] ;
876 -> 877 ;
878 [label="gini = 0.0\nsamples = 1\nvalue = [1, 0]"] ;
877 -> 878 ;
879 [label="X[0] <= 2.345\ngini = 0.444\nsamples = 3\nvalue = [1, 2]"] ;
877 -> 879 ;
880 [label="gini = 0.5\nsamples = 2\nvalue = [1, 1]"] ;
879 -> 880 ;
881 [label="gini = 0.0\nsamples = 1\nvalue = [0, 1]"] ;
879 -> 881 ;
882 [label="X[0] <= 2.375\ngini = 0.198\nsamples = 9\nvalue = [1, 8]"] ;
876 -> 882 ;
883 [label="gini = 0.0\nsamples = 3\nvalue = [0, 3]"] ;
882 -> 883 ;
884 [label="X[1156] <= 0.5\ngini = 0.278\nsamples = 6\nvalue = [1, 5]"] ;
882 -> 884 ;
885 [label="gini = 0.0\nsamples = 2\nvalue = [0, 2]"] ;
884 -> 885 ;
886 [label="gini = 0.375\nsamples = 4\nvalue = [1, 3]"] ;
884 -> 886 ;
887 [label="X[0] <= 2.445\ngini = 0.483\nsamples = 22\nvalue = [9, 13]"] ;
875 -> 887 ;
888 [label="gini = 0.0\nsamples = 1\nvalue = [1, 0]"] ;
887 -> 888 ;
889 [label="X[1155] <= 0.5\ngini = 0.472\nsamples = 21\nvalue = [8, 13]"] ;
887 -> 889 ;
890 [label="X[0] <= 2.515\ngini = 0.48\nsamples = 20\nvalue = [8, 12]"] ;
889 -> 890 ;
891 [label="X[0] <= 2.465\ngini = 0.444\nsamples = 15\nvalue = [5, 10]"] ;
890 -> 891 ;
892 [label="gini = 0.5\nsamples = 2\nvalue = [1, 1]"] ;
891 -> 892 ;
893 [label="X[0] <= 2.48\ngini = 0.426\nsamples = 13\nvalue = [4, 9]"] ;
891 -> 893 ;
894 [label="gini = 0.0\nsamples = 1\nvalue = [0, 1]"] ;
893 -> 894 ;
895 [label="gini = 0.444\nsamples = 12\nvalue = [4, 8]"] ;
893 -> 895 ;
896 [label="X[0] <= 2.525\ngini = 0.48\nsamples = 5\nvalue = [3, 2]"] ;
890 -> 896 ;
897 [label="gini = 0.444\nsamples = 3\nvalue = [2, 1]"] ;
896 -> 897 ;
898 [label="gini = 0.5\nsamples = 2\nvalue = [1, 1]"] ;
896 -> 898 ;
899 [label="gini = 0.0\nsamples = 1\nvalue = [0, 1]"] ;
889 -> 899 ;
900 [label="X[0] <= 2.555\ngini = 0.245\nsamples = 14\nvalue = [2, 12]"] ;
874 -> 900 ;
901 [label="X[1156] <= 0.5\ngini = 0.298\nsamples = 11\nvalue = [2, 9]"] ;
900 -> 901 ;
902 [label="gini = 0.0\nsamples = 1\nvalue = [0, 1]"] ;
901 -> 902 ;
903 [label="X[0] <= 2.545\ngini = 0.32\nsamples = 10\nvalue = [2, 8]"] ;
901 -> 903 ;
904 [label="gini = 0.32\nsamples = 5\nvalue = [1, 4]"] ;
903 -> 904 ;
905 [label="gini = 0.32\nsamples = 5\nvalue = [1, 4]"] ;
903 -> 905 ;
906 [label="gini = 0.0\nsamples = 3\nvalue = [0, 3]"] ;
900 -> 906 ;
907 [label="X[0] <= 2.585\ngini = 0.498\nsamples = 68\nvalue = [32, 36]"] ;
871 -> 907 ;
908 [label="X[0] <= 2.575\ngini = 0.278\nsamples = 6\nvalue = [5, 1]"] ;
907 -> 908 ;
909 [label="gini = 0.444\nsamples = 3\nvalue = [2, 1]"] ;
908 -> 909 ;
910 [label="gini = 0.0\nsamples = 3\nvalue = [3, 0]"] ;
908 -> 910 ;
911 [label="X[0] <= 2.665\ngini = 0.492\nsamples = 62\nvalue = [27, 35]"] ;
907 -> 911 ;
912 [label="X[0] <= 2.645\ngini = 0.463\nsamples = 22\nvalue = [8, 14]"] ;
911 -> 912 ;
913 [label="X[0] <= 2.63\ngini = 0.497\nsamples = 13\nvalue = [6, 7]"] ;
912 -> 913 ;
914 [label="X[0] <= 2.615\ngini = 0.486\nsamples = 12\nvalue = [5, 7]"] ;
913 -> 914 ;
915 [label="X[0] <= 2.595\ngini = 0.496\nsamples = 11\nvalue = [5, 6]"] ;
914 -> 915 ;
916 [label="gini = 0.5\nsamples = 4\nvalue = [2, 2]"] ;
915 -> 916 ;
917 [label="X[0] <= 2.605\ngini = 0.49\nsamples = 7\nvalue = [3, 4]"] ;
915 -> 917 ;
918 [label="gini = 0.48\nsamples = 5\nvalue = [2, 3]"] ;
917 -> 918 ;
919 [label="gini = 0.5\nsamples = 2\nvalue = [1, 1]"] ;
917 -> 919 ;
920 [label="gini = 0.0\nsamples = 1\nvalue = [0, 1]"] ;
914 -> 920 ;
921 [label="gini = 0.0\nsamples = 1\nvalue = [1, 0]"] ;
913 -> 921 ;
922 [label="X[0] <= 2.655\ngini = 0.346\nsamples = 9\nvalue = [2, 7]"] ;
912 -> 922 ;
923 [label="X[1156] <= 0.5\ngini = 0.408\nsamples = 7\nvalue = [2, 5]"] ;
922 -> 923 ;
924 [label="gini = 0.0\nsamples = 1\nvalue = [0, 1]"] ;
923 -> 924 ;
925 [label="gini = 0.444\nsamples = 6\nvalue = [2, 4]"] ;
923 -> 925 ;
926 [label="gini = 0.0\nsamples = 2\nvalue = [0, 2]"] ;
922 -> 926 ;
927 [label="X[0] <= 2.685\ngini = 0.499\nsamples = 40\nvalue = [19, 21]"] ;
911 -> 927 ;
928 [label="X[0] <= 2.675\ngini = 0.375\nsamples = 4\nvalue = [3, 1]"] ;
927 -> 928 ;
929 [label="gini = 0.444\nsamples = 3\nvalue = [2, 1]"] ;
928 -> 929 ;
930 [label="gini = 0.0\nsamples = 1\nvalue = [1, 0]"] ;
928 -> 930 ;
931 [label="X[1190] <= 0.5\ngini = 0.494\nsamples = 36\nvalue = [16, 20]"] ;
927 -> 931 ;
932 [label="X[0] <= 2.765\ngini = 0.496\nsamples = 35\nvalue = [16, 19]"] ;
931 -> 932 ;
933 [label="X[0] <= 2.745\ngini = 0.499\nsamples = 29\nvalue = [14, 15]"] ;
932 -> 933 ;
934 [label="X[0] <= 2.735\ngini = 0.488\nsamples = 19\nvalue = [8, 11]"] ;
933 -> 934 ;
935 [label="X[0] <= 2.725\ngini = 0.5\nsamples = 14\nvalue = [7, 7]"] ;
934 -> 935 ;
936 [label="gini = 0.48\nsamples = 10\nvalue = [4, 6]"] ;
935 -> 936 ;
937 [label="gini = 0.375\nsamples = 4\nvalue = [3, 1]"] ;
935 -> 937 ;
938 [label="X[1155] <= 0.5\ngini = 0.32\nsamples = 5\nvalue = [1, 4]"] ;
934 -> 938 ;
939 [label="gini = 0.375\nsamples = 4\nvalue = [1, 3]"] ;
938 -> 939 ;
940 [label="gini = 0.0\nsamples = 1\nvalue = [0, 1]"] ;
938 -> 940 ;
941 [label="X[1155] <= 0.5\ngini = 0.48\nsamples = 10\nvalue = [6, 4]"] ;
933 -> 941 ;
942 [label="X[0] <= 2.755\ngini = 0.494\nsamples = 9\nvalue = [5, 4]"] ;
941 -> 942 ;
943 [label="gini = 0.5\nsamples = 4\nvalue = [2, 2]"] ;
942 -> 943 ;
944 [label="gini = 0.48\nsamples = 5\nvalue = [3, 2]"] ;
942 -> 944 ;
945 [label="gini = 0.0\nsamples = 1\nvalue = [1, 0]"] ;
941 -> 945 ;
946 [label="X[0] <= 2.78\ngini = 0.444\nsamples = 6\nvalue = [2, 4]"] ;
932 -> 946 ;
947 [label="gini = 0.0\nsamples = 1\nvalue = [0, 1]"] ;
946 -> 947 ;
948 [label="gini = 0.48\nsamples = 5\nvalue = [2, 3]"] ;
946 -> 948 ;
949 [label="gini = 0.0\nsamples = 1\nvalue = [0, 1]"] ;
931 -> 949 ;
950 [label="X[1155] <= 0.5\ngini = 0.298\nsamples = 22\nvalue = [18, 4]"] ;
814 -> 950 ;
951 [label="X[0] <= 2.905\ngini = 0.245\nsamples = 21\nvalue = [18, 3]"] ;
950 -> 951 ;
952 [label="X[0] <= 2.835\ngini = 0.124\nsamples = 15\nvalue = [14, 1]"] ;
951 -> 952 ;
953 [label="X[0] <= 2.815\ngini = 0.245\nsamples = 7\nvalue = [6, 1]"] ;
952 -> 953 ;
954 [label="gini = 0.0\nsamples = 6\nvalue = [6, 0]"] ;
953 -> 954 ;
955 [label="gini = 0.0\nsamples = 1\nvalue = [0, 1]"] ;
953 -> 955 ;
956 [label="gini = 0.0\nsamples = 8\nvalue = [8, 0]"] ;
952 -> 956 ;
957 [label="X[0] <= 2.945\ngini = 0.444\nsamples = 6\nvalue = [4, 2]"] ;
951 -> 957 ;
958 [label="X[0] <= 2.93\ngini = 0.48\nsamples = 5\nvalue = [3, 2]"] ;
957 -> 958 ;
959 [label="X[0] <= 2.915\ngini = 0.375\nsamples = 4\nvalue = [3, 1]"] ;
958 -> 959 ;
960 [label="gini = 0.5\nsamples = 2\nvalue = [1, 1]"] ;
959 -> 960 ;
961 [label="gini = 0.0\nsamples = 2\nvalue = [2, 0]"] ;
959 -> 961 ;
962 [label="gini = 0.0\nsamples = 1\nvalue = [0, 1]"] ;
958 -> 962 ;
963 [label="gini = 0.0\nsamples = 1\nvalue = [1, 0]"] ;
957 -> 963 ;
964 [label="gini = 0.0\nsamples = 1\nvalue = [0, 1]"] ;
950 -> 964 ;
965 [label="X[1156] <= 0.5\ngini = 0.491\nsamples = 490\nvalue = [213, 277]"] ;
617 -> 965 ;
966 [label="X[0] <= 1.435\ngini = 0.358\nsamples = 90\nvalue = [21, 69]"] ;
965 -> 966 ;
967 [label="X[0] <= 0.66\ngini = 0.461\nsamples = 50\nvalue = [18, 32]"] ;
966 -> 967 ;
968 [label="X[1190] <= 0.5\ngini = 0.34\nsamples = 23\nvalue = [5, 18]"] ;
967 -> 968 ;
969 [label="gini = 0.0\nsamples = 10\nvalue = [0, 10]"] ;
968 -> 969 ;
970 [label="X[0] <= 0.615\ngini = 0.473\nsamples = 13\nvalue = [5, 8]"] ;
968 -> 970 ;
971 [label="X[0] <= 0.58\ngini = 0.496\nsamples = 11\nvalue = [5, 6]"] ;
970 -> 971 ;
972 [label="X[0] <= 0.09\ngini = 0.48\nsamples = 10\nvalue = [4, 6]"] ;
971 -> 972 ;
973 [label="gini = 0.0\nsamples = 1\nvalue = [0, 1]"] ;
972 -> 973 ;
974 [label="X[0] <= 0.265\ngini = 0.494\nsamples = 9\nvalue = [4, 5]"] ;
972 -> 974 ;
975 [label="gini = 0.0\nsamples = 1\nvalue = [1, 0]"] ;
974 -> 975 ;
976 [label="X[0] <= 0.465\ngini = 0.469\nsamples = 8\nvalue = [3, 5]"] ;
974 -> 976 ;
977 [label="gini = 0.0\nsamples = 2\nvalue = [0, 2]"] ;
976 -> 977 ;
978 [label="X[0] <= 0.53\ngini = 0.5\nsamples = 6\nvalue = [3, 3]"] ;
976 -> 978 ;
979 [label="gini = 0.5\nsamples = 2\nvalue = [1, 1]"] ;
978 -> 979 ;
980 [label="X[0] <= 0.555\ngini = 0.5\nsamples = 4\nvalue = [2, 2]"] ;
978 -> 980 ;
981 [label="gini = 0.5\nsamples = 2\nvalue = [1, 1]"] ;
980 -> 981 ;
982 [label="gini = 0.5\nsamples = 2\nvalue = [1, 1]"] ;
980 -> 982 ;
983 [label="gini = 0.0\nsamples = 1\nvalue = [1, 0]"] ;
971 -> 983 ;
984 [label="gini = 0.0\nsamples = 2\nvalue = [0, 2]"] ;
970 -> 984 ;
985 [label="X[0] <= 1.355\ngini = 0.499\nsamples = 27\nvalue = [13, 14]"] ;
967 -> 985 ;
986 [label="X[0] <= 0.85\ngini = 0.495\nsamples = 20\nvalue = [11, 9]"] ;
985 -> 986 ;
987 [label="X[0] <= 0.77\ngini = 0.486\nsamples = 12\nvalue = [5, 7]"] ;
986 -> 987 ;
988 [label="X[0] <= 0.705\ngini = 0.494\nsamples = 9\nvalue = [5, 4]"] ;
987 -> 988 ;
989 [label="X[0] <= 0.68\ngini = 0.375\nsamples = 4\nvalue = [3, 1]"] ;
988 -> 989 ;
990 [label="gini = 0.5\nsamples = 2\nvalue = [1, 1]"] ;
989 -> 990 ;
991 [label="gini = 0.0\nsamples = 2\nvalue = [2, 0]"] ;
989 -> 991 ;
992 [label="X[0] <= 0.735\ngini = 0.48\nsamples = 5\nvalue = [2, 3]"] ;
988 -> 992 ;
993 [label="gini = 0.0\nsamples = 2\nvalue = [0, 2]"] ;
992 -> 993 ;
994 [label="X[0] <= 0.745\ngini = 0.444\nsamples = 3\nvalue = [2, 1]"] ;
992 -> 994 ;
995 [label="gini = 0.0\nsamples = 1\nvalue = [1, 0]"] ;
994 -> 995 ;
996 [label="gini = 0.5\nsamples = 2\nvalue = [1, 1]"] ;
994 -> 996 ;
997 [label="gini = 0.0\nsamples = 3\nvalue = [0, 3]"] ;
987 -> 997 ;
998 [label="X[1190] <= 0.5\ngini = 0.375\nsamples = 8\nvalue = [6, 2]"] ;
986 -> 998 ;
999 [label="gini = 0.0\nsamples = 5\nvalue = [5, 0]"] ;
998 -> 999 ;
1000 [label="X[0] <= 0.99\ngini = 0.444\nsamples = 3\nvalue = [1, 2]"] ;
998 -> 1000 ;
1001 [label="gini = 0.0\nsamples = 1\nvalue = [1, 0]"] ;
1000 -> 1001 ;
1002 [label="gini = 0.0\nsamples = 2\nvalue = [0, 2]"] ;
1000 -> 1002 ;
1003 [label="X[0] <= 1.415\ngini = 0.408\nsamples = 7\nvalue = [2, 5]"] ;
985 -> 1003 ;
1004 [label="X[0] <= 1.38\ngini = 0.278\nsamples = 6\nvalue = [1, 5]"] ;
1003 -> 1004 ;
1005 [label="gini = 0.0\nsamples = 3\nvalue = [0, 3]"] ;
1004 -> 1005 ;
1006 [label="X[0] <= 1.395\ngini = 0.444\nsamples = 3\nvalue = [1, 2]"] ;
1004 -> 1006 ;
1007 [label="gini = 0.0\nsamples = 1\nvalue = [1, 0]"] ;
1006 -> 1007 ;
1008 [label="gini = 0.0\nsamples = 2\nvalue = [0, 2]"] ;
1006 -> 1008 ;
1009 [label="gini = 0.0\nsamples = 1\nvalue = [1, 0]"] ;
1003 -> 1009 ;
1010 [label="X[0] <= 2.08\ngini = 0.139\nsamples = 40\nvalue = [3, 37]"] ;
966 -> 1010 ;
1011 [label="X[0] <= 1.815\ngini = 0.219\nsamples = 24\nvalue = [3, 21]"] ;
1010 -> 1011 ;
1012 [label="gini = 0.0\nsamples = 14\nvalue = [0, 14]"] ;
1011 -> 1012 ;
1013 [label="X[0] <= 1.88\ngini = 0.42\nsamples = 10\nvalue = [3, 7]"] ;
1011 -> 1013 ;
1014 [label="gini = 0.0\nsamples = 1\nvalue = [1, 0]"] ;
1013 -> 1014 ;
1015 [label="X[0] <= 2.06\ngini = 0.346\nsamples = 9\nvalue = [2, 7]"] ;
1013 -> 1015 ;
1016 [label="X[0] <= 1.915\ngini = 0.245\nsamples = 7\nvalue = [1, 6]"] ;
1015 -> 1016 ;
1017 [label="gini = 0.444\nsamples = 3\nvalue = [1, 2]"] ;
1016 -> 1017 ;
1018 [label="gini = 0.0\nsamples = 4\nvalue = [0, 4]"] ;
1016 -> 1018 ;
1019 [label="gini = 0.5\nsamples = 2\nvalue = [1, 1]"] ;
1015 -> 1019 ;
1020 [label="gini = 0.0\nsamples = 16\nvalue = [0, 16]"] ;
1010 -> 1020 ;
1021 [label="X[0] <= 2.14\ngini = 0.499\nsamples = 400\nvalue = [192, 208]"] ;
965 -> 1021 ;
1022 [label="X[0] <= 1.945\ngini = 0.498\nsamples = 216\nvalue = [114, 102]"] ;
1021 -> 1022 ;
1023 [label="X[0] <= 1.535\ngini = 0.5\nsamples = 203\nvalue = [102, 101]"] ;
1022 -> 1023 ;
1024 [label="X[0] <= 0.635\ngini = 0.499\nsamples = 179\nvalue = [94, 85]"] ;
1023 -> 1024 ;
1025 [label="X[0] <= 0.465\ngini = 0.491\nsamples = 88\nvalue = [38, 50]"] ;
1024 -> 1025 ;
1026 [label="X[0] <= 0.025\ngini = 0.5\nsamples = 63\nvalue = [32, 31]"] ;
1025 -> 1026 ;
1027 [label="gini = 0.0\nsamples = 3\nvalue = [0, 3]"] ;
1026 -> 1027 ;
1028 [label="X[0] <= 0.05\ngini = 0.498\nsamples = 60\nvalue = [32, 28]"] ;
1026 -> 1028 ;
1029 [label="gini = 0.0\nsamples = 3\nvalue = [3, 0]"] ;
1028 -> 1029 ;
1030 [label="X[0] <= 0.075\ngini = 0.5\nsamples = 57\nvalue = [29, 28]"] ;
1028 -> 1030 ;
1031 [label="X[0] <= 0.065\ngini = 0.245\nsamples = 7\nvalue = [1, 6]"] ;
1030 -> 1031 ;
1032 [label="gini = 0.444\nsamples = 3\nvalue = [1, 2]"] ;
1031 -> 1032 ;
1033 [label="gini = 0.0\nsamples = 4\nvalue = [0, 4]"] ;
1031 -> 1033 ;
1034 [label="X[0] <= 0.105\ngini = 0.493\nsamples = 50\nvalue = [28, 22]"] ;
1030 -> 1034 ;
1035 [label="gini = 0.0\nsamples = 2\nvalue = [2, 0]"] ;
1034 -> 1035 ;
1036 [label="X[0] <= 0.335\ngini = 0.497\nsamples = 48\nvalue = [26, 22]"] ;
1034 -> 1036 ;
1037 [label="X[0] <= 0.315\ngini = 0.488\nsamples = 19\nvalue = [8, 11]"] ;
1036 -> 1037 ;
1038 [label="gini = 0.5\nsamples = 16\nvalue = [8, 8]"] ;
1037 -> 1038 ;
1039 [label="gini = 0.0\nsamples = 3\nvalue = [0, 3]"] ;
1037 -> 1039 ;
1040 [label="X[0] <= 0.355\ngini = 0.471\nsamples = 29\nvalue = [18, 11]"] ;
1036 -> 1040 ;
1041 [label="gini = 0.278\nsamples = 6\nvalue = [5, 1]"] ;
1040 -> 1041 ;
1042 [label="gini = 0.491\nsamples = 23\nvalue = [13, 10]"] ;
1040 -> 1042 ;
1043 [label="X[0] <= 0.595\ngini = 0.365\nsamples = 25\nvalue = [6, 19]"] ;
1025 -> 1043 ;
1044 [label="X[0] <= 0.585\ngini = 0.42\nsamples = 20\nvalue = [6, 14]"] ;
1043 -> 1044 ;
1045 [label="X[0] <= 0.495\ngini = 0.388\nsamples = 19\nvalue = [5, 14]"] ;
1044 -> 1045 ;
1046 [label="gini = 0.0\nsamples = 3\nvalue = [0, 3]"] ;
1045 -> 1046 ;
1047 [label="X[0] <= 0.535\ngini = 0.43\nsamples = 16\nvalue = [5, 11]"] ;
1045 -> 1047 ;
1048 [label="X[0] <= 0.505\ngini = 0.48\nsamples = 10\nvalue = [4, 6]"] ;
1047 -> 1048 ;
1049 [label="gini = 0.5\nsamples = 2\nvalue = [1, 1]"] ;
1048 -> 1049 ;
1050 [label="X[0] <= 0.515\ngini = 0.469\nsamples = 8\nvalue = [3, 5]"] ;
1048 -> 1050 ;
1051 [label="gini = 0.444\nsamples = 3\nvalue = [1, 2]"] ;
1050 -> 1051 ;
1052 [label="gini = 0.48\nsamples = 5\nvalue = [2, 3]"] ;
1050 -> 1052 ;
1053 [label="X[0] <= 0.565\ngini = 0.278\nsamples = 6\nvalue = [1, 5]"] ;
1047 -> 1053 ;
1054 [label="gini = 0.0\nsamples = 3\nvalue = [0, 3]"] ;
1053 -> 1054 ;
1055 [label="gini = 0.444\nsamples = 3\nvalue = [1, 2]"] ;
1053 -> 1055 ;
1056 [label="gini = 0.0\nsamples = 1\nvalue = [1, 0]"] ;
1044 -> 1056 ;
1057 [label="gini = 0.0\nsamples = 5\nvalue = [0, 5]"] ;
1043 -> 1057 ;
1058 [label="X[0] <= 0.765\ngini = 0.473\nsamples = 91\nvalue = [56, 35]"] ;
1024 -> 1058 ;
1059 [label="X[0] <= 0.725\ngini = 0.32\nsamples = 15\nvalue = [12, 3]"] ;
1058 -> 1059 ;
1060 [label="X[0] <= 0.695\ngini = 0.397\nsamples = 11\nvalue = [8, 3]"] ;
1059 -> 1060 ;
1061 [label="X[0] <= 0.655\ngini = 0.219\nsamples = 8\nvalue = [7, 1]"] ;
1060 -> 1061 ;
1062 [label="gini = 0.0\nsamples = 3\nvalue = [3, 0]"] ;
1061 -> 1062 ;
1063 [label="X[0] <= 0.665\ngini = 0.32\nsamples = 5\nvalue = [4, 1]"] ;
1061 -> 1063 ;
1064 [label="gini = 0.5\nsamples = 2\nvalue = [1, 1]"] ;
1063 -> 1064 ;
1065 [label="gini = 0.0\nsamples = 3\nvalue = [3, 0]"] ;
1063 -> 1065 ;
1066 [label="X[0] <= 0.705\ngini = 0.444\nsamples = 3\nvalue = [1, 2]"] ;
1060 -> 1066 ;
1067 [label="gini = 0.0\nsamples = 1\nvalue = [0, 1]"] ;
1066 -> 1067 ;
1068 [label="gini = 0.5\nsamples = 2\nvalue = [1, 1]"] ;
1066 -> 1068 ;
1069 [label="gini = 0.0\nsamples = 4\nvalue = [4, 0]"] ;
1059 -> 1069 ;
1070 [label="X[0] <= 0.785\ngini = 0.488\nsamples = 76\nvalue = [44, 32]"] ;
1058 -> 1070 ;
1071 [label="gini = 0.0\nsamples = 3\nvalue = [0, 3]"] ;
1070 -> 1071 ;
1072 [label="X[0] <= 1.255\ngini = 0.479\nsamples = 73\nvalue = [44, 29]"] ;
1070 -> 1072 ;
1073 [label="X[0] <= 0.855\ngini = 0.432\nsamples = 38\nvalue = [26, 12]"] ;
1072 -> 1073 ;
1074 [label="X[0] <= 0.795\ngini = 0.5\nsamples = 12\nvalue = [6, 6]"] ;
1073 -> 1074 ;
1075 [label="gini = 0.0\nsamples = 2\nvalue = [2, 0]"] ;
1074 -> 1075 ;
1076 [label="X[0] <= 0.805\ngini = 0.48\nsamples = 10\nvalue = [4, 6]"] ;
1074 -> 1076 ;
1077 [label="gini = 0.0\nsamples = 1\nvalue = [0, 1]"] ;
1076 -> 1077 ;
1078 [label="X[0] <= 0.815\ngini = 0.494\nsamples = 9\nvalue = [4, 5]"] ;
1076 -> 1078 ;
1079 [label="gini = 0.444\nsamples = 3\nvalue = [2, 1]"] ;
1078 -> 1079 ;
1080 [label="gini = 0.444\nsamples = 6\nvalue = [2, 4]"] ;
1078 -> 1080 ;
1081 [label="X[0] <= 1.08\ngini = 0.355\nsamples = 26\nvalue = [20, 6]"] ;
1073 -> 1081 ;
1082 [label="X[0] <= 1.055\ngini = 0.408\nsamples = 21\nvalue = [15, 6]"] ;
1081 -> 1082 ;
1083 [label="X[0] <= 1.025\ngini = 0.346\nsamples = 18\nvalue = [14, 4]"] ;
1082 -> 1083 ;
1084 [label="gini = 0.426\nsamples = 13\nvalue = [9, 4]"] ;
1083 -> 1084 ;
1085 [label="gini = 0.0\nsamples = 5\nvalue = [5, 0]"] ;
1083 -> 1085 ;
1086 [label="X[0] <= 1.065\ngini = 0.444\nsamples = 3\nvalue = [1, 2]"] ;
1082 -> 1086 ;
1087 [label="gini = 0.0\nsamples = 1\nvalue = [0, 1]"] ;
1086 -> 1087 ;
1088 [label="gini = 0.5\nsamples = 2\nvalue = [1, 1]"] ;
1086 -> 1088 ;
1089 [label="gini = 0.0\nsamples = 5\nvalue = [5, 0]"] ;
1081 -> 1089 ;
1090 [label="X[0] <= 1.31\ngini = 0.5\nsamples = 35\nvalue = [18, 17]"] ;
1072 -> 1090 ;
1091 [label="X[0] <= 1.285\ngini = 0.32\nsamples = 5\nvalue = [1, 4]"] ;
1090 -> 1091 ;
1092 [label="X[0] <= 1.275\ngini = 0.5\nsamples = 2\nvalue = [1, 1]"] ;
1091 -> 1092 ;
1093 [label="gini = 0.0\nsamples = 1\nvalue = [0, 1]"] ;
1092 -> 1093 ;
1094 [label="gini = 0.0\nsamples = 1\nvalue = [1, 0]"] ;
1092 -> 1094 ;
1095 [label="gini = 0.0\nsamples = 3\nvalue = [0, 3]"] ;
1091 -> 1095 ;
1096 [label="X[0] <= 1.325\ngini = 0.491\nsamples = 30\nvalue = [17, 13]"] ;
1090 -> 1096 ;
1097 [label="gini = 0.0\nsamples = 4\nvalue = [4, 0]"] ;
1096 -> 1097 ;
1098 [label="X[0] <= 1.345\ngini = 0.5\nsamples = 26\nvalue = [13, 13]"] ;
1096 -> 1098 ;
1099 [label="gini = 0.0\nsamples = 2\nvalue = [0, 2]"] ;
1098 -> 1099 ;
1100 [label="X[0] <= 1.485\ngini = 0.497\nsamples = 24\nvalue = [13, 11]"] ;
1098 -> 1100 ;
1101 [label="gini = 0.48\nsamples = 15\nvalue = [9, 6]"] ;
1100 -> 1101 ;
1102 [label="gini = 0.494\nsamples = 9\nvalue = [4, 5]"] ;
1100 -> 1102 ;
1103 [label="X[0] <= 1.595\ngini = 0.444\nsamples = 24\nvalue = [8, 16]"] ;
1023 -> 1103 ;
1104 [label="X[0] <= 1.555\ngini = 0.245\nsamples = 7\nvalue = [1, 6]"] ;
1103 -> 1104 ;
1105 [label="gini = 0.0\nsamples = 2\nvalue = [0, 2]"] ;
1104 -> 1105 ;
1106 [label="X[0] <= 1.565\ngini = 0.32\nsamples = 5\nvalue = [1, 4]"] ;
1104 -> 1106 ;
1107 [label="gini = 0.444\nsamples = 3\nvalue = [1, 2]"] ;
1106 -> 1107 ;
1108 [label="gini = 0.0\nsamples = 2\nvalue = [0, 2]"] ;
1106 -> 1108 ;
1109 [label="X[0] <= 1.68\ngini = 0.484\nsamples = 17\nvalue = [7, 10]"] ;
1103 -> 1109 ;
1110 [label="X[0] <= 1.635\ngini = 0.375\nsamples = 4\nvalue = [3, 1]"] ;
1109 -> 1110 ;
1111 [label="X[0] <= 1.62\ngini = 0.5\nsamples = 2\nvalue = [1, 1]"] ;
1110 -> 1111 ;
1112 [label="gini = 0.0\nsamples = 1\nvalue = [1, 0]"] ;
1111 -> 1112 ;
1113 [label="gini = 0.0\nsamples = 1\nvalue = [0, 1]"] ;
1111 -> 1113 ;
1114 [label="gini = 0.0\nsamples = 2\nvalue = [2, 0]"] ;
1110 -> 1114 ;
1115 [label="X[0] <= 1.81\ngini = 0.426\nsamples = 13\nvalue = [4, 9]"] ;
1109 -> 1115 ;
1116 [label="gini = 0.0\nsamples = 5\nvalue = [0, 5]"] ;
1115 -> 1116 ;
1117 [label="X[0] <= 1.84\ngini = 0.5\nsamples = 8\nvalue = [4, 4]"] ;
1115 -> 1117 ;
1118 [label="gini = 0.0\nsamples = 2\nvalue = [2, 0]"] ;
1117 -> 1118 ;
1119 [label="X[0] <= 1.915\ngini = 0.444\nsamples = 6\nvalue = [2, 4]"] ;
1117 -> 1119 ;
1120 [label="X[0] <= 1.855\ngini = 0.5\nsamples = 4\nvalue = [2, 2]"] ;
1119 -> 1120 ;
1121 [label="gini = 0.0\nsamples = 1\nvalue = [0, 1]"] ;
1120 -> 1121 ;
1122 [label="X[0] <= 1.87\ngini = 0.444\nsamples = 3\nvalue = [2, 1]"] ;
1120 -> 1122 ;
1123 [label="gini = 0.0\nsamples = 1\nvalue = [1, 0]"] ;
1122 -> 1123 ;
1124 [label="X[0] <= 1.895\ngini = 0.5\nsamples = 2\nvalue = [1, 1]"] ;
1122 -> 1124 ;
1125 [label="gini = 0.0\nsamples = 1\nvalue = [0, 1]"] ;
1124 -> 1125 ;
1126 [label="gini = 0.0\nsamples = 1\nvalue = [1, 0]"] ;
1124 -> 1126 ;
1127 [label="gini = 0.0\nsamples = 2\nvalue = [0, 2]"] ;
1119 -> 1127 ;
1128 [label="X[0] <= 2.025\ngini = 0.142\nsamples = 13\nvalue = [12, 1]"] ;
1022 -> 1128 ;
1129 [label="gini = 0.0\nsamples = 6\nvalue = [6, 0]"] ;
1128 -> 1129 ;
1130 [label="X[0] <= 2.04\ngini = 0.245\nsamples = 7\nvalue = [6, 1]"] ;
1128 -> 1130 ;
1131 [label="gini = 0.5\nsamples = 2\nvalue = [1, 1]"] ;
1130 -> 1131 ;
1132 [label="gini = 0.0\nsamples = 5\nvalue = [5, 0]"] ;
1130 -> 1132 ;
1133 [label="X[0] <= 2.735\ngini = 0.488\nsamples = 184\nvalue = [78, 106]"] ;
1021 -> 1133 ;
1134 [label="X[0] <= 2.665\ngini = 0.472\nsamples = 136\nvalue = [52, 84]"] ;
1133 -> 1134 ;
1135 [label="X[0] <= 2.22\ngini = 0.486\nsamples = 113\nvalue = [47, 66]"] ;
1134 -> 1135 ;
1136 [label="gini = 0.0\nsamples = 4\nvalue = [0, 4]"] ;
1135 -> 1136 ;
1137 [label="X[0] <= 2.655\ngini = 0.491\nsamples = 109\nvalue = [47, 62]"] ;
1135 -> 1137 ;
1138 [label="X[0] <= 2.305\ngini = 0.487\nsamples = 107\nvalue = [45, 62]"] ;
1137 -> 1138 ;
1139 [label="X[0] <= 2.265\ngini = 0.375\nsamples = 4\nvalue = [3, 1]"] ;
1138 -> 1139 ;
1140 [label="X[0] <= 2.24\ngini = 0.5\nsamples = 2\nvalue = [1, 1]"] ;
1139 -> 1140 ;
1141 [label="gini = 0.0\nsamples = 1\nvalue = [1, 0]"] ;
1140 -> 1141 ;
1142 [label="gini = 0.0\nsamples = 1\nvalue = [0, 1]"] ;
1140 -> 1142 ;
1143 [label="gini = 0.0\nsamples = 2\nvalue = [2, 0]"] ;
1139 -> 1143 ;
1144 [label="X[0] <= 2.525\ngini = 0.483\nsamples = 103\nvalue = [42, 61]"] ;
1138 -> 1144 ;
1145 [label="X[0] <= 2.485\ngini = 0.498\nsamples = 34\nvalue = [16, 18]"] ;
1144 -> 1145 ;
1146 [label="X[0] <= 2.355\ngini = 0.463\nsamples = 22\nvalue = [8, 14]"] ;
1145 -> 1146 ;
1147 [label="X[0] <= 2.335\ngini = 0.5\nsamples = 8\nvalue = [4, 4]"] ;
1146 -> 1147 ;
1148 [label="X[0] <= 2.325\ngini = 0.375\nsamples = 4\nvalue = [1, 3]"] ;
1147 -> 1148 ;
1149 [label="gini = 0.5\nsamples = 2\nvalue = [1, 1]"] ;
1148 -> 1149 ;
1150 [label="gini = 0.0\nsamples = 2\nvalue = [0, 2]"] ;
1148 -> 1150 ;
1151 [label="X[0] <= 2.345\ngini = 0.375\nsamples = 4\nvalue = [3, 1]"] ;
1147 -> 1151 ;
1152 [label="gini = 0.0\nsamples = 1\nvalue = [1, 0]"] ;
1151 -> 1152 ;
1153 [label="gini = 0.444\nsamples = 3\nvalue = [2, 1]"] ;
1151 -> 1153 ;
1154 [label="X[0] <= 2.395\ngini = 0.408\nsamples = 14\nvalue = [4, 10]"] ;
1146 -> 1154 ;
1155 [label="gini = 0.0\nsamples = 4\nvalue = [0, 4]"] ;
1154 -> 1155 ;
1156 [label="X[0] <= 2.41\ngini = 0.48\nsamples = 10\nvalue = [4, 6]"] ;
1154 -> 1156 ;
1157 [label="gini = 0.0\nsamples = 1\nvalue = [1, 0]"] ;
1156 -> 1157 ;
1158 [label="gini = 0.444\nsamples = 9\nvalue = [3, 6]"] ;
1156 -> 1158 ;
1159 [label="X[0] <= 2.505\ngini = 0.444\nsamples = 12\nvalue = [8, 4]"] ;
1145 -> 1159 ;
1160 [label="gini = 0.0\nsamples = 2\nvalue = [2, 0]"] ;
1159 -> 1160 ;
1161 [label="X[0] <= 2.515\ngini = 0.48\nsamples = 10\nvalue = [6, 4]"] ;
1159 -> 1161 ;
1162 [label="gini = 0.444\nsamples = 6\nvalue = [4, 2]"] ;
1161 -> 1162 ;
1163 [label="gini = 0.5\nsamples = 4\nvalue = [2, 2]"] ;
1161 -> 1163 ;
1164 [label="X[0] <= 2.635\ngini = 0.47\nsamples = 69\nvalue = [26, 43]"] ;
1144 -> 1164 ;
1165 [label="X[0] <= 2.545\ngini = 0.452\nsamples = 55\nvalue = [19, 36]"] ;
1164 -> 1165 ;
1166 [label="X[0] <= 2.535\ngini = 0.375\nsamples = 8\nvalue = [2, 6]"] ;
1165 -> 1166 ;
1167 [label="gini = 0.375\nsamples = 4\nvalue = [1, 3]"] ;
1166 -> 1167 ;
1168 [label="gini = 0.375\nsamples = 4\nvalue = [1, 3]"] ;
1166 -> 1168 ;
1169 [label="X[0] <= 2.595\ngini = 0.462\nsamples = 47\nvalue = [17, 30]"] ;
1165 -> 1169 ;
1170 [label="X[0] <= 2.585\ngini = 0.49\nsamples = 21\nvalue = [9, 12]"] ;
1169 -> 1170 ;
1171 [label="gini = 0.48\nsamples = 20\nvalue = [8, 12]"] ;
1170 -> 1171 ;
1172 [label="gini = 0.0\nsamples = 1\nvalue = [1, 0]"] ;
1170 -> 1172 ;
1173 [label="X[0] <= 2.605\ngini = 0.426\nsamples = 26\nvalue = [8, 18]"] ;
1169 -> 1173 ;
1174 [label="gini = 0.346\nsamples = 9\nvalue = [2, 7]"] ;
1173 -> 1174 ;
1175 [label="gini = 0.457\nsamples = 17\nvalue = [6, 11]"] ;
1173 -> 1175 ;
1176 [label="X[0] <= 2.645\ngini = 0.5\nsamples = 14\nvalue = [7, 7]"] ;
1164 -> 1176 ;
1177 [label="gini = 0.48\nsamples = 10\nvalue = [6, 4]"] ;
1176 -> 1177 ;
1178 [label="gini = 0.375\nsamples = 4\nvalue = [1, 3]"] ;
1176 -> 1178 ;
1179 [label="gini = 0.0\nsamples = 2\nvalue = [2, 0]"] ;
1137 -> 1179 ;
1180 [label="X[0] <= 2.715\ngini = 0.34\nsamples = 23\nvalue = [5, 18]"] ;
1134 -> 1180 ;
1181 [label="X[0] <= 2.675\ngini = 0.219\nsamples = 16\nvalue = [2, 14]"] ;
1180 -> 1181 ;
1182 [label="gini = 0.32\nsamples = 5\nvalue = [1, 4]"] ;
1181 -> 1182 ;
1183 [label="X[0] <= 2.7\ngini = 0.165\nsamples = 11\nvalue = [1, 10]"] ;
1181 -> 1183 ;
1184 [label="gini = 0.0\nsamples = 6\nvalue = [0, 6]"] ;
1183 -> 1184 ;
1185 [label="gini = 0.32\nsamples = 5\nvalue = [1, 4]"] ;
1183 -> 1185 ;
1186 [label="X[0] <= 2.725\ngini = 0.49\nsamples = 7\nvalue = [3, 4]"] ;
1180 -> 1186 ;
1187 [label="gini = 0.48\nsamples = 5\nvalue = [3, 2]"] ;
1186 -> 1187 ;
1188 [label="gini = 0.0\nsamples = 2\nvalue = [0, 2]"] ;
1186 -> 1188 ;
1189 [label="X[0] <= 2.755\ngini = 0.497\nsamples = 48\nvalue = [26, 22]"] ;
1133 -> 1189 ;
1190 [label="X[0] <= 2.745\ngini = 0.346\nsamples = 9\nvalue = [7, 2]"] ;
1189 -> 1190 ;
1191 [label="gini = 0.444\nsamples = 6\nvalue = [4, 2]"] ;
1190 -> 1191 ;
1192 [label="gini = 0.0\nsamples = 3\nvalue = [3, 0]"] ;
1190 -> 1192 ;
1193 [label="X[0] <= 2.935\ngini = 0.5\nsamples = 39\nvalue = [19, 20]"] ;
1189 -> 1193 ;
1194 [label="X[0] <= 2.815\ngini = 0.497\nsamples = 37\nvalue = [17, 20]"] ;
1193 -> 1194 ;
1195 [label="X[0] <= 2.775\ngini = 0.499\nsamples = 25\nvalue = [13, 12]"] ;
1194 -> 1195 ;
1196 [label="X[0] <= 2.765\ngini = 0.48\nsamples = 10\nvalue = [4, 6]"] ;
1195 -> 1196 ;
1197 [label="gini = 0.48\nsamples = 5\nvalue = [2, 3]"] ;
1196 -> 1197 ;
1198 [label="gini = 0.48\nsamples = 5\nvalue = [2, 3]"] ;
1196 -> 1198 ;
1199 [label="X[0] <= 2.785\ngini = 0.48\nsamples = 15\nvalue = [9, 6]"] ;
1195 -> 1199 ;
1200 [label="gini = 0.0\nsamples = 4\nvalue = [4, 0]"] ;
1199 -> 1200 ;
1201 [label="X[0] <= 2.795\ngini = 0.496\nsamples = 11\nvalue = [5, 6]"] ;
1199 -> 1201 ;
1202 [label="gini = 0.444\nsamples = 6\nvalue = [2, 4]"] ;
1201 -> 1202 ;
1203 [label="X[0] <= 2.805\ngini = 0.48\nsamples = 5\nvalue = [3, 2]"] ;
1201 -> 1203 ;
1204 [label="gini = 0.444\nsamples = 3\nvalue = [2, 1]"] ;
1203 -> 1204 ;
1205 [label="gini = 0.5\nsamples = 2\nvalue = [1, 1]"] ;
1203 -> 1205 ;
1206 [label="X[0] <= 2.845\ngini = 0.444\nsamples = 12\nvalue = [4, 8]"] ;
1194 -> 1206 ;
1207 [label="gini = 0.0\nsamples = 3\nvalue = [0, 3]"] ;
1206 -> 1207 ;
1208 [label="X[0] <= 2.855\ngini = 0.494\nsamples = 9\nvalue = [4, 5]"] ;
1206 -> 1208 ;
1209 [label="gini = 0.0\nsamples = 1\nvalue = [1, 0]"] ;
1208 -> 1209 ;
1210 [label="X[0] <= 2.875\ngini = 0.469\nsamples = 8\nvalue = [3, 5]"] ;
1208 -> 1210 ;
1211 [label="gini = 0.0\nsamples = 2\nvalue = [0, 2]"] ;
1210 -> 1211 ;
1212 [label="X[0] <= 2.9\ngini = 0.5\nsamples = 6\nvalue = [3, 3]"] ;
1210 -> 1212 ;
1213 [label="gini = 0.0\nsamples = 2\nvalue = [2, 0]"] ;
1212 -> 1213 ;
1214 [label="X[0] <= 2.925\ngini = 0.375\nsamples = 4\nvalue = [1, 3]"] ;
1212 -> 1214 ;
1215 [label="gini = 0.0\nsamples = 2\nvalue = [0, 2]"] ;
1214 -> 1215 ;
1216 [label="gini = 0.5\nsamples = 2\nvalue = [1, 1]"] ;
1214 -> 1216 ;
1217 [label="gini = 0.0\nsamples = 2\nvalue = [2, 0]"] ;
1193 -> 1217 ;
1218 [label="X[1021] <= 0.5\ngini = 0.091\nsamples = 210\nvalue = [10, 200]"] ;
12 -> 1218 ;
1219 [label="X[0] <= 2.825\ngini = 0.082\nsamples = 209\nvalue = [9, 200]"] ;
1218 -> 1219 ;
1220 [label="X[1010] <= 0.5\ngini = 0.058\nsamples = 199\nvalue = [6, 193]"] ;
1219 -> 1220 ;
1221 [label="X[1015] <= 0.5\ngini = 0.05\nsamples = 195\nvalue = [5, 190]"] ;
1220 -> 1221 ;
1222 [label="X[0] <= 1.635\ngini = 0.041\nsamples = 191\nvalue = [4, 187]"] ;
1221 -> 1222 ;
1223 [label="X[0] <= 1.625\ngini = 0.064\nsamples = 120\nvalue = [4, 116]"] ;
1222 -> 1223 ;
1224 [label="X[0] <= 0.975\ngini = 0.05\nsamples = 117\nvalue = [3, 114]"] ;
1223 -> 1224 ;
1225 [label="gini = 0.0\nsamples = 59\nvalue = [0, 59]"] ;
1224 -> 1225 ;
1226 [label="X[0] <= 1.0\ngini = 0.098\nsamples = 58\nvalue = [3, 55]"] ;
1224 -> 1226 ;
1227 [label="gini = 0.0\nsamples = 1\nvalue = [1, 0]"] ;
1226 -> 1227 ;
1228 [label="X[0] <= 1.465\ngini = 0.068\nsamples = 57\nvalue = [2, 55]"] ;
1226 -> 1228 ;
1229 [label="X[0] <= 1.455\ngini = 0.111\nsamples = 34\nvalue = [2, 32]"] ;
1228 -> 1229 ;
1230 [label="X[0] <= 1.345\ngini = 0.061\nsamples = 32\nvalue = [1, 31]"] ;
1229 -> 1230 ;
1231 [label="gini = 0.0\nsamples = 16\nvalue = [0, 16]"] ;
1230 -> 1231 ;
1232 [label="X[0] <= 1.365\ngini = 0.117\nsamples = 16\nvalue = [1, 15]"] ;
1230 -> 1232 ;
1233 [label="gini = 0.5\nsamples = 2\nvalue = [1, 1]"] ;
1232 -> 1233 ;
1234 [label="gini = 0.0\nsamples = 14\nvalue = [0, 14]"] ;
1232 -> 1234 ;
1235 [label="X[1003] <= 0.5\ngini = 0.5\nsamples = 2\nvalue = [1, 1]"] ;
1229 -> 1235 ;
1236 [label="gini = 0.0\nsamples = 1\nvalue = [0, 1]"] ;
1235 -> 1236 ;
1237 [label="gini = 0.0\nsamples = 1\nvalue = [1, 0]"] ;
1235 -> 1237 ;
1238 [label="gini = 0.0\nsamples = 23\nvalue = [0, 23]"] ;
1228 -> 1238 ;
1239 [label="X[1003] <= 0.5\ngini = 0.444\nsamples = 3\nvalue = [1, 2]"] ;
1223 -> 1239 ;
1240 [label="gini = 0.0\nsamples = 1\nvalue = [1, 0]"] ;
1239 -> 1240 ;
1241 [label="gini = 0.0\nsamples = 2\nvalue = [0, 2]"] ;
1239 -> 1241 ;
1242 [label="gini = 0.0\nsamples = 71\nvalue = [0, 71]"] ;
1222 -> 1242 ;
1243 [label="X[0] <= 2.115\ngini = 0.375\nsamples = 4\nvalue = [1, 3]"] ;
1221 -> 1243 ;
1244 [label="gini = 0.0\nsamples = 3\nvalue = [0, 3]"] ;
1243 -> 1244 ;
1245 [label="gini = 0.0\nsamples = 1\nvalue = [1, 0]"] ;
1243 -> 1245 ;
1246 [label="X[0] <= 2.345\ngini = 0.375\nsamples = 4\nvalue = [1, 3]"] ;
1220 -> 1246 ;
1247 [label="gini = 0.0\nsamples = 3\nvalue = [0, 3]"] ;
1246 -> 1247 ;
1248 [label="gini = 0.0\nsamples = 1\nvalue = [1, 0]"] ;
1246 -> 1248 ;
1249 [label="X[0] <= 2.835\ngini = 0.42\nsamples = 10\nvalue = [3, 7]"] ;
1219 -> 1249 ;
1250 [label="gini = 0.0\nsamples = 2\nvalue = [2, 0]"] ;
1249 -> 1250 ;
1251 [label="X[1009] <= 0.5\ngini = 0.219\nsamples = 8\nvalue = [1, 7]"] ;
1249 -> 1251 ;
1252 [label="gini = 0.0\nsamples = 5\nvalue = [0, 5]"] ;
1251 -> 1252 ;
1253 [label="X[0] <= 2.905\ngini = 0.444\nsamples = 3\nvalue = [1, 2]"] ;
1251 -> 1253 ;
1254 [label="gini = 0.5\nsamples = 2\nvalue = [1, 1]"] ;
1253 -> 1254 ;
1255 [label="gini = 0.0\nsamples = 1\nvalue = [0, 1]"] ;
1253 -> 1255 ;
1256 [label="gini = 0.0\nsamples = 1\nvalue = [1, 0]"] ;
1218 -> 1256 ;
1257 [label="X[1009] <= 0.5\ngini = 0.43\nsamples = 5516\nvalue = [3787, 1729]"] ;
11 -> 1257 ;
1258 [label="X[222] <= 0.5\ngini = 0.392\nsamples = 3894\nvalue = [2852, 1042]"] ;
1257 -> 1258 ;
1259 [label="X[993] <= 0.5\ngini = 0.068\nsamples = 257\nvalue = [248, 9]"] ;
1258 -> 1259 ;
