digraph Tree {
node [shape=box] ;
0 [label="X[1173] <= 0.5\ngini = 0.5\nsamples = 84796\nvalue = [42502, 42294]"] ;
1 [label="X[36] <= 0.5\ngini = 0.485\nsamples = 72295\nvalue = [42364, 29931]"] ;
0 -> 1 [labeldistance=2.5, labelangle=45, headlabel="True"] ;
2 [label="X[1136] <= 0.5\ngini = 0.462\nsamples = 66376\nvalue = [42354, 24022]"] ;
1 -> 2 ;
3 [label="X[20] <= 0.5\ngini = 0.428\nsamples = 61217\nvalue = [42262, 18955]"] ;
2 -> 3 ;
4 [label="X[1130] <= 0.5\ngini = 0.392\nsamples = 57592\nvalue = [42180, 15412]"] ;
3 -> 4 ;
5 [label="X[45] <= 0.5\ngini = 0.355\nsamples = 54162\nvalue = [41682, 12480]"] ;
4 -> 5 ;
6 [label="X[30] <= 0.5\ngini = 0.332\nsamples = 52748\nvalue = [41670, 11078]"] ;
5 -> 6 ;
7 [label="X[221] <= 0.5\ngini = 0.315\nsamples = 51693\nvalue = [41573, 10120]"] ;
6 -> 7 ;
8 [label="X[11] <= 0.5\ngini = 0.305\nsamples = 51121\nvalue = [41505, 9616]"] ;
7 -> 8 ;
9 [label="X[1185] <= 0.5\ngini = 0.296\nsamples = 50499\nvalue = [41397, 9102]"] ;
8 -> 9 ;
10 [label="X[1126] <= 0.5\ngini = 0.287\nsamples = 50003\nvalue = [41321, 8682]"] ;
9 -> 10 ;
11 [label="X[10] <= 0.5\ngini = 0.279\nsamples = 49584\nvalue = [41260, 8324]"] ;
10 -> 11 ;
12 [label="X[1161] <= 0.5\ngini = 0.255\nsamples = 44068\nvalue = [37473, 6595]"] ;
11 -> 12 ;
13 [label="X[9] <= 0.5\ngini = 0.249\nsamples = 43858\nvalue = [37463, 6395]"] ;
12 -> 13 ;
14 [label="X[1167] <= 0.5\ngini = 0.234\nsamples = 42292\nvalue = [36562, 5730]"] ;
13 -> 14 ;
15 [label="X[21] <= 0.5\ngini = 0.229\nsamples = 42114\nvalue = [36556, 5558]"] ;
14 -> 15 ;
16 [label="X[1200] <= 0.5\ngini = 0.219\nsamples = 41349\nvalue = [36179, 5170]"] ;
15 -> 16 ;
17 [label="gini = 0.214\nsamples = 41204\nvalue = [36178, 5026]"] ;
16 -> 17 ;
18 [label="gini = 0.014\nsamples = 145\nvalue = [1, 144]"] ;
16 -> 18 ;
19 [label="X[1190] <= 0.5\ngini = 0.5\nsamples = 765\nvalue = [377, 388]"] ;
15 -> 19 ;
20 [label="gini = 0.434\nsamples = 346\nvalue = [110, 236]"] ;
19 -> 20 ;
21 [label="gini = 0.462\nsamples = 419\nvalue = [267, 152]"] ;
19 -> 21 ;
22 [label="X[16] <= 0.5\ngini = 0.065\nsamples = 178\nvalue = [6, 172]"] ;
14 -> 22 ;
23 [label="X[1024] <= 0.5\ngini = 0.034\nsamples = 175\nvalue = [3, 172]"] ;
22 -> 23 ;
24 [label="gini = 0.023\nsamples = 172\nvalue = [2, 170]"] ;
23 -> 24 ;
25 [label="gini = 0.444\nsamples = 3\nvalue = [1, 2]"] ;
23 -> 25 ;
26 [label="gini = 0.0\nsamples = 3\nvalue = [3, 0]"] ;
22 -> 26 ;
27 [label="X[222] <= 0.5\ngini = 0.489\nsamples = 1566\nvalue = [901, 665]"] ;
13 -> 27 ;
28 [label="X[996] <= 0.5\ngini = 0.022\nsamples = 88\nvalue = [87, 1]"] ;
27 -> 28 ;
29 [label="gini = 0.0\nsamples = 83\nvalue = [83, 0]"] ;
28 -> 29 ;
30 [label="X[1190] <= 0.5\ngini = 0.32\nsamples = 5\nvalue = [4, 1]"] ;
28 -> 30 ;
31 [label="gini = 0.0\nsamples = 4\nvalue = [4, 0]"] ;
30 -> 31 ;
32 [label="gini = 0.0\nsamples = 1\nvalue = [0, 1]"] ;
30 -> 32 ;
33 [label="X[1009] <= 0.5\ngini = 0.495\nsamples = 1478\nvalue = [814, 664]"] ;
27 -> 33 ;
34 [label="X[1003] <= 0.5\ngini = 0.477\nsamples = 988\nvalue = [601, 387]"] ;
33 -> 34 ;
35 [label="gini = 0.422\nsamples = 601\nvalue = [419, 182]"] ;
34 -> 35 ;
36 [label="gini = 0.498\nsamples = 387\nvalue = [182, 205]"] ;
34 -> 36 ;
37 [label="X[1156] <= 0.5\ngini = 0.491\nsamples = 490\nvalue = [213, 277]"] ;
33 -> 37 ;
38 [label="gini = 0.358\nsamples = 90\nvalue = [21, 69]"] ;
37 -> 38 ;
39 [label="gini = 0.499\nsamples = 400\nvalue = [192, 208]"] ;
37 -> 39 ;
40 [label="X[1021] <= 0.5\ngini = 0.091\nsamples = 210\nvalue = [10, 200]"] ;
12 -> 40 ;
41 [label="X[0] <= 2.825\ngini = 0.082\nsamples = 209\nvalue = [9, 200]"] ;
40 -> 41 ;
42 [label="X[1010] <= 0.5\ngini = 0.058\nsamples = 199\nvalue = [6, 193]"] ;
41 -> 42 ;
43 [label="X[1015] <= 0.5\ngini = 0.05\nsamples = 195\nvalue = [5, 190]"] ;
42 -> 43 ;
44 [label="gini = 0.041\nsamples = 191\nvalue = [4, 187]"] ;
43 -> 44 ;
45 [label="gini = 0.375\nsamples = 4\nvalue = [1, 3]"] ;
43 -> 45 ;
46 [label="X[0] <= 2.345\ngini = 0.375\nsamples = 4\nvalue = [1, 3]"] ;
42 -> 46 ;
47 [label="gini = 0.0\nsamples = 3\nvalue = [0, 3]"] ;
46 -> 47 ;
48 [label="gini = 0.0\nsamples = 1\nvalue = [1, 0]"] ;
46 -> 48 ;
49 [label="X[0] <= 2.835\ngini = 0.42\nsamples = 10\nvalue = [3, 7]"] ;
41 -> 49 ;
50 [label="gini = 0.0\nsamples = 2\nvalue = [2, 0]"] ;
49 -> 50 ;
51 [label="X[1009] <= 0.5\ngini = 0.219\nsamples = 8\nvalue = [1, 7]"] ;
49 -> 51 ;
52 [label="gini = 0.0\nsamples = 5\nvalue = [0, 5]"] ;
51 -> 52 ;
53 [label="gini = 0.444\nsamples = 3\nvalue = [1, 2]"] ;
51 -> 53 ;
54 [label="gini = 0.0\nsamples = 1\nvalue = [1, 0]"] ;
40 -> 54 ;
55 [label="X[1009] <= 0.5\ngini = 0.43\nsamples = 5516\nvalue = [3787, 1729]"] ;
11 -> 55 ;
56 [label="X[222] <= 0.5\ngini = 0.392\nsamples = 3894\nvalue = [2852, 1042]"] ;
55 -> 56 ;
57 [label="X[993] <= 0.5\ngini = 0.068\nsamples = 257\nvalue = [248, 9]"] ;
56 -> 57 ;
58 [label="X[1015] <= 0.5\ngini = 0.061\nsamples = 256\nvalue = [248, 8]"] ;
57 -> 58 ;
59 [label="X[1254] <= 0.5\ngini = 0.048\nsamples = 244\nvalue = [238, 6]"] ;
58 -> 59 ;
60 [label="gini = 0.041\nsamples = 238\nvalue = [233, 5]"] ;
59 -> 60 ;
61 [label="gini = 0.278\nsamples = 6\nvalue = [5, 1]"] ;
59 -> 61 ;
62 [label="X[0] <= 2.87\ngini = 0.278\nsamples = 12\nvalue = [10, 2]"] ;
58 -> 62 ;
63 [label="gini = 0.165\nsamples = 11\nvalue = [10, 1]"] ;
62 -> 63 ;
64 [label="gini = 0.0\nsamples = 1\nvalue = [0, 1]"] ;
62 -> 64 ;
65 [label="gini = 0.0\nsamples = 1\nvalue = [0, 1]"] ;
57 -> 65 ;
66 [label="X[1003] <= 0.5\ngini = 0.407\nsamples = 3637\nvalue = [2604, 1033]"] ;
56 -> 66 ;
67 [label="X[1012] <= 0.5\ngini = 0.371\nsamples = 2406\nvalue = [1815, 591]"] ;
66 -> 67 ;
68 [label="X[1006] <= 0.5\ngini = 0.342\nsamples = 2131\nvalue = [1664, 467]"] ;
67 -> 68 ;
69 [label="gini = 0.328\nsamples = 2027\nvalue = [1608, 419]"] ;
68 -> 69 ;
70 [label="gini = 0.497\nsamples = 104\nvalue = [56, 48]"] ;
68 -> 70 ;
71 [label="X[0] <= 2.535\ngini = 0.495\nsamples = 275\nvalue = [151, 124]"] ;
67 -> 71 ;
72 [label="gini = 0.5\nsamples = 199\nvalue = [99, 100]"] ;
71 -> 72 ;
73 [label="gini = 0.432\nsamples = 76\nvalue = [52, 24]"] ;
71 -> 73 ;
74 [label="X[1253] <= 0.5\ngini = 0.46\nsamples = 1231\nvalue = [789, 442]"] ;
66 -> 74 ;
75 [label="X[1186] <= 0.5\ngini = 0.468\nsamples = 1143\nvalue = [716, 427]"] ;
74 -> 75 ;
76 [label="gini = 0.462\nsamples = 1042\nvalue = [665, 377]"] ;
75 -> 76 ;
77 [label="gini = 0.5\nsamples = 101\nvalue = [51, 50]"] ;
75 -> 77 ;
78 [label="X[0] <= 0.995\ngini = 0.283\nsamples = 88\nvalue = [73, 15]"] ;
74 -> 78 ;
79 [label="gini = 0.415\nsamples = 34\nvalue = [24, 10]"] ;
78 -> 79 ;
80 [label="gini = 0.168\nsamples = 54\nvalue = [49, 5]"] ;
78 -> 80 ;
81 [label="X[1186] <= 0.5\ngini = 0.488\nsamples = 1622\nvalue = [935, 687]"] ;
55 -> 81 ;
82 [label="X[1268] <= 0.5\ngini = 0.482\nsamples = 1484\nvalue = [881, 603]"] ;
81 -> 82 ;
83 [label="X[0] <= 2.705\ngini = 0.47\nsamples = 1237\nvalue = [769, 468]"] ;
82 -> 83 ;
84 [label="X[0] <= 2.075\ngini = 0.481\nsamples = 1031\nvalue = [616, 415]"] ;
83 -> 84 ;
85 [label="gini = 0.465\nsamples = 766\nvalue = [485, 281]"] ;
84 -> 85 ;
86 [label="gini = 0.5\nsamples = 265\nvalue = [131, 134]"] ;
84 -> 86 ;
87 [label="X[1253] <= 0.5\ngini = 0.382\nsamples = 206\nvalue = [153, 53]"] ;
83 -> 87 ;
88 [label="gini = 0.402\nsamples = 190\nvalue = [137, 53]"] ;
87 -> 88 ;
89 [label="gini = 0.0\nsamples = 16\nvalue = [16, 0]"] ;
87 -> 89 ;
90 [label="X[222] <= 0.5\ngini = 0.496\nsamples = 247\nvalue = [112, 135]"] ;
82 -> 90 ;
91 [label="gini = 0.0\nsamples = 7\nvalue = [7, 0]"] ;
90 -> 91 ;
92 [label="X[0] <= 2.935\ngini = 0.492\nsamples = 240\nvalue = [105, 135]"] ;
90 -> 92 ;
93 [label="gini = 0.489\nsamples = 231\nvalue = [98, 133]"] ;
92 -> 93 ;
94 [label="gini = 0.346\nsamples = 9\nvalue = [7, 2]"] ;
92 -> 94 ;
95 [label="X[0] <= 2.975\ngini = 0.476\nsamples = 138\nvalue = [54, 84]"] ;
81 -> 95 ;
96 [label="X[0] <= 2.945\ngini = 0.472\nsamples = 136\nvalue = [52, 84]"] ;
95 -> 96 ;
97 [label="X[0] <= 0.84\ngini = 0.48\nsamples = 130\nvalue = [52, 78]"] ;
96 -> 97 ;
98 [label="gini = 0.423\nsamples = 46\nvalue = [14, 32]"] ;
97 -> 98 ;
99 [label="gini = 0.495\nsamples = 84\nvalue = [38, 46]"] ;
97 -> 99 ;
100 [label="gini = 0.0\nsamples = 6\nvalue = [0, 6]"] ;
96 -> 100 ;
101 [label="gini = 0.0\nsamples = 2\nvalue = [2, 0]"] ;
95 -> 101 ;
102 [label="X[60] <= 0.5\ngini = 0.249\nsamples = 419\nvalue = [61, 358]"] ;
10 -> 102 ;
103 [label="X[1009] <= 0.5\ngini = 0.34\nsamples = 226\nvalue = [49, 177]"] ;
102 -> 103 ;
104 [label="X[1003] <= 0.5\ngini = 0.424\nsamples = 128\nvalue = [39, 89]"] ;
103 -> 104 ;
105 [label="X[0] <= 1.87\ngini = 0.499\nsamples = 60\nvalue = [31, 29]"] ;
104 -> 105 ;
106 [label="X[12] <= 0.5\ngini = 0.478\nsamples = 48\nvalue = [29, 19]"] ;
105 -> 106 ;
107 [label="X[58] <= 0.5\ngini = 0.458\nsamples = 45\nvalue = [29, 16]"] ;
106 -> 107 ;
108 [label="gini = 0.401\nsamples = 36\nvalue = [26, 10]"] ;
107 -> 108 ;
109 [label="gini = 0.444\nsamples = 9\nvalue = [3, 6]"] ;
107 -> 109 ;
110 [label="gini = 0.0\nsamples = 3\nvalue = [0, 3]"] ;
106 -> 110 ;
111 [label="X[0] <= 2.88\ngini = 0.278\nsamples = 12\nvalue = [2, 10]"] ;
105 -> 111 ;
112 [label="gini = 0.0\nsamples = 10\nvalue = [0, 10]"] ;
111 -> 112 ;
113 [label="gini = 0.0\nsamples = 2\nvalue = [2, 0]"] ;
111 -> 113 ;
114 [label="X[95] <= 0.5\ngini = 0.208\nsamples = 68\nvalue = [8, 60]"] ;
104 -> 114 ;
115 [label="X[33] <= 0.5\ngini = 0.187\nsamples = 67\nvalue = [7, 60]"] ;
114 -> 115 ;
116 [label="X[0] <= 1.58\ngini = 0.165\nsamples = 66\nvalue = [6, 60]"] ;
115 -> 116 ;
117 [label="gini = 0.236\nsamples = 44\nvalue = [6, 38]"] ;
116 -> 117 ;
118 [label="gini = 0.0\nsamples = 22\nvalue = [0, 22]"] ;
116 -> 118 ;
119 [label="gini = 0.0\nsamples = 1\nvalue = [1, 0]"] ;
115 -> 119 ;
120 [label="gini = 0.0\nsamples = 1\nvalue = [1, 0]"] ;
114 -> 120 ;
121 [label="X[33] <= 0.5\ngini = 0.183\nsamples = 98\nvalue = [10, 88]"] ;
103 -> 121 ;
122 [label="X[0] <= 2.93\ngini = 0.141\nsamples = 92\nvalue = [7, 85]"] ;
121 -> 122 ;
123 [label="X[15] <= 0.5\ngini = 0.123\nsamples = 91\nvalue = [6, 85]"] ;
122 -> 123 ;
124 [label="X[0] <= 0.68\ngini = 0.105\nsamples = 90\nvalue = [5, 85]"] ;
123 -> 124 ;
125 [label="gini = 0.287\nsamples = 23\nvalue = [4, 19]"] ;
124 -> 125 ;
126 [label="gini = 0.029\nsamples = 67\nvalue = [1, 66]"] ;
124 -> 126 ;
127 [label="gini = 0.0\nsamples = 1\nvalue = [1, 0]"] ;
123 -> 127 ;
128 [label="gini = 0.0\nsamples = 1\nvalue = [1, 0]"] ;
122 -> 128 ;
129 [label="X[0] <= 0.575\ngini = 0.5\nsamples = 6\nvalue = [3, 3]"] ;
121 -> 129 ;
130 [label="gini = 0.0\nsamples = 2\nvalue = [2, 0]"] ;
129 -> 130 ;
131 [label="X[0] <= 0.76\ngini = 0.375\nsamples = 4\nvalue = [1, 3]"] ;
129 -> 131 ;
132 [label="gini = 0.0\nsamples = 2\nvalue = [0, 2]"] ;
131 -> 132 ;
133 [label="X[0] <= 0.875\ngini = 0.5\nsamples = 2\nvalue = [1, 1]"] ;
131 -> 133 ;
134 [label="gini = 0.0\nsamples = 1\nvalue = [1, 0]"] ;
133 -> 134 ;
135 [label="gini = 0.0\nsamples = 1\nvalue = [0, 1]"] ;
133 -> 135 ;
136 [label="X[0] <= 0.475\ngini = 0.117\nsamples = 193\nvalue = [12, 181]"] ;
102 -> 136 ;
137 [label="X[0] <= 0.455\ngini = 0.375\nsamples = 20\nvalue = [5, 15]"] ;
136 -> 137 ;
138 [label="X[1008] <= 0.5\ngini = 0.278\nsamples = 18\nvalue = [3, 15]"] ;
137 -> 138 ;
139 [label="X[1012] <= 0.5\ngini = 0.208\nsamples = 17\nvalue = [2, 15]"] ;
138 -> 139 ;
140 [label="X[0] <= 0.405\ngini = 0.117\nsamples = 16\nvalue = [1, 15]"] ;
139 -> 140 ;
141 [label="gini = 0.0\nsamples = 7\nvalue = [0, 7]"] ;
140 -> 141 ;
142 [label="gini = 0.198\nsamples = 9\nvalue = [1, 8]"] ;
140 -> 142 ;
143 [label="gini = 0.0\nsamples = 1\nvalue = [1, 0]"] ;
139 -> 143 ;
144 [label="gini = 0.0\nsamples = 1\nvalue = [1, 0]"] ;
138 -> 144 ;
145 [label="gini = 0.0\nsamples = 2\nvalue = [2, 0]"] ;
137 -> 145 ;
146 [label="X[1015] <= 0.5\ngini = 0.078\nsamples = 173\nvalue = [7, 166]"] ;
136 -> 146 ;
147 [label="X[1004] <= 0.5\ngini = 0.068\nsamples = 171\nvalue = [6, 165]"] ;
146 -> 147 ;
148 [label="X[0] <= 2.815\ngini = 0.058\nsamples = 166\nvalue = [5, 161]"] ;
147 -> 148 ;
149 [label="X[1012] <= 0.5\ngini = 0.05\nsamples = 157\nvalue = [4, 153]"] ;
148 -> 149 ;
150 [label="gini = 0.041\nsamples = 145\nvalue = [3, 142]"] ;
149 -> 150 ;
151 [label="gini = 0.153\nsamples = 12\nvalue = [1, 11]"] ;
149 -> 151 ;
152 [label="X[0] <= 2.835\ngini = 0.198\nsamples = 9\nvalue = [1, 8]"] ;
148 -> 152 ;
153 [label="gini = 0.0\nsamples = 1\nvalue = [1, 0]"] ;
152 -> 153 ;
154 [label="gini = 0.0\nsamples = 8\nvalue = [0, 8]"] ;
152 -> 154 ;
155 [label="X[0] <= 2.615\ngini = 0.32\nsamples = 5\nvalue = [1, 4]"] ;
147 -> 155 ;
156 [label="gini = 0.0\nsamples = 4\nvalue = [0, 4]"] ;
155 -> 156 ;
157 [label="gini = 0.0\nsamples = 1\nvalue = [1, 0]"] ;
155 -> 157 ;
158 [label="X[0] <= 1.25\ngini = 0.5\nsamples = 2\nvalue = [1, 1]"] ;
146 -> 158 ;
159 [label="gini = 0.0\nsamples = 1\nvalue = [0, 1]"] ;
158 -> 159 ;
160 [label="gini = 0.0\nsamples = 1\nvalue = [1, 0]"] ;
158 -> 160 ;
161 [label="X[3] <= 0.5\ngini = 0.259\nsamples = 496\nvalue = [76, 420]"] ;
9 -> 161 ;
162 [label="X[1000] <= 0.5\ngini = 0.01\nsamples = 417\nvalue = [2, 415]"] ;
161 -> 162 ;
163 [label="X[17] <= 0.5\ngini = 0.005\nsamples = 408\nvalue = [1, 407]"] ;
162 -> 163 ;
164 [label="gini = 0.0\nsamples = 367\nvalue = [0, 367]"] ;
163 -> 164 ;
165 [label="X[0] <= 0.695\ngini = 0.048\nsamples = 41\nvalue = [1, 40]"] ;
163 -> 165 ;
166 [label="X[0] <= 0.53\ngini = 0.278\nsamples = 6\nvalue = [1, 5]"] ;
165 -> 166 ;
167 [label="gini = 0.0\nsamples = 4\nvalue = [0, 4]"] ;
166 -> 167 ;
168 [label="X[1003] <= 0.5\ngini = 0.5\nsamples = 2\nvalue = [1, 1]"] ;
166 -> 168 ;
169 [label="gini = 0.0\nsamples = 1\nvalue = [0, 1]"] ;
168 -> 169 ;
170 [label="gini = 0.0\nsamples = 1\nvalue = [1, 0]"] ;
168 -> 170 ;
171 [label="gini = 0.0\nsamples = 35\nvalue = [0, 35]"] ;
165 -> 171 ;
172 [label="X[0] <= 1.67\ngini = 0.198\nsamples = 9\nvalue = [1, 8]"] ;
162 -> 172 ;
173 [label="gini = 0.0\nsamples = 5\nvalue = [0, 5]"] ;
172 -> 173 ;
174 [label="X[0] <= 1.87\ngini = 0.375\nsamples = 4\nvalue = [1, 3]"] ;
172 -> 174 ;
175 [label="gini = 0.0\nsamples = 1\nvalue = [1, 0]"] ;
174 -> 175 ;
176 [label="gini = 0.0\nsamples = 3\nvalue = [0, 3]"] ;
174 -> 176 ;
177 [label="X[998] <= 0.5\ngini = 0.119\nsamples = 79\nvalue = [74, 5]"] ;
161 -> 177 ;
178 [label="X[1012] <= 0.5\ngini = 0.097\nsamples = 78\nvalue = [74, 4]"] ;
177 -> 178 ;
179 [label="X[0] <= 0.055\ngini = 0.053\nsamples = 73\nvalue = [71, 2]"] ;
178 -> 179 ;
180 [label="X[0] <= 0.035\ngini = 0.444\nsamples = 3\nvalue = [2, 1]"] ;
179 -> 180 ;
181 [label="gini = 0.0\nsamples = 2\nvalue = [2, 0]"] ;
180 -> 181 ;
182 [label="gini = 0.0\nsamples = 1\nvalue = [0, 1]"] ;
180 -> 182 ;
183 [label="X[0] <= 2.695\ngini = 0.028\nsamples = 70\nvalue = [69, 1]"] ;
179 -> 183 ;
184 [label="gini = 0.0\nsamples = 51\nvalue = [51, 0]"] ;
183 -> 184 ;
185 [label="X[0] <= 2.715\ngini = 0.1\nsamples = 19\nvalue = [18, 1]"] ;
183 -> 185 ;
186 [label="X[1009] <= 0.5\ngini = 0.5\nsamples = 2\nvalue = [1, 1]"] ;
185 -> 186 ;
187 [label="gini = 0.0\nsamples = 1\nvalue = [1, 0]"] ;
186 -> 187 ;
188 [label="gini = 0.0\nsamples = 1\nvalue = [0, 1]"] ;
186 -> 188 ;
189 [label="gini = 0.0\nsamples = 17\nvalue = [17, 0]"] ;
185 -> 189 ;
190 [label="X[0] <= 0.675\ngini = 0.48\nsamples = 5\nvalue = [3, 2]"] ;
178 -> 190 ;
191 [label="gini = 0.0\nsamples = 1\nvalue = [1, 0]"] ;
190 -> 191 ;
192 [label="X[0] <= 1.7\ngini = 0.5\nsamples = 4\nvalue = [2, 2]"] ;
190 -> 192 ;
193 [label="gini = 0.0\nsamples = 1\nvalue = [0, 1]"] ;
192 -> 193 ;
194 [label="X[222] <= 0.5\ngini = 0.444\nsamples = 3\nvalue = [2, 1]"] ;
192 -> 194 ;
195 [label="gini = 0.0\nsamples = 1\nvalue = [1, 0]"] ;
194 -> 195 ;
196 [label="X[0] <= 2.67\ngini = 0.5\nsamples = 2\nvalue = [1, 1]"] ;
194 -> 196 ;
197 [label="gini = 0.0\nsamples = 1\nvalue = [1, 0]"] ;
196 -> 197 ;
198 [label="gini = 0.0\nsamples = 1\nvalue = [0, 1]"] ;
196 -> 198 ;
199 [label="gini = 0.0\nsamples = 1\nvalue = [0, 1]"] ;
177 -> 199 ;
200 [label="X[1009] <= 0.5\ngini = 0.287\nsamples = 622\nvalue = [108, 514]"] ;
8 -> 200 ;
201 [label="X[0] <= 2.885\ngini = 0.366\nsamples = 361\nvalue = [87, 274]"] ;
200 -> 201 ;
202 [label="X[999] <= 0.5\ngini = 0.347\nsamples = 349\nvalue = [78, 271]"] ;
201 -> 202 ;
203 [label="X[1003] <= 0.5\ngini = 0.337\nsamples = 345\nvalue = [74, 271]"] ;
202 -> 203 ;
204 [label="X[0] <= 0.835\ngini = 0.41\nsamples = 163\nvalue = [47, 116]"] ;
203 -> 204 ;
205 [label="X[0] <= 0.715\ngini = 0.498\nsamples = 32\nvalue = [15, 17]"] ;
204 -> 205 ;
206 [label="X[0] <= 0.305\ngini = 0.477\nsamples = 28\nvalue = [11, 17]"] ;
205 -> 206 ;
207 [label="X[0] <= 0.07\ngini = 0.278\nsamples = 6\nvalue = [1, 5]"] ;
206 -> 207 ;
208 [label="gini = 0.5\nsamples = 2\nvalue = [1, 1]"] ;
207 -> 208 ;
209 [label="gini = 0.0\nsamples = 4\nvalue = [0, 4]"] ;
207 -> 209 ;
210 [label="X[998] <= 0.5\ngini = 0.496\nsamples = 22\nvalue = [10, 12]"] ;
206 -> 210 ;
211 [label="gini = 0.5\nsamples = 20\nvalue = [10, 10]"] ;
210 -> 211 ;
212 [label="gini = 0.0\nsamples = 2\nvalue = [0, 2]"] ;
210 -> 212 ;
213 [label="gini = 0.0\nsamples = 4\nvalue = [4, 0]"] ;
205 -> 213 ;
214 [label="X[996] <= 0.5\ngini = 0.369\nsamples = 131\nvalue = [32, 99]"] ;
204 -> 214 ;
215 [label="X[1167] <= 0.5\ngini = 0.352\nsamples = 127\nvalue = [29, 98]"] ;
214 -> 215 ;
216 [label="X[1005] <= 0.5\ngini = 0.377\nsamples = 115\nvalue = [29, 86]"] ;
215 -> 216 ;
217 [label="gini = 0.361\nsamples = 110\nvalue = [26, 84]"] ;
216 -> 217 ;
218 [label="gini = 0.48\nsamples = 5\nvalue = [3, 2]"] ;
216 -> 218 ;
219 [label="gini = 0.0\nsamples = 12\nvalue = [0, 12]"] ;
215 -> 219 ;
220 [label="X[0] <= 2.05\ngini = 0.375\nsamples = 4\nvalue = [3, 1]"] ;
214 -> 220 ;
221 [label="gini = 0.0\nsamples = 2\nvalue = [2, 0]"] ;
220 -> 221 ;
222 [label="X[0] <= 2.55\ngini = 0.5\nsamples = 2\nvalue = [1, 1]"] ;
220 -> 222 ;
223 [label="gini = 0.0\nsamples = 1\nvalue = [0, 1]"] ;
222 -> 223 ;
224 [label="gini = 0.0\nsamples = 1\nvalue = [1, 0]"] ;
222 -> 224 ;
225 [label="X[0] <= 0.905\ngini = 0.253\nsamples = 182\nvalue = [27, 155]"] ;
203 -> 225 ;
226 [label="X[0] <= 0.805\ngini = 0.369\nsamples = 45\nvalue = [11, 34]"] ;
225 -> 226 ;
227 [label="X[0] <= 0.555\ngini = 0.229\nsamples = 38\nvalue = [5, 33]"] ;
226 -> 227 ;
228 [label="X[0] <= 0.535\ngini = 0.332\nsamples = 19\nvalue = [4, 15]"] ;
227 -> 228 ;
229 [label="gini = 0.278\nsamples = 18\nvalue = [3, 15]"] ;
228 -> 229 ;
230 [label="gini = 0.0\nsamples = 1\nvalue = [1, 0]"] ;
228 -> 230 ;
231 [label="X[0] <= 0.705\ngini = 0.1\nsamples = 19\nvalue = [1, 18]"] ;
227 -> 231 ;
232 [label="gini = 0.0\nsamples = 11\nvalue = [0, 11]"] ;
231 -> 232 ;
233 [label="gini = 0.219\nsamples = 8\nvalue = [1, 7]"] ;
231 -> 233 ;
234 [label="X[0] <= 0.835\ngini = 0.245\nsamples = 7\nvalue = [6, 1]"] ;
226 -> 234 ;
235 [label="gini = 0.0\nsamples = 4\nvalue = [4, 0]"] ;
234 -> 235 ;
236 [label="X[0] <= 0.86\ngini = 0.444\nsamples = 3\nvalue = [2, 1]"] ;
234 -> 236 ;
237 [label="gini = 0.0\nsamples = 1\nvalue = [0, 1]"] ;
236 -> 237 ;
238 [label="gini = 0.0\nsamples = 2\nvalue = [2, 0]"] ;
236 -> 238 ;
239 [label="X[1228] <= 0.5\ngini = 0.206\nsamples = 137\nvalue = [16, 121]"] ;
225 -> 239 ;
240 [label="X[0] <= 2.25\ngini = 0.105\nsamples = 54\nvalue = [3, 51]"] ;
239 -> 240 ;
241 [label="X[0] <= 2.145\ngini = 0.161\nsamples = 34\nvalue = [3, 31]"] ;
240 -> 241 ;
242 [label="gini = 0.117\nsamples = 32\nvalue = [2, 30]"] ;
241 -> 242 ;
243 [label="gini = 0.5\nsamples = 2\nvalue = [1, 1]"] ;
241 -> 243 ;
244 [label="gini = 0.0\nsamples = 20\nvalue = [0, 20]"] ;
240 -> 244 ;
245 [label="X[0] <= 1.355\ngini = 0.264\nsamples = 83\nvalue = [13, 70]"] ;
239 -> 245 ;
246 [label="gini = 0.0\nsamples = 10\nvalue = [0, 10]"] ;
245 -> 246 ;
247 [label="X[0] <= 1.365\ngini = 0.293\nsamples = 73\nvalue = [13, 60]"] ;
245 -> 247 ;
248 [label="gini = 0.444\nsamples = 3\nvalue = [2, 1]"] ;
247 -> 248 ;
249 [label="gini = 0.265\nsamples = 70\nvalue = [11, 59]"] ;
247 -> 249 ;
250 [label="gini = 0.0\nsamples = 4\nvalue = [4, 0]"] ;
202 -> 250 ;
251 [label="X[1203] <= 0.5\ngini = 0.375\nsamples = 12\nvalue = [9, 3]"] ;
201 -> 251 ;
252 [label="X[0] <= 2.915\ngini = 0.298\nsamples = 11\nvalue = [9, 2]"] ;
251 -> 252 ;
253 [label="X[1013] <= 0.5\ngini = 0.48\nsamples = 5\nvalue = [3, 2]"] ;
252 -> 253 ;
254 [label="X[0] <= 2.905\ngini = 0.5\nsamples = 4\nvalue = [2, 2]"] ;
253 -> 254 ;
255 [label="X[1003] <= 0.5\ngini = 0.444\nsamples = 3\nvalue = [2, 1]"] ;
254 -> 255 ;
256 [label="gini = 0.0\nsamples = 1\nvalue = [1, 0]"] ;
255 -> 256 ;
257 [label="X[0] <= 2.895\ngini = 0.5\nsamples = 2\nvalue = [1, 1]"] ;
255 -> 257 ;
258 [label="gini = 0.0\nsamples = 1\nvalue = [0, 1]"] ;
257 -> 258 ;
259 [label="gini = 0.0\nsamples = 1\nvalue = [1, 0]"] ;
257 -> 259 ;
260 [label="gini = 0.0\nsamples = 1\nvalue = [0, 1]"] ;
254 -> 260 ;
261 [label="gini = 0.0\nsamples = 1\nvalue = [1, 0]"] ;
253 -> 261 ;
262 [label="gini = 0.0\nsamples = 6\nvalue = [6, 0]"] ;
252 -> 262 ;
263 [label="gini = 0.0\nsamples = 1\nvalue = [0, 1]"] ;
251 -> 263 ;
264 [label="X[0] <= 2.96\ngini = 0.148\nsamples = 261\nvalue = [21, 240]"] ;
200 -> 264 ;
265 [label="X[0] <= 0.325\ngini = 0.142\nsamples = 260\nvalue = [20, 240]"] ;
264 -> 265 ;
266 [label="X[0] <= 0.315\ngini = 0.48\nsamples = 5\nvalue = [2, 3]"] ;
265 -> 266 ;
267 [label="X[0] <= 0.18\ngini = 0.375\nsamples = 4\nvalue = [1, 3]"] ;
266 -> 267 ;
268 [label="gini = 0.5\nsamples = 2\nvalue = [1, 1]"] ;
267 -> 268 ;
269 [label="gini = 0.0\nsamples = 2\nvalue = [0, 2]"] ;
267 -> 269 ;
270 [label="gini = 0.0\nsamples = 1\nvalue = [1, 0]"] ;
266 -> 270 ;
271 [label="X[0] <= 0.935\ngini = 0.131\nsamples = 255\nvalue = [18, 237]"] ;
265 -> 271 ;
272 [label="X[0] <= 0.925\ngini = 0.228\nsamples = 61\nvalue = [8, 53]"] ;
271 -> 272 ;
273 [label="X[1203] <= 0.5\ngini = 0.206\nsamples = 60\nvalue = [7, 53]"] ;
272 -> 273 ;
274 [label="X[0] <= 0.895\ngini = 0.136\nsamples = 41\nvalue = [3, 38]"] ;
273 -> 274 ;
275 [label="X[0] <= 0.615\ngini = 0.102\nsamples = 37\nvalue = [2, 35]"] ;
274 -> 275 ;
276 [label="gini = 0.172\nsamples = 21\nvalue = [2, 19]"] ;
275 -> 276 ;
277 [label="gini = 0.0\nsamples = 16\nvalue = [0, 16]"] ;
275 -> 277 ;
278 [label="X[0] <= 0.915\ngini = 0.375\nsamples = 4\nvalue = [1, 3]"] ;
274 -> 278 ;
279 [label="gini = 0.5\nsamples = 2\nvalue = [1, 1]"] ;
278 -> 279 ;
280 [label="gini = 0.0\nsamples = 2\nvalue = [0, 2]"] ;
278 -> 280 ;
281 [label="X[0] <= 0.575\ngini = 0.332\nsamples = 19\nvalue = [4, 15]"] ;
273 -> 281 ;
282 [label="X[0] <= 0.44\ngini = 0.18\nsamples = 10\nvalue = [1, 9]"] ;
281 -> 282 ;
283 [label="gini = 0.0\nsamples = 4\nvalue = [0, 4]"] ;
282 -> 283 ;
284 [label="gini = 0.278\nsamples = 6\nvalue = [1, 5]"] ;
282 -> 284 ;
285 [label="X[0] <= 0.61\ngini = 0.444\nsamples = 9\nvalue = [3, 6]"] ;
281 -> 285 ;
286 [label="gini = 0.0\nsamples = 1\nvalue = [1, 0]"] ;
285 -> 286 ;
287 [label="gini = 0.375\nsamples = 8\nvalue = [2, 6]"] ;
285 -> 287 ;
288 [label="gini = 0.0\nsamples = 1\nvalue = [1, 0]"] ;
272 -> 288 ;
289 [label="X[0] <= 2.505\ngini = 0.098\nsamples = 194\nvalue = [10, 184]"] ;
271 -> 289 ;
290 [label="X[1203] <= 0.5\ngini = 0.054\nsamples = 143\nvalue = [4, 139]"] ;
289 -> 290 ;
291 [label="X[0] <= 1.465\ngini = 0.023\nsamples = 87\nvalue = [1, 86]"] ;
290 -> 291 ;
292 [label="X[0] <= 1.455\ngini = 0.074\nsamples = 26\nvalue = [1, 25]"] ;
291 -> 292 ;
293 [label="gini = 0.0\nsamples = 24\nvalue = [0, 24]"] ;
292 -> 293 ;
294 [label="gini = 0.5\nsamples = 2\nvalue = [1, 1]"] ;
292 -> 294 ;
295 [label="gini = 0.0\nsamples = 61\nvalue = [0, 61]"] ;
291 -> 295 ;
296 [label="X[0] <= 1.685\ngini = 0.101\nsamples = 56\nvalue = [3, 53]"] ;
290 -> 296 ;
297 [label="gini = 0.0\nsamples = 25\nvalue = [0, 25]"] ;
296 -> 297 ;
298 [label="X[0] <= 1.695\ngini = 0.175\nsamples = 31\nvalue = [3, 28]"] ;
296 -> 298 ;
299 [label="gini = 0.5\nsamples = 2\nvalue = [1, 1]"] ;
298 -> 299 ;
300 [label="gini = 0.128\nsamples = 29\nvalue = [2, 27]"] ;
298 -> 300 ;
301 [label="X[0] <= 2.79\ngini = 0.208\nsamples = 51\nvalue = [6, 45]"] ;
289 -> 301 ;
302 [label="X[0] <= 2.735\ngini = 0.245\nsamples = 42\nvalue = [6, 36]"] ;
301 -> 302 ;
303 [label="X[0] <= 2.675\ngini = 0.198\nsamples = 36\nvalue = [4, 32]"] ;
302 -> 303 ;
304 [label="gini = 0.231\nsamples = 30\nvalue = [4, 26]"] ;
303 -> 304 ;
305 [label="gini = 0.0\nsamples = 6\nvalue = [0, 6]"] ;
303 -> 305 ;
306 [label="X[0] <= 2.745\ngini = 0.444\nsamples = 6\nvalue = [2, 4]"] ;
302 -> 306 ;
307 [label="gini = 0.5\nsamples = 2\nvalue = [1, 1]"] ;
306 -> 307 ;
308 [label="gini = 0.375\nsamples = 4\nvalue = [1, 3]"] ;
306 -> 308 ;
309 [label="gini = 0.0\nsamples = 9\nvalue = [0, 9]"] ;
301 -> 309 ;
310 [label="gini = 0.0\nsamples = 1\nvalue = [1, 0]"] ;
264 -> 310 ;
311 [label="X[1217] <= 0.5\ngini = 0.209\nsamples = 572\nvalue = [68, 504]"] ;
7 -> 311 ;
312 [label="X[1134] <= 0.5\ngini = 0.035\nsamples = 508\nvalue = [9, 499]"] ;
311 -> 312 ;
313 [label="X[1241] <= 0.5\ngini = 0.027\nsamples = 506\nvalue = [7, 499]"] ;
312 -> 313 ;
314 [label="X[206] <= 0.5\ngini = 0.02\nsamples = 504\nvalue = [5, 499]"] ;
313 -> 314 ;
315 [label="X[1116] <= 0.5\ngini = 0.016\nsamples = 503\nvalue = [4, 499]"] ;
314 -> 315 ;
316 [label="X[1054] <= 0.5\ngini = 0.012\nsamples = 494\nvalue = [3, 491]"] ;
315 -> 316 ;
317 [label="X[1014] <= 0.5\ngini = 0.009\nsamples = 451\nvalue = [2, 449]"] ;
316 -> 317 ;
318 [label="gini = 0.0\nsamples = 310\nvalue = [0, 310]"] ;
317 -> 318 ;
319 [label="X[1161] <= 0.5\ngini = 0.028\nsamples = 141\nvalue = [2, 139]"] ;
317 -> 319 ;
320 [label="gini = 0.0\nsamples = 78\nvalue = [0, 78]"] ;
319 -> 320 ;
321 [label="X[0] <= 1.425\ngini = 0.061\nsamples = 63\nvalue = [2, 61]"] ;
319 -> 321 ;
322 [label="gini = 0.128\nsamples = 29\nvalue = [2, 27]"] ;
321 -> 322 ;
323 [label="gini = 0.0\nsamples = 34\nvalue = [0, 34]"] ;
321 -> 323 ;
324 [label="X[0] <= 2.59\ngini = 0.045\nsamples = 43\nvalue = [1, 42]"] ;
316 -> 324 ;
325 [label="gini = 0.0\nsamples = 42\nvalue = [0, 42]"] ;
324 -> 325 ;
326 [label="gini = 0.0\nsamples = 1\nvalue = [1, 0]"] ;
324 -> 326 ;
327 [label="X[1215] <= 0.5\ngini = 0.198\nsamples = 9\nvalue = [1, 8]"] ;
315 -> 327 ;
328 [label="gini = 0.0\nsamples = 5\nvalue = [0, 5]"] ;
327 -> 328 ;
329 [label="X[0] <= 2.885\ngini = 0.375\nsamples = 4\nvalue = [1, 3]"] ;
327 -> 329 ;
330 [label="X[0] <= 2.465\ngini = 0.5\nsamples = 2\nvalue = [1, 1]"] ;
329 -> 330 ;
331 [label="gini = 0.0\nsamples = 1\nvalue = [0, 1]"] ;
330 -> 331 ;
332 [label="gini = 0.0\nsamples = 1\nvalue = [1, 0]"] ;
330 -> 332 ;
333 [label="gini = 0.0\nsamples = 2\nvalue = [0, 2]"] ;
329 -> 333 ;
334 [label="gini = 0.0\nsamples = 1\nvalue = [1, 0]"] ;
314 -> 334 ;
335 [label="gini = 0.0\nsamples = 2\nvalue = [2, 0]"] ;
313 -> 335 ;
336 [label="gini = 0.0\nsamples = 2\nvalue = [2, 0]"] ;
312 -> 336 ;
337 [label="X[1054] <= 0.5\ngini = 0.144\nsamples = 64\nvalue = [59, 5]"] ;
311 -> 337 ;
338 [label="X[210] <= 0.5\ngini = 0.063\nsamples = 61\nvalue = [59, 2]"] ;
337 -> 338 ;
339 [label="gini = 0.0\nsamples = 59\nvalue = [59, 0]"] ;
338 -> 339 ;
340 [label="gini = 0.0\nsamples = 2\nvalue = [0, 2]"] ;
338 -> 340 ;
341 [label="gini = 0.0\nsamples = 3\nvalue = [0, 3]"] ;
337 -> 341 ;
342 [label="X[222] <= 0.5\ngini = 0.167\nsamples = 1055\nvalue = [97, 958]"] ;
6 -> 342 ;
343 [label="X[0] <= 2.96\ngini = 0.437\nsamples = 59\nvalue = [19, 40]"] ;
342 -> 343 ;
344 [label="X[1009] <= 0.5\ngini = 0.419\nsamples = 57\nvalue = [17, 40]"] ;
343 -> 344 ;
345 [label="X[0] <= 2.895\ngini = 0.466\nsamples = 46\nvalue = [17, 29]"] ;
344 -> 345 ;
346 [label="X[0] <= 2.21\ngini = 0.489\nsamples = 40\nvalue = [17, 23]"] ;
345 -> 346 ;
347 [label="X[1010] <= 0.5\ngini = 0.463\nsamples = 33\nvalue = [12, 21]"] ;
346 -> 347 ;
348 [label="X[0] <= 0.555\ngini = 0.437\nsamples = 31\nvalue = [10, 21]"] ;
347 -> 348 ;
349 [label="gini = 0.0\nsamples = 4\nvalue = [0, 4]"] ;
348 -> 349 ;
350 [label="X[0] <= 0.675\ngini = 0.466\nsamples = 27\nvalue = [10, 17]"] ;
348 -> 350 ;
351 [label="gini = 0.0\nsamples = 2\nvalue = [2, 0]"] ;
350 -> 351 ;
352 [label="X[1051] <= 0.5\ngini = 0.435\nsamples = 25\nvalue = [8, 17]"] ;
350 -> 352 ;
353 [label="X[1076] <= 0.5\ngini = 0.413\nsamples = 24\nvalue = [7, 17]"] ;
352 -> 353 ;
354 [label="gini = 0.386\nsamples = 23\nvalue = [6, 17]"] ;
353 -> 354 ;
355 [label="gini = 0.0\nsamples = 1\nvalue = [1, 0]"] ;
353 -> 355 ;
356 [label="gini = 0.0\nsamples = 1\nvalue = [1, 0]"] ;
352 -> 356 ;
357 [label="gini = 0.0\nsamples = 2\nvalue = [2, 0]"] ;
347 -> 357 ;
358 [label="X[1003] <= 0.5\ngini = 0.408\nsamples = 7\nvalue = [5, 2]"] ;
346 -> 358 ;
359 [label="gini = 0.0\nsamples = 3\nvalue = [3, 0]"] ;
358 -> 359 ;
360 [label="X[0] <= 2.47\ngini = 0.5\nsamples = 4\nvalue = [2, 2]"] ;
358 -> 360 ;
361 [label="gini = 0.0\nsamples = 2\nvalue = [2, 0]"] ;
360 -> 361 ;
362 [label="gini = 0.0\nsamples = 2\nvalue = [0, 2]"] ;
360 -> 362 ;
363 [label="gini = 0.0\nsamples = 6\nvalue = [0, 6]"] ;
345 -> 363 ;
364 [label="gini = 0.0\nsamples = 11\nvalue = [0, 11]"] ;
344 -> 364 ;
365 [label="gini = 0.0\nsamples = 2\nvalue = [2, 0]"] ;
343 -> 365 ;
366 [label="X[0] <= 2.895\ngini = 0.144\nsamples = 996\nvalue = [78, 918]"] ;
342 -> 366 ;
367 [label="X[996] <= 0.5\ngini = 0.129\nsamples = 941\nvalue = [65, 876]"] ;
366 -> 367 ;
368 [label="X[1045] <= 0.5\ngini = 0.12\nsamples = 921\nvalue = [59, 862]"] ;
367 -> 368 ;
369 [label="X[1038] <= 0.5\ngini = 0.118\nsamples = 920\nvalue = [58, 862]"] ;
368 -> 369 ;
370 [label="X[1033] <= 0.5\ngini = 0.116\nsamples = 919\nvalue = [57, 862]"] ;
369 -> 370 ;
371 [label="X[1216] <= 0.5\ngini = 0.115\nsamples = 918\nvalue = [56, 862]"] ;
370 -> 371 ;
372 [label="X[1002] <= 0.5\ngini = 0.041\nsamples = 239\nvalue = [5, 234]"] ;
371 -> 372 ;
373 [label="X[1005] <= 0.5\ngini = 0.033\nsamples = 236\nvalue = [4, 232]"] ;
372 -> 373 ;
374 [label="X[0] <= 0.095\ngini = 0.025\nsamples = 233\nvalue = [3, 230]"] ;
373 -> 374 ;
375 [label="gini = 0.375\nsamples = 4\nvalue = [1, 3]"] ;
374 -> 375 ;
376 [label="gini = 0.017\nsamples = 229\nvalue = [2, 227]"] ;
374 -> 376 ;
377 [label="X[0] <= 1.865\ngini = 0.444\nsamples = 3\nvalue = [1, 2]"] ;
373 -> 377 ;
378 [label="gini = 0.0\nsamples = 1\nvalue = [1, 0]"] ;
377 -> 378 ;
379 [label="gini = 0.0\nsamples = 2\nvalue = [0, 2]"] ;
377 -> 379 ;
380 [label="X[0] <= 2.6\ngini = 0.444\nsamples = 3\nvalue = [1, 2]"] ;
372 -> 380 ;
381 [label="gini = 0.0\nsamples = 2\nvalue = [0, 2]"] ;
380 -> 381 ;
382 [label="gini = 0.0\nsamples = 1\nvalue = [1, 0]"] ;
380 -> 382 ;
383 [label="X[1008] <= 0.5\ngini = 0.139\nsamples = 679\nvalue = [51, 628]"] ;
371 -> 383 ;
384 [label="X[0] <= 0.79\ngini = 0.129\nsamples = 651\nvalue = [45, 606]"] ;
383 -> 384 ;
385 [label="X[0] <= 0.455\ngini = 0.062\nsamples = 157\nvalue = [5, 152]"] ;
384 -> 385 ;
386 [label="gini = 0.115\nsamples = 49\nvalue = [3, 46]"] ;
385 -> 386 ;
387 [label="gini = 0.036\nsamples = 108\nvalue = [2, 106]"] ;
385 -> 387 ;
388 [label="X[1018] <= 0.5\ngini = 0.149\nsamples = 494\nvalue = [40, 454]"] ;
384 -> 388 ;
389 [label="gini = 0.146\nsamples = 492\nvalue = [39, 453]"] ;
388 -> 389 ;
390 [label="gini = 0.5\nsamples = 2\nvalue = [1, 1]"] ;
388 -> 390 ;
391 [label="X[0] <= 2.4\ngini = 0.337\nsamples = 28\nvalue = [6, 22]"] ;
383 -> 391 ;
392 [label="X[0] <= 1.015\ngini = 0.26\nsamples = 26\nvalue = [4, 22]"] ;
391 -> 392 ;
393 [label="gini = 0.426\nsamples = 13\nvalue = [4, 9]"] ;
392 -> 393 ;
394 [label="gini = 0.0\nsamples = 13\nvalue = [0, 13]"] ;
392 -> 394 ;
395 [label="gini = 0.0\nsamples = 2\nvalue = [2, 0]"] ;
391 -> 395 ;
396 [label="gini = 0.0\nsamples = 1\nvalue = [1, 0]"] ;
370 -> 396 ;
397 [label="gini = 0.0\nsamples = 1\nvalue = [1, 0]"] ;
369 -> 397 ;
398 [label="gini = 0.0\nsamples = 1\nvalue = [1, 0]"] ;
368 -> 398 ;
399 [label="X[0] <= 0.565\ngini = 0.42\nsamples = 20\nvalue = [6, 14]"] ;
367 -> 399 ;
400 [label="gini = 0.0\nsamples = 1\nvalue = [1, 0]"] ;
399 -> 400 ;
401 [label="X[0] <= 2.625\ngini = 0.388\nsamples = 19\nvalue = [5, 14]"] ;
399 -> 401 ;
402 [label="X[0] <= 2.35\ngini = 0.444\nsamples = 15\nvalue = [5, 10]"] ;
401 -> 402 ;
403 [label="X[0] <= 0.805\ngini = 0.278\nsamples = 12\nvalue = [2, 10]"] ;
402 -> 403 ;
404 [label="X[1217] <= 0.5\ngini = 0.48\nsamples = 5\nvalue = [2, 3]"] ;
403 -> 404 ;
405 [label="X[0] <= 0.675\ngini = 0.375\nsamples = 4\nvalue = [1, 3]"] ;
404 -> 405 ;
406 [label="X[0] <= 0.63\ngini = 0.5\nsamples = 2\nvalue = [1, 1]"] ;
405 -> 406 ;
407 [label="gini = 0.0\nsamples = 1\nvalue = [0, 1]"] ;
406 -> 407 ;
408 [label="gini = 0.0\nsamples = 1\nvalue = [1, 0]"] ;
406 -> 408 ;
409 [label="gini = 0.0\nsamples = 2\nvalue = [0, 2]"] ;
405 -> 409 ;
410 [label="gini = 0.0\nsamples = 1\nvalue = [1, 0]"] ;
404 -> 410 ;
411 [label="gini = 0.0\nsamples = 7\nvalue = [0, 7]"] ;
403 -> 411 ;
412 [label="gini = 0.0\nsamples = 3\nvalue = [3, 0]"] ;
402 -> 412 ;
413 [label="gini = 0.0\nsamples = 4\nvalue = [0, 4]"] ;
401 -> 413 ;
414 [label="X[1015] <= 0.5\ngini = 0.361\nsamples = 55\nvalue = [13, 42]"] ;
366 -> 414 ;
415 [label="X[1010] <= 0.5\ngini = 0.311\nsamples = 52\nvalue = [10, 42]"] ;
414 -> 415 ;
416 [label="X[996] <= 0.5\ngini = 0.291\nsamples = 51\nvalue = [9, 42]"] ;
415 -> 416 ;
417 [label="X[1022] <= 0.5\ngini = 0.269\nsamples = 50\nvalue = [8, 42]"] ;
416 -> 417 ;
418 [label="X[1020] <= 0.5\ngini = 0.245\nsamples = 49\nvalue = [7, 42]"] ;
417 -> 418 ;
419 [label="X[1026] <= 0.5\ngini = 0.219\nsamples = 48\nvalue = [6, 42]"] ;
418 -> 419 ;
420 [label="X[1031] <= 0.5\ngini = 0.19\nsamples = 47\nvalue = [5, 42]"] ;
419 -> 420 ;
421 [label="X[1017] <= 0.5\ngini = 0.159\nsamples = 46\nvalue = [4, 42]"] ;
420 -> 421 ;
422 [label="gini = 0.127\nsamples = 44\nvalue = [3, 41]"] ;
421 -> 422 ;
423 [label="gini = 0.5\nsamples = 2\nvalue = [1, 1]"] ;
421 -> 423 ;
424 [label="gini = 0.0\nsamples = 1\nvalue = [1, 0]"] ;
420 -> 424 ;
425 [label="gini = 0.0\nsamples = 1\nvalue = [1, 0]"] ;
419 -> 425 ;
426 [label="gini = 0.0\nsamples = 1\nvalue = [1, 0]"] ;
418 -> 426 ;
427 [label="gini = 0.0\nsamples = 1\nvalue = [1, 0]"] ;
417 -> 427 ;
428 [label="gini = 0.0\nsamples = 1\nvalue = [1, 0]"] ;
416 -> 428 ;
429 [label="gini = 0.0\nsamples = 1\nvalue = [1, 0]"] ;
415 -> 429 ;
430 [label="gini = 0.0\nsamples = 3\nvalue = [3, 0]"] ;
414 -> 430 ;
431 [label="X[1241] <= 0.5\ngini = 0.017\nsamples = 1414\nvalue = [12, 1402]"] ;
5 -> 431 ;
432 [label="X[0] <= 0.655\ngini = 0.003\nsamples = 1387\nvalue = [2, 1385]"] ;
431 -> 432 ;
433 [label="X[1007] <= 0.5\ngini = 0.034\nsamples = 115\nvalue = [2, 113]"] ;
432 -> 433 ;
434 [label="X[997] <= 0.5\ngini = 0.017\nsamples = 114\nvalue = [1, 113]"] ;
433 -> 434 ;
435 [label="gini = 0.0\nsamples = 106\nvalue = [0, 106]"] ;
434 -> 435 ;
436 [label="X[0] <= 0.525\ngini = 0.219\nsamples = 8\nvalue = [1, 7]"] ;
434 -> 436 ;
437 [label="X[0] <= 0.465\ngini = 0.375\nsamples = 4\nvalue = [1, 3]"] ;
436 -> 437 ;
438 [label="gini = 0.0\nsamples = 2\nvalue = [0, 2]"] ;
437 -> 438 ;
439 [label="gini = 0.5\nsamples = 2\nvalue = [1, 1]"] ;
437 -> 439 ;
440 [label="gini = 0.0\nsamples = 4\nvalue = [0, 4]"] ;
436 -> 440 ;
441 [label="gini = 0.0\nsamples = 1\nvalue = [1, 0]"] ;
433 -> 441 ;
442 [label="gini = 0.0\nsamples = 1272\nvalue = [0, 1272]"] ;
432 -> 442 ;
443 [label="X[0] <= 0.83\ngini = 0.466\nsamples = 27\nvalue = [10, 17]"] ;
431 -> 443 ;
444 [label="X[1009] <= 0.5\ngini = 0.375\nsamples = 4\nvalue = [3, 1]"] ;
443 -> 444 ;
445 [label="gini = 0.0\nsamples = 3\nvalue = [3, 0]"] ;
444 -> 445 ;
446 [label="gini = 0.0\nsamples = 1\nvalue = [0, 1]"] ;
444 -> 446 ;
447 [label="X[0] <= 2.775\ngini = 0.423\nsamples = 23\nvalue = [7, 16]"] ;
443 -> 447 ;
448 [label="X[1008] <= 0.5\ngini = 0.397\nsamples = 22\nvalue = [6, 16]"] ;
447 -> 448 ;
449 [label="X[1003] <= 0.5\ngini = 0.363\nsamples = 21\nvalue = [5, 16]"] ;
448 -> 449 ;
450 [label="X[0] <= 1.005\ngini = 0.463\nsamples = 11\nvalue = [4, 7]"] ;
449 -> 450 ;
451 [label="gini = 0.0\nsamples = 3\nvalue = [0, 3]"] ;
450 -> 451 ;
452 [label="X[0] <= 1.205\ngini = 0.5\nsamples = 8\nvalue = [4, 4]"] ;
450 -> 452 ;
453 [label="gini = 0.0\nsamples = 1\nvalue = [1, 0]"] ;
452 -> 453 ;
454 [label="X[0] <= 1.45\ngini = 0.49\nsamples = 7\nvalue = [3, 4]"] ;
452 -> 454 ;
455 [label="gini = 0.0\nsamples = 2\nvalue = [0, 2]"] ;
454 -> 455 ;
456 [label="X[1007] <= 0.5\ngini = 0.48\nsamples = 5\nvalue = [3, 2]"] ;
454 -> 456 ;
457 [label="X[0] <= 1.695\ngini = 0.444\nsamples = 3\nvalue = [1, 2]"] ;
456 -> 457 ;
458 [label="gini = 0.0\nsamples = 1\nvalue = [0, 1]"] ;
457 -> 458 ;
459 [label="X[0] <= 2.255\ngini = 0.5\nsamples = 2\nvalue = [1, 1]"] ;
457 -> 459 ;
460 [label="gini = 0.0\nsamples = 1\nvalue = [1, 0]"] ;
459 -> 460 ;
461 [label="gini = 0.0\nsamples = 1\nvalue = [0, 1]"] ;
459 -> 461 ;
462 [label="gini = 0.0\nsamples = 2\nvalue = [2, 0]"] ;
456 -> 462 ;
463 [label="X[0] <= 1.015\ngini = 0.18\nsamples = 10\nvalue = [1, 9]"] ;
449 -> 463 ;
464 [label="gini = 0.0\nsamples = 1\nvalue = [1, 0]"] ;
463 -> 464 ;
465 [label="gini = 0.0\nsamples = 9\nvalue = [0, 9]"] ;
463 -> 465 ;
466 [label="gini = 0.0\nsamples = 1\nvalue = [1, 0]"] ;
448 -> 466 ;
467 [label="gini = 0.0\nsamples = 1\nvalue = [1, 0]"] ;
447 -> 467 ;
468 [label="X[8] <= 0.5\ngini = 0.248\nsamples = 3430\nvalue = [498, 2932]"] ;
4 -> 468 ;
469 [label="X[2] <= 0.5\ngini = 0.052\nsamples = 2912\nvalue = [78, 2834]"] ;
468 -> 469 ;
470 [label="X[5] <= 0.5\ngini = 0.035\nsamples = 2884\nvalue = [51, 2833]"] ;
469 -> 470 ;
471 [label="X[7] <= 0.5\ngini = 0.021\nsamples = 2862\nvalue = [30, 2832]"] ;
470 -> 471 ;
472 [label="X[106] <= 0.5\ngini = 0.014\nsamples = 2852\nvalue = [20, 2832]"] ;
471 -> 472 ;
473 [label="X[49] <= 0.5\ngini = 0.013\nsamples = 2850\nvalue = [18, 2832]"] ;
472 -> 473 ;
474 [label="X[85] <= 0.5\ngini = 0.011\nsamples = 2848\nvalue = [16, 2832]"] ;
473 -> 474 ;
475 [label="X[96] <= 0.5\ngini = 0.009\nsamples = 2841\nvalue = [13, 2828]"] ;
474 -> 475 ;
476 [label="X[1063] <= 0.5\ngini = 0.008\nsamples = 2840\nvalue = [12, 2828]"] ;
475 -> 476 ;
477 [label="X[1025] <= 0.5\ngini = 0.008\nsamples = 2839\nvalue = [11, 2828]"] ;
476 -> 477 ;
478 [label="X[1029] <= 0.5\ngini = 0.007\nsamples = 2833\nvalue = [10, 2823]"] ;
477 -> 478 ;
479 [label="X[1017] <= 0.5\ngini = 0.006\nsamples = 2824\nvalue = [9, 2815]"] ;
478 -> 479 ;
480 [label="gini = 0.006\nsamples = 2811\nvalue = [8, 2803]"] ;
479 -> 480 ;
481 [label="gini = 0.142\nsamples = 13\nvalue = [1, 12]"] ;
479 -> 481 ;
482 [label="X[68] <= 0.5\ngini = 0.198\nsamples = 9\nvalue = [1, 8]"] ;
478 -> 482 ;
483 [label="gini = 0.0\nsamples = 7\nvalue = [0, 7]"] ;
482 -> 483 ;
484 [label="gini = 0.5\nsamples = 2\nvalue = [1, 1]"] ;
482 -> 484 ;
485 [label="X[0] <= 2.4\ngini = 0.278\nsamples = 6\nvalue = [1, 5]"] ;
477 -> 485 ;
486 [label="gini = 0.0\nsamples = 4\nvalue = [0, 4]"] ;
485 -> 486 ;
487 [label="gini = 0.5\nsamples = 2\nvalue = [1, 1]"] ;
485 -> 487 ;
488 [label="gini = 0.0\nsamples = 1\nvalue = [1, 0]"] ;
476 -> 488 ;
489 [label="gini = 0.0\nsamples = 1\nvalue = [1, 0]"] ;
475 -> 489 ;
490 [label="X[998] <= 0.5\ngini = 0.49\nsamples = 7\nvalue = [3, 4]"] ;
474 -> 490 ;
491 [label="X[0] <= 1.355\ngini = 0.32\nsamples = 5\nvalue = [1, 4]"] ;
490 -> 491 ;
492 [label="gini = 0.0\nsamples = 3\nvalue = [0, 3]"] ;
491 -> 492 ;
493 [label="X[0] <= 1.82\ngini = 0.5\nsamples = 2\nvalue = [1, 1]"] ;
491 -> 493 ;
494 [label="gini = 0.0\nsamples = 1\nvalue = [1, 0]"] ;
493 -> 494 ;
495 [label="gini = 0.0\nsamples = 1\nvalue = [0, 1]"] ;
493 -> 495 ;
496 [label="gini = 0.0\nsamples = 2\nvalue = [2, 0]"] ;
490 -> 496 ;
497 [label="gini = 0.0\nsamples = 2\nvalue = [2, 0]"] ;
473 -> 497 ;
498 [label="gini = 0.0\nsamples = 2\nvalue = [2, 0]"] ;
472 -> 498 ;
499 [label="gini = 0.0\nsamples = 10\nvalue = [10, 0]"] ;
471 -> 499 ;
500 [label="X[1003] <= 0.5\ngini = 0.087\nsamples = 22\nvalue = [21, 1]"] ;
470 -> 500 ;
501 [label="gini = 0.0\nsamples = 16\nvalue = [16, 0]"] ;
500 -> 501 ;
502 [label="X[0] <= 2.155\ngini = 0.278\nsamples = 6\nvalue = [5, 1]"] ;
500 -> 502 ;
503 [label="X[0] <= 1.475\ngini = 0.444\nsamples = 3\nvalue = [2, 1]"] ;
502 -> 503 ;
504 [label="gini = 0.0\nsamples = 2\nvalue = [2, 0]"] ;
503 -> 504 ;
505 [label="gini = 0.0\nsamples = 1\nvalue = [0, 1]"] ;
503 -> 505 ;
506 [label="gini = 0.0\nsamples = 3\nvalue = [3, 0]"] ;
502 -> 506 ;
507 [label="X[0] <= 1.455\ngini = 0.069\nsamples = 28\nvalue = [27, 1]"] ;
469 -> 507 ;
508 [label="X[0] <= 1.445\ngini = 0.245\nsamples = 7\nvalue = [6, 1]"] ;
507 -> 508 ;
509 [label="gini = 0.0\nsamples = 4\nvalue = [4, 0]"] ;
508 -> 509 ;
510 [label="X[1004] <= 0.5\ngini = 0.444\nsamples = 3\nvalue = [2, 1]"] ;
508 -> 510 ;
511 [label="gini = 0.5\nsamples = 2\nvalue = [1, 1]"] ;
510 -> 511 ;
512 [label="gini = 0.0\nsamples = 1\nvalue = [1, 0]"] ;
510 -> 512 ;
513 [label="gini = 0.0\nsamples = 21\nvalue = [21, 0]"] ;
507 -> 513 ;
514 [label="X[0] <= 2.795\ngini = 0.307\nsamples = 518\nvalue = [420, 98]"] ;
468 -> 514 ;
515 [label="X[0] <= 0.99\ngini = 0.358\nsamples = 386\nvalue = [296, 90]"] ;
514 -> 515 ;
516 [label="X[0] <= 0.645\ngini = 0.158\nsamples = 81\nvalue = [74, 7]"] ;
515 -> 516 ;
517 [label="X[1009] <= 0.5\ngini = 0.459\nsamples = 14\nvalue = [9, 5]"] ;
516 -> 517 ;
518 [label="X[1013] <= 0.5\ngini = 0.494\nsamples = 9\nvalue = [4, 5]"] ;
517 -> 518 ;
519 [label="X[223] <= 0.5\ngini = 0.408\nsamples = 7\nvalue = [2, 5]"] ;
518 -> 519 ;
520 [label="gini = 0.0\nsamples = 4\nvalue = [0, 4]"] ;
519 -> 520 ;
521 [label="X[1003] <= 0.5\ngini = 0.444\nsamples = 3\nvalue = [2, 1]"] ;
519 -> 521 ;
522 [label="gini = 0.0\nsamples = 2\nvalue = [2, 0]"] ;
521 -> 522 ;
523 [label="gini = 0.0\nsamples = 1\nvalue = [0, 1]"] ;
521 -> 523 ;
524 [label="gini = 0.0\nsamples = 2\nvalue = [2, 0]"] ;
518 -> 524 ;
525 [label="gini = 0.0\nsamples = 5\nvalue = [5, 0]"] ;
517 -> 525 ;
526 [label="X[0] <= 0.825\ngini = 0.058\nsamples = 67\nvalue = [65, 2]"] ;
516 -> 526 ;
527 [label="X[1009] <= 0.5\ngini = 0.033\nsamples = 59\nvalue = [58, 1]"] ;
526 -> 527 ;
528 [label="gini = 0.0\nsamples = 44\nvalue = [44, 0]"] ;
527 -> 528 ;
529 [label="X[0] <= 0.775\ngini = 0.124\nsamples = 15\nvalue = [14, 1]"] ;
527 -> 529 ;
530 [label="X[0] <= 0.745\ngini = 0.245\nsamples = 7\nvalue = [6, 1]"] ;
529 -> 530 ;
531 [label="gini = 0.0\nsamples = 4\nvalue = [4, 0]"] ;
530 -> 531 ;
532 [label="gini = 0.444\nsamples = 3\nvalue = [2, 1]"] ;
530 -> 532 ;
533 [label="gini = 0.0\nsamples = 8\nvalue = [8, 0]"] ;
529 -> 533 ;
534 [label="X[1003] <= 0.5\ngini = 0.219\nsamples = 8\nvalue = [7, 1]"] ;
526 -> 534 ;
535 [label="gini = 0.0\nsamples = 5\nvalue = [5, 0]"] ;
534 -> 535 ;
536 [label="X[0] <= 0.835\ngini = 0.444\nsamples = 3\nvalue = [2, 1]"] ;
534 -> 536 ;
537 [label="gini = 0.5\nsamples = 2\nvalue = [1, 1]"] ;
536 -> 537 ;
538 [label="gini = 0.0\nsamples = 1\nvalue = [1, 0]"] ;
536 -> 538 ;
539 [label="X[0] <= 2.505\ngini = 0.396\nsamples = 305\nvalue = [222, 83]"] ;
515 -> 539 ;
540 [label="X[0] <= 1.815\ngini = 0.5\nsamples = 79\nvalue = [39, 40]"] ;
539 -> 540 ;
541 [label="X[0] <= 1.745\ngini = 0.471\nsamples = 50\nvalue = [31, 19]"] ;
540 -> 541 ;
542 [label="X[996] <= 0.5\ngini = 0.491\nsamples = 30\nvalue = [13, 17]"] ;
541 -> 542 ;
543 [label="X[1026] <= 0.5\ngini = 0.453\nsamples = 26\nvalue = [9, 17]"] ;
542 -> 543 ;
544 [label="X[0] <= 1.665\ngini = 0.413\nsamples = 24\nvalue = [7, 17]"] ;
543 -> 544 ;
545 [label="X[0] <= 1.365\ngini = 0.465\nsamples = 19\nvalue = [7, 12]"] ;
544 -> 545 ;
546 [label="gini = 0.0\nsamples = 3\nvalue = [0, 3]"] ;
545 -> 546 ;
547 [label="X[0] <= 1.425\ngini = 0.492\nsamples = 16\nvalue = [7, 9]"] ;
545 -> 547 ;
548 [label="gini = 0.0\nsamples = 2\nvalue = [2, 0]"] ;
547 -> 548 ;
549 [label="X[1016] <= 0.5\ngini = 0.459\nsamples = 14\nvalue = [5, 9]"] ;
547 -> 549 ;
550 [label="gini = 0.426\nsamples = 13\nvalue = [4, 9]"] ;
549 -> 550 ;
551 [label="gini = 0.0\nsamples = 1\nvalue = [1, 0]"] ;
549 -> 551 ;
552 [label="gini = 0.0\nsamples = 5\nvalue = [0, 5]"] ;
544 -> 552 ;
553 [label="gini = 0.0\nsamples = 2\nvalue = [2, 0]"] ;
543 -> 553 ;
554 [label="gini = 0.0\nsamples = 4\nvalue = [4, 0]"] ;
542 -> 554 ;
555 [label="X[1030] <= 0.5\ngini = 0.18\nsamples = 20\nvalue = [18, 2]"] ;
541 -> 555 ;
556 [label="X[1003] <= 0.5\ngini = 0.1\nsamples = 19\nvalue = [18, 1]"] ;
555 -> 556 ;
557 [label="gini = 0.0\nsamples = 14\nvalue = [14, 0]"] ;
556 -> 557 ;
558 [label="X[0] <= 1.775\ngini = 0.32\nsamples = 5\nvalue = [4, 1]"] ;
556 -> 558 ;
559 [label="gini = 0.0\nsamples = 3\nvalue = [3, 0]"] ;
558 -> 559 ;
560 [label="X[0] <= 1.79\ngini = 0.5\nsamples = 2\nvalue = [1, 1]"] ;
558 -> 560 ;
561 [label="gini = 0.0\nsamples = 1\nvalue = [0, 1]"] ;
560 -> 561 ;
562 [label="gini = 0.0\nsamples = 1\nvalue = [1, 0]"] ;
560 -> 562 ;
563 [label="gini = 0.0\nsamples = 1\nvalue = [0, 1]"] ;
555 -> 563 ;
564 [label="X[0] <= 2.43\ngini = 0.4\nsamples = 29\nvalue = [8, 21]"] ;
540 -> 564 ;
565 [label="X[1004] <= 0.5\ngini = 0.255\nsamples = 20\nvalue = [3, 17]"] ;
564 -> 565 ;
566 [label="X[1031] <= 0.5\ngini = 0.188\nsamples = 19\nvalue = [2, 17]"] ;
565 -> 566 ;
567 [label="X[1009] <= 0.5\ngini = 0.105\nsamples = 18\nvalue = [1, 17]"] ;
566 -> 567 ;
568 [label="gini = 0.0\nsamples = 15\nvalue = [0, 15]"] ;
567 -> 568 ;
569 [label="X[0] <= 1.94\ngini = 0.444\nsamples = 3\nvalue = [1, 2]"] ;
567 -> 569 ;
570 [label="gini = 0.0\nsamples = 1\nvalue = [0, 1]"] ;
569 -> 570 ;
571 [label="X[0] <= 2.225\ngini = 0.5\nsamples = 2\nvalue = [1, 1]"] ;
569 -> 571 ;
572 [label="gini = 0.0\nsamples = 1\nvalue = [1, 0]"] ;
571 -> 572 ;
573 [label="gini = 0.0\nsamples = 1\nvalue = [0, 1]"] ;
571 -> 573 ;
574 [label="gini = 0.0\nsamples = 1\nvalue = [1, 0]"] ;
566 -> 574 ;
575 [label="gini = 0.0\nsamples = 1\nvalue = [1, 0]"] ;
565 -> 575 ;
576 [label="X[996] <= 0.5\ngini = 0.494\nsamples = 9\nvalue = [5, 4]"] ;
564 -> 576 ;
577 [label="X[1009] <= 0.5\ngini = 0.408\nsamples = 7\nvalue = [5, 2]"] ;
576 -> 577 ;
578 [label="gini = 0.0\nsamples = 4\nvalue = [4, 0]"] ;
577 -> 578 ;
579 [label="X[0] <= 2.445\ngini = 0.444\nsamples = 3\nvalue = [1, 2]"] ;
577 -> 579 ;
580 [label="gini = 0.0\nsamples = 1\nvalue = [1, 0]"] ;
579 -> 580 ;
581 [label="gini = 0.0\nsamples = 2\nvalue = [0, 2]"] ;
579 -> 581 ;
582 [label="gini = 0.0\nsamples = 2\nvalue = [0, 2]"] ;
576 -> 582 ;
583 [label="X[1010] <= 0.5\ngini = 0.308\nsamples = 226\nvalue = [183, 43]"] ;
539 -> 583 ;
584 [label="X[0] <= 2.725\ngini = 0.299\nsamples = 224\nvalue = [183, 41]"] ;
583 -> 584 ;
585 [label="X[1041] <= 0.5\ngini = 0.249\nsamples = 178\nvalue = [152, 26]"] ;
584 -> 585 ;
586 [label="X[0] <= 2.705\ngini = 0.243\nsamples = 177\nvalue = [152, 25]"] ;
585 -> 586 ;
587 [label="X[1009] <= 0.5\ngini = 0.26\nsamples = 163\nvalue = [138, 25]"] ;
586 -> 587 ;
588 [label="X[1003] <= 0.5\ngini = 0.224\nsamples = 117\nvalue = [102, 15]"] ;
587 -> 588 ;
589 [label="X[0] <= 2.585\ngini = 0.182\nsamples = 79\nvalue = [71, 8]"] ;
588 -> 589 ;
590 [label="X[1015] <= 0.5\ngini = 0.293\nsamples = 28\nvalue = [23, 5]"] ;
589 -> 590 ;
591 [label="gini = 0.252\nsamples = 27\nvalue = [23, 4]"] ;
590 -> 591 ;
592 [label="gini = 0.0\nsamples = 1\nvalue = [0, 1]"] ;
590 -> 592 ;
593 [label="X[223] <= 0.5\ngini = 0.111\nsamples = 51\nvalue = [48, 3]"] ;
589 -> 593 ;
594 [label="gini = 0.078\nsamples = 49\nvalue = [47, 2]"] ;
593 -> 594 ;
595 [label="gini = 0.5\nsamples = 2\nvalue = [1, 1]"] ;
593 -> 595 ;
596 [label="X[0] <= 2.545\ngini = 0.301\nsamples = 38\nvalue = [31, 7]"] ;
588 -> 596 ;
597 [label="gini = 0.0\nsamples = 6\nvalue = [6, 0]"] ;
596 -> 597 ;
598 [label="X[0] <= 2.555\ngini = 0.342\nsamples = 32\nvalue = [25, 7]"] ;
596 -> 598 ;
599 [label="gini = 0.5\nsamples = 2\nvalue = [1, 1]"] ;
598 -> 599 ;
600 [label="gini = 0.32\nsamples = 30\nvalue = [24, 6]"] ;
598 -> 600 ;
601 [label="X[0] <= 2.525\ngini = 0.34\nsamples = 46\nvalue = [36, 10]"] ;
587 -> 601 ;
602 [label="gini = 0.0\nsamples = 2\nvalue = [2, 0]"] ;
601 -> 602 ;
603 [label="X[0] <= 2.555\ngini = 0.351\nsamples = 44\nvalue = [34, 10]"] ;
601 -> 603 ;
604 [label="X[0] <= 2.54\ngini = 0.469\nsamples = 8\nvalue = [5, 3]"] ;
603 -> 604 ;
605 [label="gini = 0.375\nsamples = 4\nvalue = [3, 1]"] ;
604 -> 605 ;
606 [label="gini = 0.5\nsamples = 4\nvalue = [2, 2]"] ;
604 -> 606 ;
607 [label="X[0] <= 2.605\ngini = 0.313\nsamples = 36\nvalue = [29, 7]"] ;
603 -> 607 ;
608 [label="gini = 0.142\nsamples = 13\nvalue = [12, 1]"] ;
607 -> 608 ;
609 [label="gini = 0.386\nsamples = 23\nvalue = [17, 6]"] ;
607 -> 609 ;
610 [label="gini = 0.0\nsamples = 14\nvalue = [14, 0]"] ;
586 -> 610 ;
611 [label="gini = 0.0\nsamples = 1\nvalue = [0, 1]"] ;
585 -> 611 ;
612 [label="X[1007] <= 0.5\ngini = 0.44\nsamples = 46\nvalue = [31, 15]"] ;
584 -> 612 ;
613 [label="X[1000] <= 0.5\ngini = 0.402\nsamples = 43\nvalue = [31, 12]"] ;
612 -> 613 ;
614 [label="X[1012] <= 0.5\ngini = 0.387\nsamples = 42\nvalue = [31, 11]"] ;
613 -> 614 ;
615 [label="X[1018] <= 0.5\ngini = 0.369\nsamples = 41\nvalue = [31, 10]"] ;
614 -> 615 ;
616 [label="X[998] <= 0.5\ngini = 0.349\nsamples = 40\nvalue = [31, 9]"] ;
615 -> 616 ;
617 [label="X[1015] <= 0.5\ngini = 0.307\nsamples = 37\nvalue = [30, 7]"] ;
616 -> 617 ;
618 [label="gini = 0.278\nsamples = 36\nvalue = [30, 6]"] ;
617 -> 618 ;
619 [label="gini = 0.0\nsamples = 1\nvalue = [0, 1]"] ;
617 -> 619 ;
620 [label="X[0] <= 2.755\ngini = 0.444\nsamples = 3\nvalue = [1, 2]"] ;
616 -> 620 ;
621 [label="gini = 0.0\nsamples = 2\nvalue = [0, 2]"] ;
620 -> 621 ;
622 [label="gini = 0.0\nsamples = 1\nvalue = [1, 0]"] ;
620 -> 622 ;
623 [label="gini = 0.0\nsamples = 1\nvalue = [0, 1]"] ;
615 -> 623 ;
624 [label="gini = 0.0\nsamples = 1\nvalue = [0, 1]"] ;
614 -> 624 ;
625 [label="gini = 0.0\nsamples = 1\nvalue = [0, 1]"] ;
613 -> 625 ;
626 [label="gini = 0.0\nsamples = 3\nvalue = [0, 3]"] ;
612 -> 626 ;
627 [label="gini = 0.0\nsamples = 2\nvalue = [0, 2]"] ;
583 -> 627 ;
628 [label="X[1012] <= 0.5\ngini = 0.114\nsamples = 132\nvalue = [124, 8]"] ;
514 -> 628 ;
629 [label="X[998] <= 0.5\ngini = 0.104\nsamples = 127\nvalue = [120, 7]"] ;
628 -> 629 ;
630 [label="X[1003] <= 0.5\ngini = 0.094\nsamples = 122\nvalue = [116, 6]"] ;
629 -> 630 ;
631 [label="X[0] <= 2.955\ngini = 0.062\nsamples = 93\nvalue = [90, 3]"] ;
630 -> 631 ;
632 [label="gini = 0.0\nsamples = 63\nvalue = [63, 0]"] ;
631 -> 632 ;
633 [label="X[1009] <= 0.5\ngini = 0.18\nsamples = 30\nvalue = [27, 3]"] ;
631 -> 633 ;
634 [label="X[1007] <= 0.5\ngini = 0.087\nsamples = 22\nvalue = [21, 1]"] ;
633 -> 634 ;
635 [label="gini = 0.0\nsamples = 17\nvalue = [17, 0]"] ;
634 -> 635 ;
636 [label="X[0] <= 2.97\ngini = 0.32\nsamples = 5\nvalue = [4, 1]"] ;
634 -> 636 ;
637 [label="gini = 0.0\nsamples = 1\nvalue = [0, 1]"] ;
636 -> 637 ;
638 [label="gini = 0.0\nsamples = 4\nvalue = [4, 0]"] ;
636 -> 638 ;
639 [label="X[0] <= 2.995\ngini = 0.375\nsamples = 8\nvalue = [6, 2]"] ;
633 -> 639 ;
640 [label="X[0] <= 2.98\ngini = 0.444\nsamples = 6\nvalue = [4, 2]"] ;
639 -> 640 ;
641 [label="gini = 0.375\nsamples = 4\nvalue = [3, 1]"] ;
640 -> 641 ;
642 [label="gini = 0.5\nsamples = 2\nvalue = [1, 1]"] ;
640 -> 642 ;
643 [label="gini = 0.0\nsamples = 2\nvalue = [2, 0]"] ;
639 -> 643 ;
644 [label="X[0] <= 2.905\ngini = 0.185\nsamples = 29\nvalue = [26, 3]"] ;
630 -> 644 ;
645 [label="X[0] <= 2.835\ngini = 0.32\nsamples = 15\nvalue = [12, 3]"] ;
644 -> 645 ;
646 [label="X[0] <= 2.82\ngini = 0.444\nsamples = 3\nvalue = [2, 1]"] ;
645 -> 646 ;
647 [label="gini = 0.0\nsamples = 1\nvalue = [1, 0]"] ;
646 -> 647 ;
648 [label="gini = 0.5\nsamples = 2\nvalue = [1, 1]"] ;
646 -> 648 ;
649 [label="X[0] <= 2.845\ngini = 0.278\nsamples = 12\nvalue = [10, 2]"] ;
645 -> 649 ;
650 [label="gini = 0.0\nsamples = 3\nvalue = [3, 0]"] ;
649 -> 650 ;
651 [label="X[0] <= 2.86\ngini = 0.346\nsamples = 9\nvalue = [7, 2]"] ;
649 -> 651 ;
652 [label="X[222] <= 0.5\ngini = 0.444\nsamples = 3\nvalue = [2, 1]"] ;
651 -> 652 ;
653 [label="gini = 0.0\nsamples = 1\nvalue = [1, 0]"] ;
652 -> 653 ;
654 [label="gini = 0.5\nsamples = 2\nvalue = [1, 1]"] ;
652 -> 654 ;
655 [label="X[0] <= 2.895\ngini = 0.278\nsamples = 6\nvalue = [5, 1]"] ;
651 -> 655 ;
656 [label="gini = 0.0\nsamples = 2\nvalue = [2, 0]"] ;
655 -> 656 ;
657 [label="gini = 0.375\nsamples = 4\nvalue = [3, 1]"] ;
655 -> 657 ;
658 [label="gini = 0.0\nsamples = 14\nvalue = [14, 0]"] ;
644 -> 658 ;
659 [label="X[0] <= 2.885\ngini = 0.32\nsamples = 5\nvalue = [4, 1]"] ;
629 -> 659 ;
660 [label="gini = 0.0\nsamples = 2\nvalue = [2, 0]"] ;
659 -> 660 ;
661 [label="X[0] <= 2.925\ngini = 0.444\nsamples = 3\nvalue = [2, 1]"] ;
659 -> 661 ;
662 [label="gini = 0.0\nsamples = 1\nvalue = [0, 1]"] ;
661 -> 662 ;
663 [label="gini = 0.0\nsamples = 2\nvalue = [2, 0]"] ;
661 -> 663 ;
664 [label="X[0] <= 2.94\ngini = 0.32\nsamples = 5\nvalue = [4, 1]"] ;
628 -> 664 ;
665 [label="gini = 0.0\nsamples = 2\nvalue = [2, 0]"] ;
664 -> 665 ;
666 [label="X[0] <= 2.955\ngini = 0.444\nsamples = 3\nvalue = [2, 1]"] ;
664 -> 666 ;
667 [label="gini = 0.5\nsamples = 2\nvalue = [1, 1]"] ;
666 -> 667 ;
668 [label="gini = 0.0\nsamples = 1\nvalue = [1, 0]"] ;
666 -> 668 ;
669 [label="X[597] <= 0.5\ngini = 0.044\nsamples = 3625\nvalue = [82, 3543]"] ;
3 -> 669 ;
670 [label="X[0] <= 2.675\ngini = 0.044\nsamples = 3624\nvalue = [81, 3543]"] ;
669 -> 670 ;
671 [label="X[382] <= 0.5\ngini = 0.031\nsamples = 2941\nvalue = [46, 2895]"] ;
670 -> 671 ;
672 [label="X[1217] <= 0.5\ngini = 0.03\nsamples = 2939\nvalue = [45, 2894]"] ;
671 -> 672 ;
673 [label="X[928] <= 0.5\ngini = 0.016\nsamples = 1502\nvalue = [12, 1490]"] ;
672 -> 673 ;
674 [label="X[290] <= 0.5\ngini = 0.015\nsamples = 1496\nvalue = [11, 1485]"] ;
673 -> 674 ;
675 [label="X[320] <= 0.5\ngini = 0.013\nsamples = 1487\nvalue = [10, 1477]"] ;
674 -> 675 ;
676 [label="X[287] <= 0.5\ngini = 0.012\nsamples = 1477\nvalue = [9, 1468]"] ;
675 -> 676 ;
677 [label="X[246] <= 0.5\ngini = 0.011\nsamples = 1467\nvalue = [8, 1459]"] ;
676 -> 677 ;
678 [label="X[0] <= 2.635\ngini = 0.01\nsamples = 1444\nvalue = [7, 1437]"] ;
677 -> 678 ;
679 [label="X[221] <= 0.5\ngini = 0.008\nsamples = 1419\nvalue = [6, 1413]"] ;
678 -> 679 ;
680 [label="gini = 0.0\nsamples = 559\nvalue = [0, 559]"] ;
679 -> 680 ;
681 [label="X[0] <= 0.635\ngini = 0.014\nsamples = 860\nvalue = [6, 854]"] ;
679 -> 681 ;
682 [label="X[0] <= 0.625\ngini = 0.027\nsamples = 147\nvalue = [2, 145]"] ;
681 -> 682 ;
683 [label="gini = 0.014\nsamples = 143\nvalue = [1, 142]"] ;
682 -> 683 ;
684 [label="gini = 0.375\nsamples = 4\nvalue = [1, 3]"] ;
682 -> 684 ;
685 [label="X[0] <= 2.535\ngini = 0.011\nsamples = 713\nvalue = [4, 709]"] ;
681 -> 685 ;
686 [label="gini = 0.009\nsamples = 656\nvalue = [3, 653]"] ;
685 -> 686 ;
687 [label="gini = 0.034\nsamples = 57\nvalue = [1, 56]"] ;
685 -> 687 ;
688 [label="X[1170] <= 0.5\ngini = 0.077\nsamples = 25\nvalue = [1, 24]"] ;
678 -> 688 ;
689 [label="gini = 0.0\nsamples = 24\nvalue = [0, 24]"] ;
688 -> 689 ;
690 [label="gini = 0.0\nsamples = 1\nvalue = [1, 0]"] ;
688 -> 690 ;
691 [label="X[0] <= 0.995\ngini = 0.083\nsamples = 23\nvalue = [1, 22]"] ;
677 -> 691 ;
692 [label="X[0] <= 0.935\ngini = 0.219\nsamples = 8\nvalue = [1, 7]"] ;
691 -> 692 ;
693 [label="gini = 0.0\nsamples = 7\nvalue = [0, 7]"] ;
692 -> 693 ;
694 [label="gini = 0.0\nsamples = 1\nvalue = [1, 0]"] ;
692 -> 694 ;
695 [label="gini = 0.0\nsamples = 15\nvalue = [0, 15]"] ;
691 -> 695 ;
696 [label="X[0] <= 1.235\ngini = 0.18\nsamples = 10\nvalue = [1, 9]"] ;
676 -> 696 ;
697 [label="X[1130] <= 0.5\ngini = 0.444\nsamples = 3\nvalue = [1, 2]"] ;
696 -> 697 ;
698 [label="gini = 0.0\nsamples = 2\nvalue = [0, 2]"] ;
697 -> 698 ;
699 [label="gini = 0.0\nsamples = 1\nvalue = [1, 0]"] ;
697 -> 699 ;
700 [label="gini = 0.0\nsamples = 7\nvalue = [0, 7]"] ;
696 -> 700 ;
701 [label="X[0] <= 0.835\ngini = 0.18\nsamples = 10\nvalue = [1, 9]"] ;
675 -> 701 ;
702 [label="gini = 0.0\nsamples = 1\nvalue = [1, 0]"] ;
701 -> 702 ;
703 [label="gini = 0.0\nsamples = 9\nvalue = [0, 9]"] ;
701 -> 703 ;
704 [label="X[0] <= 1.665\ngini = 0.198\nsamples = 9\nvalue = [1, 8]"] ;
674 -> 704 ;
705 [label="gini = 0.0\nsamples = 4\nvalue = [0, 4]"] ;
704 -> 705 ;
706 [label="X[0] <= 1.83\ngini = 0.32\nsamples = 5\nvalue = [1, 4]"] ;
704 -> 706 ;
707 [label="gini = 0.0\nsamples = 1\nvalue = [1, 0]"] ;
706 -> 707 ;
708 [label="gini = 0.0\nsamples = 4\nvalue = [0, 4]"] ;
706 -> 708 ;
709 [label="X[0] <= 0.775\ngini = 0.278\nsamples = 6\nvalue = [1, 5]"] ;
673 -> 709 ;
710 [label="X[0] <= 0.515\ngini = 0.5\nsamples = 2\nvalue = [1, 1]"] ;
709 -> 710 ;
711 [label="gini = 0.0\nsamples = 1\nvalue = [0, 1]"] ;
710 -> 711 ;
712 [label="gini = 0.0\nsamples = 1\nvalue = [1, 0]"] ;
710 -> 712 ;
713 [label="gini = 0.0\nsamples = 4\nvalue = [0, 4]"] ;
709 -> 713 ;
714 [label="X[1027] <= 0.5\ngini = 0.045\nsamples = 1437\nvalue = [33, 1404]"] ;
672 -> 714 ;
715 [label="X[1011] <= 0.5\ngini = 0.037\nsamples = 1276\nvalue = [24, 1252]"] ;
714 -> 715 ;
716 [label="X[0] <= 1.325\ngini = 0.034\nsamples = 1170\nvalue = [20, 1150]"] ;
715 -> 716 ;
717 [label="X[0] <= 0.865\ngini = 0.023\nsamples = 432\nvalue = [5, 427]"] ;
716 -> 717 ;
718 [label="X[0] <= 0.855\ngini = 0.032\nsamples = 308\nvalue = [5, 303]"] ;
717 -> 718 ;
719 [label="X[1014] <= 0.5\ngini = 0.026\nsamples = 300\nvalue = [4, 296]"] ;
718 -> 719 ;
720 [label="X[0] <= 0.765\ngini = 0.011\nsamples = 174\nvalue = [1, 173]"] ;
719 -> 720 ;
721 [label="gini = 0.0\nsamples = 136\nvalue = [0, 136]"] ;
720 -> 721 ;
722 [label="X[0] <= 0.775\ngini = 0.051\nsamples = 38\nvalue = [1, 37]"] ;
720 -> 722 ;
723 [label="X[990] <= 0.5\ngini = 0.375\nsamples = 4\nvalue = [1, 3]"] ;
722 -> 723 ;
724 [label="gini = 0.0\nsamples = 2\nvalue = [0, 2]"] ;
723 -> 724 ;
725 [label="gini = 0.5\nsamples = 2\nvalue = [1, 1]"] ;
723 -> 725 ;
726 [label="gini = 0.0\nsamples = 34\nvalue = [0, 34]"] ;
722 -> 726 ;
727 [label="X[0] <= 0.705\ngini = 0.046\nsamples = 126\nvalue = [3, 123]"] ;
719 -> 727 ;
728 [label="X[0] <= 0.61\ngini = 0.08\nsamples = 72\nvalue = [3, 69]"] ;
727 -> 728 ;
729 [label="X[0] <= 0.37\ngini = 0.034\nsamples = 57\nvalue = [1, 56]"] ;
728 -> 729 ;
730 [label="gini = 0.08\nsamples = 24\nvalue = [1, 23]"] ;
729 -> 730 ;
731 [label="gini = 0.0\nsamples = 33\nvalue = [0, 33]"] ;
729 -> 731 ;
732 [label="X[0] <= 0.625\ngini = 0.231\nsamples = 15\nvalue = [2, 13]"] ;
728 -> 732 ;
733 [label="gini = 0.5\nsamples = 2\nvalue = [1, 1]"] ;
732 -> 733 ;
734 [label="gini = 0.142\nsamples = 13\nvalue = [1, 12]"] ;
732 -> 734 ;
735 [label="gini = 0.0\nsamples = 54\nvalue = [0, 54]"] ;
727 -> 735 ;
736 [label="X[990] <= 0.5\ngini = 0.219\nsamples = 8\nvalue = [1, 7]"] ;
718 -> 736 ;
737 [label="gini = 0.0\nsamples = 2\nvalue = [0, 2]"] ;
736 -> 737 ;
738 [label="gini = 0.278\nsamples = 6\nvalue = [1, 5]"] ;
736 -> 738 ;
739 [label="gini = 0.0\nsamples = 124\nvalue = [0, 124]"] ;
717 -> 739 ;
740 [label="X[0] <= 1.335\ngini = 0.04\nsamples = 738\nvalue = [15, 723]"] ;
716 -> 740 ;
741 [label="X[990] <= 0.5\ngini = 0.32\nsamples = 5\nvalue = [1, 4]"] ;
740 -> 741 ;
742 [label="gini = 0.0\nsamples = 3\nvalue = [0, 3]"] ;
741 -> 742 ;
743 [label="gini = 0.5\nsamples = 2\nvalue = [1, 1]"] ;
741 -> 743 ;
744 [label="X[0] <= 1.365\ngini = 0.037\nsamples = 733\nvalue = [14, 719]"] ;
740 -> 744 ;
745 [label="X[1019] <= 0.5\ngini = 0.117\nsamples = 16\nvalue = [1, 15]"] ;
744 -> 745 ;
746 [label="gini = 0.0\nsamples = 15\nvalue = [0, 15]"] ;
745 -> 746 ;
747 [label="gini = 0.0\nsamples = 1\nvalue = [1, 0]"] ;
745 -> 747 ;
748 [label="X[990] <= 0.5\ngini = 0.036\nsamples = 717\nvalue = [13, 704]"] ;
744 -> 748 ;
749 [label="X[0] <= 2.505\ngini = 0.026\nsamples = 464\nvalue = [6, 458]"] ;
748 -> 749 ;
750 [label="X[0] <= 2.495\ngini = 0.038\nsamples = 312\nvalue = [6, 306]"] ;
749 -> 750 ;
751 [label="X[0] <= 2.455\ngini = 0.032\nsamples = 307\nvalue = [5, 302]"] ;
750 -> 751 ;
752 [label="gini = 0.027\nsamples = 292\nvalue = [4, 288]"] ;
751 -> 752 ;
753 [label="gini = 0.124\nsamples = 15\nvalue = [1, 14]"] ;
751 -> 753 ;
754 [label="gini = 0.32\nsamples = 5\nvalue = [1, 4]"] ;
750 -> 754 ;
755 [label="gini = 0.0\nsamples = 152\nvalue = [0, 152]"] ;
749 -> 755 ;
756 [label="X[0] <= 2.575\ngini = 0.054\nsamples = 253\nvalue = [7, 246]"] ;
748 -> 756 ;
757 [label="X[0] <= 2.13\ngini = 0.029\nsamples = 203\nvalue = [3, 200]"] ;
756 -> 757 ;
758 [label="X[0] <= 2.11\ngini = 0.048\nsamples = 121\nvalue = [3, 118]"] ;
757 -> 758 ;
759 [label="gini = 0.033\nsamples = 118\nvalue = [2, 116]"] ;
758 -> 759 ;
760 [label="gini = 0.444\nsamples = 3\nvalue = [1, 2]"] ;
758 -> 760 ;
761 [label="gini = 0.0\nsamples = 82\nvalue = [0, 82]"] ;
757 -> 761 ;
762 [label="X[0] <= 2.625\ngini = 0.147\nsamples = 50\nvalue = [4, 46]"] ;
756 -> 762 ;
763 [label="X[0] <= 2.615\ngini = 0.236\nsamples = 22\nvalue = [3, 19]"] ;
762 -> 763 ;
764 [label="gini = 0.188\nsamples = 19\nvalue = [2, 17]"] ;
763 -> 764 ;
765 [label="gini = 0.444\nsamples = 3\nvalue = [1, 2]"] ;
763 -> 765 ;
766 [label="X[0] <= 2.655\ngini = 0.069\nsamples = 28\nvalue = [1, 27]"] ;
762 -> 766 ;
767 [label="gini = 0.0\nsamples = 14\nvalue = [0, 14]"] ;
766 -> 767 ;
768 [label="gini = 0.133\nsamples = 14\nvalue = [1, 13]"] ;
766 -> 768 ;
769 [label="X[0] <= 2.6\ngini = 0.073\nsamples = 106\nvalue = [4, 102]"] ;
715 -> 769 ;
770 [label="X[0] <= 1.815\ngini = 0.061\nsamples = 95\nvalue = [3, 92]"] ;
769 -> 770 ;
771 [label="X[0] <= 1.795\ngini = 0.103\nsamples = 55\nvalue = [3, 52]"] ;
770 -> 771 ;
772 [label="X[0] <= 0.56\ngini = 0.071\nsamples = 54\nvalue = [2, 52]"] ;
771 -> 772 ;
773 [label="X[0] <= 0.545\ngini = 0.153\nsamples = 12\nvalue = [1, 11]"] ;
772 -> 773 ;
774 [label="gini = 0.0\nsamples = 11\nvalue = [0, 11]"] ;
773 -> 774 ;
775 [label="gini = 0.0\nsamples = 1\nvalue = [1, 0]"] ;
773 -> 775 ;
776 [label="X[0] <= 1.55\ngini = 0.046\nsamples = 42\nvalue = [1, 41]"] ;
772 -> 776 ;
777 [label="gini = 0.0\nsamples = 30\nvalue = [0, 30]"] ;
776 -> 777 ;
778 [label="X[0] <= 1.6\ngini = 0.153\nsamples = 12\nvalue = [1, 11]"] ;
776 -> 778 ;
779 [label="gini = 0.375\nsamples = 4\nvalue = [1, 3]"] ;
778 -> 779 ;
780 [label="gini = 0.0\nsamples = 8\nvalue = [0, 8]"] ;
778 -> 780 ;
781 [label="gini = 0.0\nsamples = 1\nvalue = [1, 0]"] ;
771 -> 781 ;
782 [label="gini = 0.0\nsamples = 40\nvalue = [0, 40]"] ;
770 -> 782 ;
783 [label="X[0] <= 2.615\ngini = 0.165\nsamples = 11\nvalue = [1, 10]"] ;
769 -> 783 ;
784 [label="gini = 0.0\nsamples = 1\nvalue = [1, 0]"] ;
783 -> 784 ;
785 [label="gini = 0.0\nsamples = 10\nvalue = [0, 10]"] ;
783 -> 785 ;
786 [label="X[0] <= 1.895\ngini = 0.106\nsamples = 161\nvalue = [9, 152]"] ;
714 -> 786 ;
787 [label="X[0] <= 0.84\ngini = 0.061\nsamples = 96\nvalue = [3, 93]"] ;
786 -> 787 ;
788 [label="X[0] <= 0.815\ngini = 0.102\nsamples = 37\nvalue = [2, 35]"] ;
787 -> 788 ;
789 [label="X[0] <= 0.665\ngini = 0.057\nsamples = 34\nvalue = [1, 33]"] ;
788 -> 789 ;
790 [label="gini = 0.0\nsamples = 24\nvalue = [0, 24]"] ;
789 -> 790 ;
791 [label="X[0] <= 0.69\ngini = 0.18\nsamples = 10\nvalue = [1, 9]"] ;
789 -> 791 ;
792 [label="gini = 0.0\nsamples = 1\nvalue = [1, 0]"] ;
791 -> 792 ;
793 [label="gini = 0.0\nsamples = 9\nvalue = [0, 9]"] ;
791 -> 793 ;
794 [label="gini = 0.444\nsamples = 3\nvalue = [1, 2]"] ;
788 -> 794 ;
795 [label="X[0] <= 1.815\ngini = 0.033\nsamples = 59\nvalue = [1, 58]"] ;
787 -> 795 ;
796 [label="gini = 0.0\nsamples = 40\nvalue = [0, 40]"] ;
795 -> 796 ;
797 [label="X[0] <= 1.825\ngini = 0.1\nsamples = 19\nvalue = [1, 18]"] ;
795 -> 797 ;
798 [label="gini = 0.0\nsamples = 1\nvalue = [1, 0]"] ;
797 -> 798 ;
799 [label="gini = 0.0\nsamples = 18\nvalue = [0, 18]"] ;
797 -> 799 ;
800 [label="X[0] <= 1.99\ngini = 0.168\nsamples = 65\nvalue = [6, 59]"] ;
786 -> 800 ;
801 [label="X[0] <= 1.92\ngini = 0.48\nsamples = 5\nvalue = [3, 2]"] ;
800 -> 801 ;
802 [label="gini = 0.5\nsamples = 4\nvalue = [2, 2]"] ;
801 -> 802 ;
803 [label="gini = 0.0\nsamples = 1\nvalue = [1, 0]"] ;
801 -> 803 ;
804 [label="X[0] <= 2.565\ngini = 0.095\nsamples = 60\nvalue = [3, 57]"] ;
800 -> 804 ;
805 [label="X[0] <= 2.555\ngini = 0.145\nsamples = 38\nvalue = [3, 35]"] ;
804 -> 805 ;
806 [label="X[0] <= 2.405\ngini = 0.108\nsamples = 35\nvalue = [2, 33]"] ;
805 -> 806 ;
807 [label="X[0] <= 2.375\ngini = 0.18\nsamples = 20\nvalue = [2, 18]"] ;
806 -> 807 ;
808 [label="X[0] <= 2.265\ngini = 0.1\nsamples = 19\nvalue = [1, 18]"] ;
807 -> 808 ;
809 [label="X[0] <= 2.22\ngini = 0.18\nsamples = 10\nvalue = [1, 9]"] ;
808 -> 809 ;
810 [label="gini = 0.0\nsamples = 8\nvalue = [0, 8]"] ;
809 -> 810 ;
811 [label="gini = 0.5\nsamples = 2\nvalue = [1, 1]"] ;
809 -> 811 ;
812 [label="gini = 0.0\nsamples = 9\nvalue = [0, 9]"] ;
808 -> 812 ;
813 [label="gini = 0.0\nsamples = 1\nvalue = [1, 0]"] ;
807 -> 813 ;
814 [label="gini = 0.0\nsamples = 15\nvalue = [0, 15]"] ;
806 -> 814 ;
815 [label="gini = 0.444\nsamples = 3\nvalue = [1, 2]"] ;
805 -> 815 ;
816 [label="gini = 0.0\nsamples = 22\nvalue = [0, 22]"] ;
804 -> 816 ;
817 [label="X[0] <= 1.24\ngini = 0.5\nsamples = 2\nvalue = [1, 1]"] ;
671 -> 817 ;
818 [label="gini = 0.0\nsamples = 1\nvalue = [1, 0]"] ;
817 -> 818 ;
819 [label="gini = 0.0\nsamples = 1\nvalue = [0, 1]"] ;
817 -> 819 ;
820 [label="X[249] <= 0.5\ngini = 0.097\nsamples = 683\nvalue = [35, 648]"] ;
670 -> 820 ;
821 [label="X[221] <= 0.5\ngini = 0.095\nsamples = 682\nvalue = [34, 648]"] ;
820 -> 821 ;
822 [label="X[238] <= 0.5\ngini = 0.014\nsamples = 143\nvalue = [1, 142]"] ;
821 -> 822 ;
823 [label="gini = 0.0\nsamples = 135\nvalue = [0, 135]"] ;
822 -> 823 ;
824 [label="X[0] <= 2.925\ngini = 0.219\nsamples = 8\nvalue = [1, 7]"] ;
822 -> 824 ;
825 [label="X[0] <= 2.905\ngini = 0.375\nsamples = 4\nvalue = [1, 3]"] ;
824 -> 825 ;
826 [label="gini = 0.0\nsamples = 3\nvalue = [0, 3]"] ;
825 -> 826 ;
827 [label="gini = 0.0\nsamples = 1\nvalue = [1, 0]"] ;
825 -> 827 ;
828 [label="gini = 0.0\nsamples = 4\nvalue = [0, 4]"] ;
824 -> 828 ;
829 [label="X[1130] <= 0.5\ngini = 0.115\nsamples = 539\nvalue = [33, 506]"] ;
821 -> 829 ;
830 [label="X[1217] <= 0.5\ngini = 0.109\nsamples = 521\nvalue = [30, 491]"] ;
829 -> 830 ;
831 [label="X[1027] <= 0.5\ngini = 0.066\nsamples = 206\nvalue = [7, 199]"] ;
830 -> 831 ;
832 [label="X[0] <= 2.805\ngini = 0.053\nsamples = 185\nvalue = [5, 180]"] ;
831 -> 832 ;
833 [label="gini = 0.0\nsamples = 68\nvalue = [0, 68]"] ;
832 -> 833 ;
834 [label="X[0] <= 2.855\ngini = 0.082\nsamples = 117\nvalue = [5, 112]"] ;
832 -> 834 ;
835 [label="X[0] <= 2.825\ngini = 0.153\nsamples = 48\nvalue = [4, 44]"] ;
834 -> 835 ;
836 [label="X[990] <= 0.5\ngini = 0.102\nsamples = 37\nvalue = [2, 35]"] ;
835 -> 836 ;
837 [label="X[1014] <= 0.5\ngini = 0.071\nsamples = 27\nvalue = [1, 26]"] ;
836 -> 837 ;
838 [label="gini = 0.0\nsamples = 10\nvalue = [0, 10]"] ;
837 -> 838 ;
839 [label="X[1216] <= 0.5\ngini = 0.111\nsamples = 17\nvalue = [1, 16]"] ;
837 -> 839 ;
840 [label="gini = 0.0\nsamples = 2\nvalue = [0, 2]"] ;
839 -> 840 ;
841 [label="gini = 0.124\nsamples = 15\nvalue = [1, 14]"] ;
839 -> 841 ;
842 [label="X[1216] <= 0.5\ngini = 0.18\nsamples = 10\nvalue = [1, 9]"] ;
836 -> 842 ;
843 [label="gini = 0.0\nsamples = 2\nvalue = [0, 2]"] ;
842 -> 843 ;
844 [label="X[0] <= 2.815\ngini = 0.219\nsamples = 8\nvalue = [1, 7]"] ;
842 -> 844 ;
845 [label="gini = 0.245\nsamples = 7\nvalue = [1, 6]"] ;
844 -> 845 ;
846 [label="gini = 0.0\nsamples = 1\nvalue = [0, 1]"] ;
844 -> 846 ;
847 [label="X[990] <= 0.5\ngini = 0.298\nsamples = 11\nvalue = [2, 9]"] ;
835 -> 847 ;
848 [label="X[1216] <= 0.5\ngini = 0.198\nsamples = 9\nvalue = [1, 8]"] ;
847 -> 848 ;
849 [label="gini = 0.0\nsamples = 6\nvalue = [0, 6]"] ;
848 -> 849 ;
850 [label="X[0] <= 2.845\ngini = 0.444\nsamples = 3\nvalue = [1, 2]"] ;
848 -> 850 ;
851 [label="gini = 0.0\nsamples = 2\nvalue = [0, 2]"] ;
850 -> 851 ;
852 [label="gini = 0.0\nsamples = 1\nvalue = [1, 0]"] ;
850 -> 852 ;
853 [label="X[1195] <= 0.5\ngini = 0.5\nsamples = 2\nvalue = [1, 1]"] ;
847 -> 853 ;
854 [label="gini = 0.0\nsamples = 1\nvalue = [1, 0]"] ;
853 -> 854 ;
855 [label="gini = 0.0\nsamples = 1\nvalue = [0, 1]"] ;
853 -> 855 ;
856 [label="X[1170] <= 0.5\ngini = 0.029\nsamples = 69\nvalue = [1, 68]"] ;
834 -> 856 ;
857 [label="gini = 0.0\nsamples = 53\nvalue = [0, 53]"] ;
856 -> 857 ;
858 [label="X[1014] <= 0.5\ngini = 0.117\nsamples = 16\nvalue = [1, 15]"] ;
856 -> 858 ;
859 [label="gini = 0.0\nsamples = 8\nvalue = [0, 8]"] ;
858 -> 859 ;
860 [label="X[0] <= 2.915\ngini = 0.219\nsamples = 8\nvalue = [1, 7]"] ;
858 -> 860 ;
861 [label="gini = 0.0\nsamples = 4\nvalue = [0, 4]"] ;
860 -> 861 ;
862 [label="X[0] <= 2.935\ngini = 0.375\nsamples = 4\nvalue = [1, 3]"] ;
860 -> 862 ;
863 [label="gini = 0.5\nsamples = 2\nvalue = [1, 1]"] ;
862 -> 863 ;
864 [label="gini = 0.0\nsamples = 2\nvalue = [0, 2]"] ;
862 -> 864 ;
865 [label="X[1216] <= 0.5\ngini = 0.172\nsamples = 21\nvalue = [2, 19]"] ;
831 -> 865 ;
866 [label="gini = 0.0\nsamples = 10\nvalue = [0, 10]"] ;
865 -> 866 ;
867 [label="X[0] <= 2.83\ngini = 0.298\nsamples = 11\nvalue = [2, 9]"] ;
865 -> 867 ;
868 [label="X[0] <= 2.75\ngini = 0.346\nsamples = 9\nvalue = [2, 7]"] ;
867 -> 868 ;
869 [label="gini = 0.0\nsamples = 1\nvalue = [0, 1]"] ;
868 -> 869 ;
870 [label="X[0] <= 2.805\ngini = 0.375\nsamples = 8\nvalue = [2, 6]"] ;
868 -> 870 ;
871 [label="gini = 0.375\nsamples = 4\nvalue = [1, 3]"] ;
870 -> 871 ;
872 [label="gini = 0.375\nsamples = 4\nvalue = [1, 3]"] ;
870 -> 872 ;
873 [label="gini = 0.0\nsamples = 2\nvalue = [0, 2]"] ;
867 -> 873 ;
874 [label="X[0] <= 2.725\ngini = 0.135\nsamples = 315\nvalue = [23, 292]"] ;
830 -> 874 ;
875 [label="X[1039] <= 0.5\ngini = 0.201\nsamples = 88\nvalue = [10, 78]"] ;
874 -> 875 ;
876 [label="X[990] <= 0.5\ngini = 0.171\nsamples = 85\nvalue = [8, 77]"] ;
875 -> 876 ;
877 [label="X[0] <= 2.705\ngini = 0.119\nsamples = 63\nvalue = [4, 59]"] ;
876 -> 877 ;
878 [label="X[0] <= 2.685\ngini = 0.051\nsamples = 38\nvalue = [1, 37]"] ;
877 -> 878 ;
879 [label="X[1014] <= 0.5\ngini = 0.124\nsamples = 15\nvalue = [1, 14]"] ;
878 -> 879 ;
880 [label="gini = 0.0\nsamples = 3\nvalue = [0, 3]"] ;
879 -> 880 ;
881 [label="gini = 0.153\nsamples = 12\nvalue = [1, 11]"] ;
879 -> 881 ;
882 [label="gini = 0.0\nsamples = 23\nvalue = [0, 23]"] ;
878 -> 882 ;
883 [label="X[1019] <= 0.5\ngini = 0.211\nsamples = 25\nvalue = [3, 22]"] ;
877 -> 883 ;
884 [label="X[1011] <= 0.5\ngini = 0.172\nsamples = 21\nvalue = [2, 19]"] ;
883 -> 884 ;
885 [label="X[0] <= 2.715\ngini = 0.117\nsamples = 16\nvalue = [1, 15]"] ;
884 -> 885 ;
886 [label="gini = 0.278\nsamples = 6\nvalue = [1, 5]"] ;
885 -> 886 ;
887 [label="gini = 0.0\nsamples = 10\nvalue = [0, 10]"] ;
885 -> 887 ;
888 [label="X[0] <= 2.715\ngini = 0.32\nsamples = 5\nvalue = [1, 4]"] ;
884 -> 888 ;
889 [label="gini = 0.0\nsamples = 2\nvalue = [0, 2]"] ;
888 -> 889 ;
890 [label="gini = 0.444\nsamples = 3\nvalue = [1, 2]"] ;
888 -> 890 ;
891 [label="X[0] <= 2.715\ngini = 0.375\nsamples = 4\nvalue = [1, 3]"] ;
883 -> 891 ;
892 [label="gini = 0.0\nsamples = 1\nvalue = [0, 1]"] ;
891 -> 892 ;
893 [label="gini = 0.444\nsamples = 3\nvalue = [1, 2]"] ;
891 -> 893 ;
894 [label="X[0] <= 2.685\ngini = 0.298\nsamples = 22\nvalue = [4, 18]"] ;
876 -> 894 ;
895 [label="gini = 0.444\nsamples = 3\nvalue = [1, 2]"] ;
894 -> 895 ;
896 [label="X[0] <= 2.705\ngini = 0.266\nsamples = 19\nvalue = [3, 16]"] ;
894 -> 896 ;
897 [label="X[0] <= 2.695\ngini = 0.198\nsamples = 9\nvalue = [1, 8]"] ;
896 -> 897 ;
898 [label="gini = 0.32\nsamples = 5\nvalue = [1, 4]"] ;
897 -> 898 ;
899 [label="gini = 0.0\nsamples = 4\nvalue = [0, 4]"] ;
897 -> 899 ;
900 [label="X[0] <= 2.715\ngini = 0.32\nsamples = 10\nvalue = [2, 8]"] ;
896 -> 900 ;
901 [label="gini = 0.375\nsamples = 4\nvalue = [1, 3]"] ;
900 -> 901 ;
902 [label="gini = 0.278\nsamples = 6\nvalue = [1, 5]"] ;
900 -> 902 ;
903 [label="X[0] <= 2.695\ngini = 0.444\nsamples = 3\nvalue = [2, 1]"] ;
875 -> 903 ;
904 [label="gini = 0.0\nsamples = 1\nvalue = [1, 0]"] ;
903 -> 904 ;
905 [label="gini = 0.5\nsamples = 2\nvalue = [1, 1]"] ;
903 -> 905 ;
906 [label="X[0] <= 2.825\ngini = 0.108\nsamples = 227\nvalue = [13, 214]"] ;
874 -> 906 ;
907 [label="X[1019] <= 0.5\ngini = 0.079\nsamples = 145\nvalue = [6, 139]"] ;
906 -> 907 ;
908 [label="X[0] <= 2.765\ngini = 0.058\nsamples = 133\nvalue = [4, 129]"] ;
907 -> 908 ;
909 [label="X[1014] <= 0.5\ngini = 0.1\nsamples = 76\nvalue = [4, 72]"] ;
908 -> 909 ;
910 [label="X[1039] <= 0.5\ngini = 0.162\nsamples = 45\nvalue = [4, 41]"] ;
909 -> 910 ;
911 [label="X[0] <= 2.735\ngini = 0.184\nsamples = 39\nvalue = [4, 35]"] ;
910 -> 911 ;
912 [label="gini = 0.32\nsamples = 5\nvalue = [1, 4]"] ;
911 -> 912 ;
913 [label="gini = 0.161\nsamples = 34\nvalue = [3, 31]"] ;
911 -> 913 ;
914 [label="gini = 0.0\nsamples = 6\nvalue = [0, 6]"] ;
910 -> 914 ;
915 [label="gini = 0.0\nsamples = 31\nvalue = [0, 31]"] ;
909 -> 915 ;
916 [label="gini = 0.0\nsamples = 57\nvalue = [0, 57]"] ;
908 -> 916 ;
917 [label="X[0] <= 2.755\ngini = 0.278\nsamples = 12\nvalue = [2, 10]"] ;
907 -> 917 ;
918 [label="X[0] <= 2.735\ngini = 0.444\nsamples = 6\nvalue = [2, 4]"] ;
917 -> 918 ;
919 [label="gini = 0.0\nsamples = 1\nvalue = [0, 1]"] ;
918 -> 919 ;
920 [label="X[0] <= 2.745\ngini = 0.48\nsamples = 5\nvalue = [2, 3]"] ;
918 -> 920 ;
921 [label="gini = 0.444\nsamples = 3\nvalue = [1, 2]"] ;
920 -> 921 ;
922 [label="gini = 0.5\nsamples = 2\nvalue = [1, 1]"] ;
920 -> 922 ;
923 [label="gini = 0.0\nsamples = 6\nvalue = [0, 6]"] ;
917 -> 923 ;
924 [label="X[1014] <= 0.5\ngini = 0.156\nsamples = 82\nvalue = [7, 75]"] ;
906 -> 924 ;
925 [label="X[0] <= 2.855\ngini = 0.101\nsamples = 56\nvalue = [3, 53]"] ;
924 -> 925 ;
926 [label="X[1019] <= 0.5\ngini = 0.278\nsamples = 12\nvalue = [2, 10]"] ;
925 -> 926 ;
927 [label="X[1011] <= 0.5\ngini = 0.32\nsamples = 10\nvalue = [2, 8]"] ;
926 -> 927 ;
928 [label="X[0] <= 2.845\ngini = 0.375\nsamples = 8\nvalue = [2, 6]"] ;
927 -> 928 ;
929 [label="gini = 0.278\nsamples = 6\nvalue = [1, 5]"] ;
928 -> 929 ;
930 [label="gini = 0.5\nsamples = 2\nvalue = [1, 1]"] ;
928 -> 930 ;
931 [label="gini = 0.0\nsamples = 2\nvalue = [0, 2]"] ;
927 -> 931 ;
932 [label="gini = 0.0\nsamples = 2\nvalue = [0, 2]"] ;
926 -> 932 ;
933 [label="X[990] <= 0.5\ngini = 0.044\nsamples = 44\nvalue = [1, 43]"] ;
925 -> 933 ;
934 [label="gini = 0.0\nsamples = 23\nvalue = [0, 23]"] ;
933 -> 934 ;
935 [label="X[0] <= 2.905\ngini = 0.091\nsamples = 21\nvalue = [1, 20]"] ;
933 -> 935 ;
936 [label="X[0] <= 2.89\ngini = 0.18\nsamples = 10\nvalue = [1, 9]"] ;
935 -> 936 ;
937 [label="gini = 0.0\nsamples = 4\nvalue = [0, 4]"] ;
936 -> 937 ;
938 [label="gini = 0.278\nsamples = 6\nvalue = [1, 5]"] ;
936 -> 938 ;
939 [label="gini = 0.0\nsamples = 11\nvalue = [0, 11]"] ;
935 -> 939 ;
940 [label="X[0] <= 2.905\ngini = 0.26\nsamples = 26\nvalue = [4, 22]"] ;
924 -> 940 ;
941 [label="X[0] <= 2.845\ngini = 0.117\nsamples = 16\nvalue = [1, 15]"] ;
940 -> 941 ;
942 [label="X[0] <= 2.835\ngini = 0.375\nsamples = 4\nvalue = [1, 3]"] ;
941 -> 942 ;
943 [label="gini = 0.0\nsamples = 3\nvalue = [0, 3]"] ;
942 -> 943 ;
944 [label="gini = 0.0\nsamples = 1\nvalue = [1, 0]"] ;
942 -> 944 ;
945 [label="gini = 0.0\nsamples = 12\nvalue = [0, 12]"] ;
941 -> 945 ;
946 [label="X[0] <= 2.95\ngini = 0.42\nsamples = 10\nvalue = [3, 7]"] ;
940 -> 946 ;
947 [label="gini = 0.444\nsamples = 9\nvalue = [3, 6]"] ;
946 -> 947 ;
948 [label="gini = 0.0\nsamples = 1\nvalue = [0, 1]"] ;
946 -> 948 ;
949 [label="X[0] <= 2.855\ngini = 0.278\nsamples = 18\nvalue = [3, 15]"] ;
829 -> 949 ;
950 [label="gini = 0.0\nsamples = 5\nvalue = [0, 5]"] ;
949 -> 950 ;
951 [label="X[0] <= 2.93\ngini = 0.355\nsamples = 13\nvalue = [3, 10]"] ;
949 -> 951 ;
952 [label="X[0] <= 2.915\ngini = 0.444\nsamples = 9\nvalue = [3, 6]"] ;
951 -> 952 ;
953 [label="X[990] <= 0.5\ngini = 0.375\nsamples = 8\nvalue = [2, 6]"] ;
952 -> 953 ;
954 [label="X[1019] <= 0.5\ngini = 0.444\nsamples = 6\nvalue = [2, 4]"] ;
953 -> 954 ;
955 [label="X[0] <= 2.895\ngini = 0.375\nsamples = 4\nvalue = [1, 3]"] ;
954 -> 955 ;
956 [label="gini = 0.0\nsamples = 2\nvalue = [0, 2]"] ;
955 -> 956 ;
957 [label="gini = 0.5\nsamples = 2\nvalue = [1, 1]"] ;
955 -> 957 ;
958 [label="X[0] <= 2.87\ngini = 0.5\nsamples = 2\nvalue = [1, 1]"] ;
954 -> 958 ;
959 [label="gini = 0.0\nsamples = 1\nvalue = [1, 0]"] ;
958 -> 959 ;
960 [label="gini = 0.0\nsamples = 1\nvalue = [0, 1]"] ;
958 -> 960 ;
961 [label="gini = 0.0\nsamples = 2\nvalue = [0, 2]"] ;
953 -> 961 ;
962 [label="gini = 0.0\nsamples = 1\nvalue = [1, 0]"] ;
952 -> 962 ;
963 [label="gini = 0.0\nsamples = 4\nvalue = [0, 4]"] ;
951 -> 963 ;
964 [label="gini = 0.0\nsamples = 1\nvalue = [1, 0]"] ;
820 -> 964 ;
965 [label="gini = 0.0\nsamples = 1\nvalue = [1, 0]"] ;
669 -> 965 ;
966 [label="X[15] <= 0.5\ngini = 0.035\nsamples = 5159\nvalue = [92, 5067]"] ;
2 -> 966 ;
967 [label="X[4] <= 0.5\ngini = 0.025\nsamples = 5129\nvalue = [64, 5065]"] ;
966 -> 967 ;
968 [label="X[1009] <= 0.5\ngini = 0.017\nsamples = 5099\nvalue = [45, 5054]"] ;
967 -> 968 ;
969 [label="X[2] <= 0.5\ngini = 0.014\nsamples = 5056\nvalue = [35, 5021]"] ;
968 -> 969 ;
970 [label="X[1003] <= 0.5\ngini = 0.013\nsamples = 5054\nvalue = [33, 5021]"] ;
969 -> 970 ;
971 [label="X[1008] <= 0.5\ngini = 0.01\nsamples = 5004\nvalue = [24, 4980]"] ;
970 -> 971 ;
972 [label="X[999] <= 0.5\ngini = 0.008\nsamples = 4973\nvalue = [20, 4953]"] ;
971 -> 972 ;
973 [label="X[1007] <= 0.5\ngini = 0.007\nsamples = 4956\nvalue = [18, 4938]"] ;
972 -> 973 ;
974 [label="X[1015] <= 0.5\ngini = 0.006\nsamples = 4933\nvalue = [16, 4917]"] ;
973 -> 974 ;
975 [label="X[1012] <= 0.5\ngini = 0.006\nsamples = 4927\nvalue = [15, 4912]"] ;
974 -> 975 ;
976 [label="X[998] <= 0.5\ngini = 0.006\nsamples = 4919\nvalue = [14, 4905]"] ;
975 -> 976 ;
977 [label="X[1018] <= 0.5\ngini = 0.005\nsamples = 4887\nvalue = [12, 4875]"] ;
976 -> 977 ;
978 [label="X[1002] <= 0.5\ngini = 0.004\nsamples = 4878\nvalue = [11, 4867]"] ;
977 -> 978 ;
979 [label="X[1005] <= 0.5\ngini = 0.004\nsamples = 4865\nvalue = [10, 4855]"] ;
978 -> 979 ;
980 [label="gini = 0.004\nsamples = 4851\nvalue = [9, 4842]"] ;
979 -> 980 ;
981 [label="gini = 0.133\nsamples = 14\nvalue = [1, 13]"] ;
979 -> 981 ;
982 [label="X[0] <= 2.33\ngini = 0.142\nsamples = 13\nvalue = [1, 12]"] ;
978 -> 982 ;
983 [label="gini = 0.0\nsamples = 11\nvalue = [0, 11]"] ;
982 -> 983 ;
984 [label="gini = 0.5\nsamples = 2\nvalue = [1, 1]"] ;
982 -> 984 ;
985 [label="X[0] <= 1.18\ngini = 0.198\nsamples = 9\nvalue = [1, 8]"] ;
977 -> 985 ;
986 [label="X[0] <= 0.875\ngini = 0.444\nsamples = 3\nvalue = [1, 2]"] ;
985 -> 986 ;
987 [label="gini = 0.0\nsamples = 2\nvalue = [0, 2]"] ;
986 -> 987 ;
988 [label="gini = 0.0\nsamples = 1\nvalue = [1, 0]"] ;
986 -> 988 ;
989 [label="gini = 0.0\nsamples = 6\nvalue = [0, 6]"] ;
985 -> 989 ;
990 [label="X[0] <= 1.435\ngini = 0.117\nsamples = 32\nvalue = [2, 30]"] ;
976 -> 990 ;
991 [label="X[0] <= 1.23\ngini = 0.245\nsamples = 14\nvalue = [2, 12]"] ;
990 -> 991 ;
992 [label="X[0] <= 0.48\ngini = 0.142\nsamples = 13\nvalue = [1, 12]"] ;
991 -> 992 ;
993 [label="gini = 0.0\nsamples = 6\nvalue = [0, 6]"] ;
992 -> 993 ;
994 [label="gini = 0.245\nsamples = 7\nvalue = [1, 6]"] ;
992 -> 994 ;
995 [label="gini = 0.0\nsamples = 1\nvalue = [1, 0]"] ;
991 -> 995 ;
996 [label="gini = 0.0\nsamples = 18\nvalue = [0, 18]"] ;
990 -> 996 ;
997 [label="X[0] <= 0.71\ngini = 0.219\nsamples = 8\nvalue = [1, 7]"] ;
975 -> 997 ;
998 [label="gini = 0.0\nsamples = 5\nvalue = [0, 5]"] ;
997 -> 998 ;
999 [label="X[0] <= 0.83\ngini = 0.444\nsamples = 3\nvalue = [1, 2]"] ;
997 -> 999 ;
1000 [label="gini = 0.0\nsamples = 1\nvalue = [1, 0]"] ;
999 -> 1000 ;
1001 [label="gini = 0.0\nsamples = 2\nvalue = [0, 2]"] ;
999 -> 1001 ;
1002 [label="X[0] <= 1.685\ngini = 0.278\nsamples = 6\nvalue = [1, 5]"] ;
974 -> 1002 ;
1003 [label="gini = 0.0\nsamples = 5\nvalue = [0, 5]"] ;
1002 -> 1003 ;
1004 [label="gini = 0.0\nsamples = 1\nvalue = [1, 0]"] ;
1002 -> 1004 ;
1005 [label="X[0] <= 0.835\ngini = 0.159\nsamples = 23\nvalue = [2, 21]"] ;
973 -> 1005 ;
1006 [label="gini = 0.0\nsamples = 12\nvalue = [0, 12]"] ;
1005 -> 1006 ;
1007 [label="X[6] <= 0.5\ngini = 0.298\nsamples = 11\nvalue = [2, 9]"] ;
1005 -> 1007 ;
1008 [label="X[0] <= 1.48\ngini = 0.444\nsamples = 3\nvalue = [2, 1]"] ;
1007 -> 1008 ;
1009 [label="gini = 0.0\nsamples = 2\nvalue = [2, 0]"] ;
1008 -> 1009 ;
1010 [label="gini = 0.0\nsamples = 1\nvalue = [0, 1]"] ;
1008 -> 1010 ;
1011 [label="gini = 0.0\nsamples = 8\nvalue = [0, 8]"] ;
1007 -> 1011 ;
1012 [label="X[0] <= 1.33\ngini = 0.208\nsamples = 17\nvalue = [2, 15]"] ;
972 -> 1012 ;
1013 [label="X[0] <= 0.825\ngini = 0.375\nsamples = 8\nvalue = [2, 6]"] ;
1012 -> 1013 ;
1014 [label="gini = 0.0\nsamples = 6\nvalue = [0, 6]"] ;
1013 -> 1014 ;
1015 [label="gini = 0.0\nsamples = 2\nvalue = [2, 0]"] ;
1013 -> 1015 ;
1016 [label="gini = 0.0\nsamples = 9\nvalue = [0, 9]"] ;
1012 -> 1016 ;
1017 [label="X[0] <= 2.88\ngini = 0.225\nsamples = 31\nvalue = [4, 27]"] ;
971 -> 1017 ;
1018 [label="X[0] <= 0.97\ngini = 0.185\nsamples = 29\nvalue = [3, 26]"] ;
1017 -> 1018 ;
1019 [label="X[0] <= 0.61\ngini = 0.375\nsamples = 12\nvalue = [3, 9]"] ;
1018 -> 1019 ;
1020 [label="gini = 0.0\nsamples = 7\nvalue = [0, 7]"] ;
1019 -> 1020 ;
1021 [label="X[0] <= 0.785\ngini = 0.48\nsamples = 5\nvalue = [3, 2]"] ;
1019 -> 1021 ;
1022 [label="gini = 0.0\nsamples = 2\nvalue = [2, 0]"] ;
1021 -> 1022 ;
1023 [label="X[0] <= 0.86\ngini = 0.444\nsamples = 3\nvalue = [1, 2]"] ;
1021 -> 1023 ;
1024 [label="gini = 0.0\nsamples = 1\nvalue = [0, 1]"] ;
1023 -> 1024 ;
1025 [label="gini = 0.5\nsamples = 2\nvalue = [1, 1]"] ;
1023 -> 1025 ;
1026 [label="gini = 0.0\nsamples = 17\nvalue = [0, 17]"] ;
1018 -> 1026 ;
1027 [label="X[0] <= 2.985\ngini = 0.5\nsamples = 2\nvalue = [1, 1]"] ;
1017 -> 1027 ;
1028 [label="gini = 0.0\nsamples = 1\nvalue = [1, 0]"] ;
1027 -> 1028 ;
1029 [label="gini = 0.0\nsamples = 1\nvalue = [0, 1]"] ;
1027 -> 1029 ;
1030 [label="X[0] <= 2.14\ngini = 0.295\nsamples = 50\nvalue = [9, 41]"] ;
970 -> 1030 ;
1031 [label="X[0] <= 1.05\ngini = 0.249\nsamples = 48\nvalue = [7, 41]"] ;
1030 -> 1031 ;
1032 [label="X[0] <= 0.92\ngini = 0.313\nsamples = 36\nvalue = [7, 29]"] ;
1031 -> 1032 ;
1033 [label="X[0] <= 0.685\ngini = 0.219\nsamples = 32\nvalue = [4, 28]"] ;
1032 -> 1033 ;
1034 [label="X[0] <= 0.395\ngini = 0.147\nsamples = 25\nvalue = [2, 23]"] ;
1033 -> 1034 ;
1035 [label="gini = 0.0\nsamples = 9\nvalue = [0, 9]"] ;
1034 -> 1035 ;
1036 [label="X[0] <= 0.425\ngini = 0.219\nsamples = 16\nvalue = [2, 14]"] ;
1034 -> 1036 ;
1037 [label="gini = 0.0\nsamples = 1\nvalue = [1, 0]"] ;
1036 -> 1037 ;
1038 [label="X[0] <= 0.54\ngini = 0.124\nsamples = 15\nvalue = [1, 14]"] ;
1036 -> 1038 ;
1039 [label="X[0] <= 0.52\ngini = 0.278\nsamples = 6\nvalue = [1, 5]"] ;
1038 -> 1039 ;
1040 [label="gini = 0.0\nsamples = 4\nvalue = [0, 4]"] ;
1039 -> 1040 ;
1041 [label="gini = 0.5\nsamples = 2\nvalue = [1, 1]"] ;
1039 -> 1041 ;
1042 [label="gini = 0.0\nsamples = 9\nvalue = [0, 9]"] ;
1038 -> 1042 ;
1043 [label="X[0] <= 0.73\ngini = 0.408\nsamples = 7\nvalue = [2, 5]"] ;
1033 -> 1043 ;
1044 [label="X[0] <= 0.705\ngini = 0.444\nsamples = 3\nvalue = [2, 1]"] ;
1043 -> 1044 ;
1045 [label="gini = 0.0\nsamples = 1\nvalue = [1, 0]"] ;
1044 -> 1045 ;
1046 [label="gini = 0.5\nsamples = 2\nvalue = [1, 1]"] ;
1044 -> 1046 ;
1047 [label="gini = 0.0\nsamples = 4\nvalue = [0, 4]"] ;
1043 -> 1047 ;
1048 [label="X[0] <= 1.005\ngini = 0.375\nsamples = 4\nvalue = [3, 1]"] ;
1032 -> 1048 ;
1049 [label="X[0] <= 0.975\ngini = 0.5\nsamples = 2\nvalue = [1, 1]"] ;
1048 -> 1049 ;
1050 [label="gini = 0.0\nsamples = 1\nvalue = [1, 0]"] ;
1049 -> 1050 ;
1051 [label="gini = 0.0\nsamples = 1\nvalue = [0, 1]"] ;
1049 -> 1051 ;
1052 [label="gini = 0.0\nsamples = 2\nvalue = [2, 0]"] ;
1048 -> 1052 ;
1053 [label="gini = 0.0\nsamples = 12\nvalue = [0, 12]"] ;
1031 -> 1053 ;
1054 [label="gini = 0.0\nsamples = 2\nvalue = [2, 0]"] ;
1030 -> 1054 ;
1055 [label="gini = 0.0\nsamples = 2\nvalue = [2, 0]"] ;
969 -> 1055 ;
1056 [label="X[0] <= 2.03\ngini = 0.357\nsamples = 43\nvalue = [10, 33]"] ;
968 -> 1056 ;
1057 [label="X[0] <= 0.385\ngini = 0.337\nsamples = 42\nvalue = [9, 33]"] ;
1056 -> 1057 ;
1058 [label="gini = 0.0\nsamples = 6\nvalue = [0, 6]"] ;
1057 -> 1058 ;
1059 [label="X[0] <= 0.395\ngini = 0.375\nsamples = 36\nvalue = [9, 27]"] ;
1057 -> 1059 ;
1060 [label="gini = 0.0\nsamples = 1\nvalue = [1, 0]"] ;
1059 -> 1060 ;
1061 [label="X[0] <= 0.9\ngini = 0.353\nsamples = 35\nvalue = [8, 27]"] ;
1059 -> 1061 ;
1062 [label="X[0] <= 0.72\ngini = 0.391\nsamples = 30\nvalue = [8, 22]"] ;
1061 -> 1062 ;
1063 [label="X[0] <= 0.625\ngini = 0.287\nsamples = 23\nvalue = [4, 19]"] ;
1062 -> 1063 ;
1064 [label="X[0] <= 0.56\ngini = 0.36\nsamples = 17\nvalue = [4, 13]"] ;
1063 -> 1064 ;
1065 [label="X[0] <= 0.435\ngini = 0.231\nsamples = 15\nvalue = [2, 13]"] ;
1064 -> 1065 ;
1066 [label="X[0] <= 0.405\ngini = 0.408\nsamples = 7\nvalue = [2, 5]"] ;
1065 -> 1066 ;
1067 [label="gini = 0.0\nsamples = 1\nvalue = [0, 1]"] ;
1066 -> 1067 ;
1068 [label="X[0] <= 0.42\ngini = 0.444\nsamples = 6\nvalue = [2, 4]"] ;
1066 -> 1068 ;
1069 [label="gini = 0.444\nsamples = 3\nvalue = [1, 2]"] ;
1068 -> 1069 ;
1070 [label="gini = 0.444\nsamples = 3\nvalue = [1, 2]"] ;
1068 -> 1070 ;
1071 [label="gini = 0.0\nsamples = 8\nvalue = [0, 8]"] ;
1065 -> 1071 ;
1072 [label="gini = 0.0\nsamples = 2\nvalue = [2, 0]"] ;
1064 -> 1072 ;
1073 [label="gini = 0.0\nsamples = 6\nvalue = [0, 6]"] ;
1063 -> 1073 ;
1074 [label="X[0] <= 0.755\ngini = 0.49\nsamples = 7\nvalue = [4, 3]"] ;
1062 -> 1074 ;
1075 [label="gini = 0.0\nsamples = 2\nvalue = [2, 0]"] ;
1074 -> 1075 ;
1076 [label="X[0] <= 0.81\ngini = 0.48\nsamples = 5\nvalue = [2, 3]"] ;
1074 -> 1076 ;
1077 [label="gini = 0.0\nsamples = 2\nvalue = [0, 2]"] ;
1076 -> 1077 ;
1078 [label="X[0] <= 0.845\ngini = 0.444\nsamples = 3\nvalue = [2, 1]"] ;
1076 -> 1078 ;
1079 [label="gini = 0.0\nsamples = 1\nvalue = [1, 0]"] ;
1078 -> 1079 ;
1080 [label="gini = 0.5\nsamples = 2\nvalue = [1, 1]"] ;
1078 -> 1080 ;
1081 [label="gini = 0.0\nsamples = 5\nvalue = [0, 5]"] ;
1061 -> 1081 ;
1082 [label="gini = 0.0\nsamples = 1\nvalue = [1, 0]"] ;
1056 -> 1082 ;
1083 [label="X[0] <= 2.665\ngini = 0.464\nsamples = 30\nvalue = [19, 11]"] ;
967 -> 1083 ;
1084 [label="X[0] <= 1.465\ngini = 0.459\nsamples = 14\nvalue = [5, 9]"] ;
1083 -> 1084 ;
1085 [label="X[0] <= 1.39\ngini = 0.469\nsamples = 8\nvalue = [5, 3]"] ;
1084 -> 1085 ;
1086 [label="X[1010] <= 0.5\ngini = 0.48\nsamples = 5\nvalue = [2, 3]"] ;
1085 -> 1086 ;
1087 [label="X[993] <= 0.5\ngini = 0.375\nsamples = 4\nvalue = [1, 3]"] ;
1086 -> 1087 ;
1088 [label="gini = 0.0\nsamples = 3\nvalue = [0, 3]"] ;
1087 -> 1088 ;
1089 [label="gini = 0.0\nsamples = 1\nvalue = [1, 0]"] ;
1087 -> 1089 ;
1090 [label="gini = 0.0\nsamples = 1\nvalue = [1, 0]"] ;
1086 -> 1090 ;
1091 [label="gini = 0.0\nsamples = 3\nvalue = [3, 0]"] ;
1085 -> 1091 ;
1092 [label="gini = 0.0\nsamples = 6\nvalue = [0, 6]"] ;
1084 -> 1092 ;
1093 [label="X[1003] <= 0.5\ngini = 0.219\nsamples = 16\nvalue = [14, 2]"] ;
1083 -> 1093 ;
1094 [label="gini = 0.0\nsamples = 12\nvalue = [12, 0]"] ;
1093 -> 1094 ;
1095 [label="X[0] <= 2.83\ngini = 0.5\nsamples = 4\nvalue = [2, 2]"] ;
1093 -> 1095 ;
1096 [label="gini = 0.0\nsamples = 2\nvalue = [2, 0]"] ;
1095 -> 1096 ;
1097 [label="gini = 0.0\nsamples = 2\nvalue = [0, 2]"] ;
1095 -> 1097 ;
1098 [label="X[1007] <= 0.5\ngini = 0.124\nsamples = 30\nvalue = [28, 2]"] ;
966 -> 1098 ;
1099 [label="X[1015] <= 0.5\ngini = 0.069\nsamples = 28\nvalue = [27, 1]"] ;
1098 -> 1099 ;
1100 [label="gini = 0.0\nsamples = 26\nvalue = [26, 0]"] ;
1099 -> 1100 ;
1101 [label="X[0] <= 0.975\ngini = 0.5\nsamples = 2\nvalue = [1, 1]"] ;
1099 -> 1101 ;
1102 [label="gini = 0.0\nsamples = 1\nvalue = [0, 1]"] ;
1101 -> 1102 ;
1103 [label="gini = 0.0\nsamples = 1\nvalue = [1, 0]"] ;
1101 -> 1103 ;
1104 [label="X[0] <= 2.165\ngini = 0.5\nsamples = 2\nvalue = [1, 1]"] ;
1098 -> 1104 ;
1105 [label="gini = 0.0\nsamples = 1\nvalue = [1, 0]"] ;
1104 -> 1105 ;
1106 [label="gini = 0.0\nsamples = 1\nvalue = [0, 1]"] ;
1104 -> 1106 ;
1107 [label="X[0] <= 2.965\ngini = 0.003\nsamples = 5919\nvalue = [10, 5909]"] ;
1 -> 1107 ;
1108 [label="X[1017] <= 0.5\ngini = 0.003\nsamples = 5901\nvalue = [9, 5892]"] ;
1107 -> 1108 ;
1109 [label="X[1007] <= 0.5\ngini = 0.003\nsamples = 5881\nvalue = [8, 5873]"] ;
1108 -> 1109 ;
1110 [label="X[1030] <= 0.5\ngini = 0.002\nsamples = 5588\nvalue = [5, 5583]"] ;
1109 -> 1110 ;
1111 [label="X[999] <= 0.5\ngini = 0.001\nsamples = 5544\nvalue = [4, 5540]"] ;
1110 -> 1111 ;
1112 [label="X[1004] <= 0.5\ngini = 0.001\nsamples = 5484\nvalue = [3, 5481]"] ;
1111 -> 1112 ;
1113 [label="X[1010] <= 0.5\ngini = 0.001\nsamples = 5386\nvalue = [2, 5384]"] ;
1112 -> 1113 ;
1114 [label="X[1008] <= 0.5\ngini = 0.0\nsamples = 5246\nvalue = [1, 5245]"] ;
1113 -> 1114 ;
1115 [label="gini = 0.0\nsamples = 4862\nvalue = [0, 4862]"] ;
1114 -> 1115 ;
1116 [label="X[0] <= 0.89\ngini = 0.005\nsamples = 384\nvalue = [1, 383]"] ;
1114 -> 1116 ;
1117 [label="X[0] <= 0.875\ngini = 0.018\nsamples = 108\nvalue = [1, 107]"] ;
1116 -> 1117 ;
1118 [label="gini = 0.0\nsamples = 105\nvalue = [0, 105]"] ;
1117 -> 1118 ;
1119 [label="X[1126] <= 0.5\ngini = 0.444\nsamples = 3\nvalue = [1, 2]"] ;
1117 -> 1119 ;
1120 [label="gini = 0.0\nsamples = 1\nvalue = [0, 1]"] ;
1119 -> 1120 ;
1121 [label="gini = 0.5\nsamples = 2\nvalue = [1, 1]"] ;
1119 -> 1121 ;
1122 [label="gini = 0.0\nsamples = 276\nvalue = [0, 276]"] ;
1116 -> 1122 ;
1123 [label="X[0] <= 2.365\ngini = 0.014\nsamples = 140\nvalue = [1, 139]"] ;
1113 -> 1123 ;
1124 [label="gini = 0.0\nsamples = 121\nvalue = [0, 121]"] ;
1123 -> 1124 ;
1125 [label="X[0] <= 2.38\ngini = 0.1\nsamples = 19\nvalue = [1, 18]"] ;
1123 -> 1125 ;
1126 [label="X[1126] <= 0.5\ngini = 0.5\nsamples = 2\nvalue = [1, 1]"] ;
1125 -> 1126 ;
1127 [label="gini = 0.0\nsamples = 1\nvalue = [0, 1]"] ;
1126 -> 1127 ;
1128 [label="gini = 0.0\nsamples = 1\nvalue = [1, 0]"] ;
1126 -> 1128 ;
1129 [label="gini = 0.0\nsamples = 17\nvalue = [0, 17]"] ;
1125 -> 1129 ;
1130 [label="X[0] <= 1.93\ngini = 0.02\nsamples = 98\nvalue = [1, 97]"] ;
1112 -> 1130 ;
1131 [label="gini = 0.0\nsamples = 78\nvalue = [0, 78]"] ;
1130 -> 1131 ;
1132 [label="X[0] <= 2.005\ngini = 0.095\nsamples = 20\nvalue = [1, 19]"] ;
1130 -> 1132 ;
1133 [label="gini = 0.0\nsamples = 1\nvalue = [1, 0]"] ;
1132 -> 1133 ;
1134 [label="gini = 0.0\nsamples = 19\nvalue = [0, 19]"] ;
1132 -> 1134 ;
1135 [label="X[0] <= 2.345\ngini = 0.033\nsamples = 60\nvalue = [1, 59]"] ;
1111 -> 1135 ;
1136 [label="gini = 0.0\nsamples = 50\nvalue = [0, 50]"] ;
1135 -> 1136 ;
1137 [label="X[0] <= 2.385\ngini = 0.18\nsamples = 10\nvalue = [1, 9]"] ;
1135 -> 1137 ;
1138 [label="gini = 0.0\nsamples = 1\nvalue = [1, 0]"] ;
1137 -> 1138 ;
1139 [label="gini = 0.0\nsamples = 9\nvalue = [0, 9]"] ;
1137 -> 1139 ;
1140 [label="X[0] <= 1.44\ngini = 0.044\nsamples = 44\nvalue = [1, 43]"] ;
1110 -> 1140 ;
1141 [label="gini = 0.0\nsamples = 25\nvalue = [0, 25]"] ;
1140 -> 1141 ;
1142 [label="X[0] <= 1.49\ngini = 0.1\nsamples = 19\nvalue = [1, 18]"] ;
1140 -> 1142 ;
1143 [label="gini = 0.0\nsamples = 1\nvalue = [1, 0]"] ;
1142 -> 1143 ;
1144 [label="gini = 0.0\nsamples = 18\nvalue = [0, 18]"] ;
1142 -> 1144 ;
1145 [label="X[1196] <= 0.5\ngini = 0.02\nsamples = 293\nvalue = [3, 290]"] ;
1109 -> 1145 ;
1146 [label="X[0] <= 1.67\ngini = 0.042\nsamples = 139\nvalue = [3, 136]"] ;
1145 -> 1146 ;
1147 [label="X[0] <= 1.655\ngini = 0.058\nsamples = 100\nvalue = [3, 97]"] ;
1146 -> 1147 ;
1148 [label="X[0] <= 1.57\ngini = 0.04\nsamples = 97\nvalue = [2, 95]"] ;
1147 -> 1148 ;
1149 [label="X[0] <= 0.455\ngini = 0.023\nsamples = 87\nvalue = [1, 86]"] ;
1148 -> 1149 ;
1150 [label="X[0] <= 0.445\ngini = 0.061\nsamples = 32\nvalue = [1, 31]"] ;
1149 -> 1150 ;
1151 [label="gini = 0.0\nsamples = 29\nvalue = [0, 29]"] ;
1150 -> 1151 ;
1152 [label="gini = 0.444\nsamples = 3\nvalue = [1, 2]"] ;
1150 -> 1152 ;
1153 [label="gini = 0.0\nsamples = 55\nvalue = [0, 55]"] ;
1149 -> 1153 ;
1154 [label="X[0] <= 1.585\ngini = 0.18\nsamples = 10\nvalue = [1, 9]"] ;
1148 -> 1154 ;
1155 [label="gini = 0.5\nsamples = 2\nvalue = [1, 1]"] ;
1154 -> 1155 ;
1156 [label="gini = 0.0\nsamples = 8\nvalue = [0, 8]"] ;
1154 -> 1156 ;
1157 [label="gini = 0.444\nsamples = 3\nvalue = [1, 2]"] ;
1147 -> 1157 ;
1158 [label="gini = 0.0\nsamples = 39\nvalue = [0, 39]"] ;
1146 -> 1158 ;
1159 [label="gini = 0.0\nsamples = 154\nvalue = [0, 154]"] ;
1145 -> 1159 ;
1160 [label="X[1196] <= 0.5\ngini = 0.095\nsamples = 20\nvalue = [1, 19]"] ;
1108 -> 1160 ;
1161 [label="X[0] <= 1.795\ngini = 0.444\nsamples = 3\nvalue = [1, 2]"] ;
1160 -> 1161 ;
1162 [label="gini = 0.0\nsamples = 2\nvalue = [0, 2]"] ;
1161 -> 1162 ;
1163 [label="gini = 0.0\nsamples = 1\nvalue = [1, 0]"] ;
1161 -> 1163 ;
1164 [label="gini = 0.0\nsamples = 17\nvalue = [0, 17]"] ;
1160 -> 1164 ;
1165 [label="X[1006] <= 0.5\ngini = 0.105\nsamples = 18\nvalue = [1, 17]"] ;
1107 -> 1165 ;
1166 [label="gini = 0.0\nsamples = 17\nvalue = [0, 17]"] ;
1165 -> 1166 ;
1167 [label="gini = 0.0\nsamples = 1\nvalue = [1, 0]"] ;
1165 -> 1167 ;
1168 [label="X[927] <= 0.5\ngini = 0.022\nsamples = 12501\nvalue = [138, 12363]"] ;
0 -> 1168 [labeldistance=2.5, labelangle=-45, headlabel="False"] ;
1169 [label="X[794] <= 0.5\ngini = 0.022\nsamples = 12500\nvalue = [137, 12363]"] ;
1168 -> 1169 ;
1170 [label="X[960] <= 0.5\ngini = 0.022\nsamples = 12499\nvalue = [136, 12363]"] ;
1169 -> 1170 ;
1171 [label="X[633] <= 0.5\ngini = 0.021\nsamples = 12498\nvalue = [135, 12363]"] ;
1170 -> 1171 ;
1172 [label="X[115] <= 0.5\ngini = 0.021\nsamples = 12496\nvalue = [134, 12362]"] ;
1171 -> 1172 ;
1173 [label="X[378] <= 0.5\ngini = 0.021\nsamples = 12486\nvalue = [132, 12354]"] ;
1172 -> 1173 ;
1174 [label="X[448] <= 0.5\ngini = 0.021\nsamples = 12483\nvalue = [131, 12352]"] ;
1173 -> 1174 ;
1175 [label="X[1023] <= 0.5\ngini = 0.021\nsamples = 12480\nvalue = [130, 12350]"] ;
1174 -> 1175 ;
1176 [label="X[30] <= 0.5\ngini = 0.02\nsamples = 12475\nvalue = [129, 12346]"] ;
1175 -> 1176 ;
1177 [label="X[265] <= 0.5\ngini = 0.017\nsamples = 10135\nvalue = [88, 10047]"] ;
1176 -> 1177 ;
1178 [label="X[351] <= 0.5\ngini = 0.017\nsamples = 10129\nvalue = [87, 10042]"] ;
1177 -> 1178 ;
1179 [label="X[227] <= 0.5\ngini = 0.017\nsamples = 10123\nvalue = [86, 10037]"] ;
1178 -> 1179 ;
1180 [label="X[131] <= 0.5\ngini = 0.017\nsamples = 10097\nvalue = [84, 10013]"] ;
1179 -> 1180 ;
1181 [label="X[324] <= 0.5\ngini = 0.016\nsamples = 10089\nvalue = [83, 10006]"] ;
1180 -> 1181 ;
1182 [label="X[322] <= 0.5\ngini = 0.016\nsamples = 10081\nvalue = [82, 9999]"] ;
1181 -> 1182 ;
1183 [label="X[45] <= 0.5\ngini = 0.016\nsamples = 10070\nvalue = [81, 9989]"] ;
1182 -> 1183 ;
1184 [label="gini = 0.015\nsamples = 9987\nvalue = [78, 9909]"] ;
1183 -> 1184 ;
1185 [label="gini = 0.07\nsamples = 83\nvalue = [3, 80]"] ;
1183 -> 1185 ;
1186 [label="X[0] <= 2.65\ngini = 0.165\nsamples = 11\nvalue = [1, 10]"] ;
1182 -> 1186 ;
1187 [label="gini = 0.0\nsamples = 8\nvalue = [0, 8]"] ;
1186 -> 1187 ;
1188 [label="gini = 0.444\nsamples = 3\nvalue = [1, 2]"] ;
1186 -> 1188 ;
1189 [label="X[0] <= 0.645\ngini = 0.219\nsamples = 8\nvalue = [1, 7]"] ;
1181 -> 1189 ;
1190 [label="gini = 0.0\nsamples = 1\nvalue = [1, 0]"] ;
1189 -> 1190 ;
1191 [label="gini = 0.0\nsamples = 7\nvalue = [0, 7]"] ;
1189 -> 1191 ;
1192 [label="X[1010] <= 0.5\ngini = 0.219\nsamples = 8\nvalue = [1, 7]"] ;
1180 -> 1192 ;
1193 [label="gini = 0.0\nsamples = 7\nvalue = [0, 7]"] ;
1192 -> 1193 ;
1194 [label="gini = 0.0\nsamples = 1\nvalue = [1, 0]"] ;
1192 -> 1194 ;
1195 [label="X[0] <= 1.495\ngini = 0.142\nsamples = 26\nvalue = [2, 24]"] ;
1179 -> 1195 ;
1196 [label="gini = 0.0\nsamples = 12\nvalue = [0, 12]"] ;
1195 -> 1196 ;
1197 [label="X[0] <= 1.66\ngini = 0.245\nsamples = 14\nvalue = [2, 12]"] ;
1195 -> 1197 ;
1198 [label="gini = 0.0\nsamples = 1\nvalue = [1, 0]"] ;
1197 -> 1198 ;
1199 [label="X[0] <= 2.57\ngini = 0.142\nsamples = 13\nvalue = [1, 12]"] ;
1197 -> 1199 ;
1200 [label="gini = 0.0\nsamples = 6\nvalue = [0, 6]"] ;
1199 -> 1200 ;
1201 [label="X[0] <= 2.76\ngini = 0.245\nsamples = 7\nvalue = [1, 6]"] ;
1199 -> 1201 ;
1202 [label="gini = 0.0\nsamples = 1\nvalue = [1, 0]"] ;
1201 -> 1202 ;
1203 [label="gini = 0.0\nsamples = 6\nvalue = [0, 6]"] ;
1201 -> 1203 ;
1204 [label="X[0] <= 1.24\ngini = 0.278\nsamples = 6\nvalue = [1, 5]"] ;
1178 -> 1204 ;
1205 [label="X[0] <= 0.775\ngini = 0.444\nsamples = 3\nvalue = [1, 2]"] ;
1204 -> 1205 ;
1206 [label="gini = 0.0\nsamples = 2\nvalue = [0, 2]"] ;
1205 -> 1206 ;
1207 [label="gini = 0.0\nsamples = 1\nvalue = [1, 0]"] ;
1205 -> 1207 ;
1208 [label="gini = 0.0\nsamples = 3\nvalue = [0, 3]"] ;
1204 -> 1208 ;
1209 [label="X[0] <= 0.73\ngini = 0.278\nsamples = 6\nvalue = [1, 5]"] ;
1177 -> 1209 ;
1210 [label="gini = 0.0\nsamples = 1\nvalue = [1, 0]"] ;
1209 -> 1210 ;
1211 [label="gini = 0.0\nsamples = 5\nvalue = [0, 5]"] ;
1209 -> 1211 ;
1212 [label="X[1021] <= 0.5\ngini = 0.034\nsamples = 2340\nvalue = [41, 2299]"] ;
1176 -> 1212 ;
1213 [label="X[0] <= 0.975\ngini = 0.034\nsamples = 2332\nvalue = [40, 2292]"] ;
1212 -> 1213 ;
1214 [label="X[1003] <= 0.5\ngini = 0.049\nsamples = 711\nvalue = [18, 693]"] ;
1213 -> 1214 ;
1215 [label="X[0] <= 0.735\ngini = 0.033\nsamples = 542\nvalue = [9, 533]"] ;
1214 -> 1215 ;
1216 [label="X[999] <= 0.5\ngini = 0.006\nsamples = 323\nvalue = [1, 322]"] ;
1215 -> 1216 ;
1217 [label="gini = 0.0\nsamples = 314\nvalue = [0, 314]"] ;
1216 -> 1217 ;
1218 [label="X[0] <= 0.51\ngini = 0.198\nsamples = 9\nvalue = [1, 8]"] ;
1216 -> 1218 ;
1219 [label="gini = 0.0\nsamples = 4\nvalue = [0, 4]"] ;
1218 -> 1219 ;
1220 [label="X[0] <= 0.55\ngini = 0.32\nsamples = 5\nvalue = [1, 4]"] ;
1218 -> 1220 ;
1221 [label="gini = 0.0\nsamples = 1\nvalue = [1, 0]"] ;
1220 -> 1221 ;
1222 [label="gini = 0.0\nsamples = 4\nvalue = [0, 4]"] ;
1220 -> 1222 ;
1223 [label="X[993] <= 0.5\ngini = 0.07\nsamples = 219\nvalue = [8, 211]"] ;
1215 -> 1223 ;
1224 [label="X[1007] <= 0.5\ngini = 0.063\nsamples = 214\nvalue = [7, 207]"] ;
1223 -> 1224 ;
1225 [label="X[998] <= 0.5\ngini = 0.05\nsamples = 196\nvalue = [5, 191]"] ;
1224 -> 1225 ;
1226 [label="gini = 0.041\nsamples = 190\nvalue = [4, 186]"] ;
1225 -> 1226 ;
1227 [label="gini = 0.278\nsamples = 6\nvalue = [1, 5]"] ;
1225 -> 1227 ;
1228 [label="X[0] <= 0.925\ngini = 0.198\nsamples = 18\nvalue = [2, 16]"] ;
1224 -> 1228 ;
1229 [label="gini = 0.133\nsamples = 14\nvalue = [1, 13]"] ;
1228 -> 1229 ;
1230 [label="gini = 0.375\nsamples = 4\nvalue = [1, 3]"] ;
1228 -> 1230 ;
1231 [label="X[0] <= 0.77\ngini = 0.32\nsamples = 5\nvalue = [1, 4]"] ;
1223 -> 1231 ;
1232 [label="gini = 0.0\nsamples = 1\nvalue = [1, 0]"] ;
1231 -> 1232 ;
1233 [label="gini = 0.0\nsamples = 4\nvalue = [0, 4]"] ;
1231 -> 1233 ;
1234 [label="X[0] <= 0.27\ngini = 0.101\nsamples = 169\nvalue = [9, 160]"] ;
1214 -> 1234 ;
1235 [label="X[0] <= 0.155\ngini = 0.298\nsamples = 11\nvalue = [2, 9]"] ;
1234 -> 1235 ;
1236 [label="gini = 0.0\nsamples = 8\nvalue = [0, 8]"] ;
1235 -> 1236 ;
1237 [label="X[0] <= 0.195\ngini = 0.444\nsamples = 3\nvalue = [2, 1]"] ;
1235 -> 1237 ;
1238 [label="gini = 0.0\nsamples = 1\nvalue = [1, 0]"] ;
1237 -> 1238 ;
1239 [label="X[0] <= 0.23\ngini = 0.5\nsamples = 2\nvalue = [1, 1]"] ;
1237 -> 1239 ;
1240 [label="gini = 0.0\nsamples = 1\nvalue = [0, 1]"] ;
1239 -> 1240 ;
1241 [label="gini = 0.0\nsamples = 1\nvalue = [1, 0]"] ;
1239 -> 1241 ;
1242 [label="X[0] <= 0.965\ngini = 0.085\nsamples = 158\nvalue = [7, 151]"] ;
1234 -> 1242 ;
1243 [label="X[0] <= 0.875\ngini = 0.075\nsamples = 154\nvalue = [6, 148]"] ;
1242 -> 1243 ;
1244 [label="X[0] <= 0.865\ngini = 0.094\nsamples = 122\nvalue = [6, 116]"] ;
1243 -> 1244 ;
1245 [label="gini = 0.08\nsamples = 120\nvalue = [5, 115]"] ;
1244 -> 1245 ;
1246 [label="gini = 0.5\nsamples = 2\nvalue = [1, 1]"] ;
1244 -> 1246 ;
1247 [label="gini = 0.0\nsamples = 32\nvalue = [0, 32]"] ;
1243 -> 1247 ;
1248 [label="gini = 0.375\nsamples = 4\nvalue = [1, 3]"] ;
1242 -> 1248 ;
1249 [label="X[996] <= 0.5\ngini = 0.027\nsamples = 1621\nvalue = [22, 1599]"] ;
1213 -> 1249 ;
